{"learner":{"attributes":{"scikit_learn":"{\"_estimator_type\": \"classifier\"}"},"feature_names":[],"feature_types":[],"gradient_booster":{"model":{"gbtree_model_param":{"num_parallel_tree":"1","num_trees":"100"},"iteration_indptr":[0,1,2,3,4,5,6,7,8,9,10,11,12,13,14,15,16,17,18,19,20,21,22,23,24,25,26,27,28,29,30,31,32,33,34,35,36,37,38,39,40,41,42,43,44,45,46,47,48,49,50,51,52,53,54,55,56,57,58,59,60,61,62,63,64,65,66,67,68,69,70,71,72,73,74,75,76,77,78,79,80,81,82,83,84,85,86,87,88,89,90,91,92,93,94,95,96,97,98,99,100],"tree_info":[0,0,0,0,0,0,0,0,0,0,0,0,0,0,0,0,0,0,0,0,0,0,0,0,0,0,0,0,0,0,0,0,0,0,0,0,0,0,0,0,0,0,0,0,0,0,0,0,0,0,0,0,0,0,0,0,0,0,0,0,0,0,0,0,0,0,0,0,0,0,0,0,0,0,0,0,0,0,0,0,0,0,0,0,0,0,0,0,0,0,0,0,0,0,0,0,0,0,0,0],"trees":[{"base_weights":[-3.3624727E-2,-4.4662648E-1,3.3237195E-1,-1.541393E-1,-1.3137832E0,5.436467E-1,-6.435722E-1,-4.3051332E-1,7.890708E-2,-2.8305685E-2,-1.8455131E-1,-7.577661E-2,7.047502E-1,-1.2882234E-1,1.916523E-2,5.1789135E-1,-1.0158786E0,8.671393E-1,-5.2041143E-2,1.3784252E-1,-1.7927248E-2,1.916523E-2,-1.3898818E-1,1.0151644E-1,-6.3536675E-3],"categories":[],"categories_nodes":[],"categories_segments":[],"categories_sizes":[],"default_left":[0,0,0,0,0,0,0,0,0,0,0,0,0,0,0,0,0,0,0,0,0,0,0,0,0],"id":0,"left_children":[1,3,5,7,9,11,13,15,-1,-1,-1,-1,17,-1,-1,19,21,23,-1,-1,-1,-1,-1,-1,-1],"loss_changes":[1.1545063E1,8.890168E0,8.710134E0,7.623242E0,4.3604527E0,7.635825E0,4.378454E0,1.2881788E1,0E0,0E0,0E0,0E0,6.551054E0,0E0,0E0,5.7403092E0,6.634035E0,3.8455963E0,0E0,0E0,0E0,0E0,0E0,0E0,0E0],"parents":[2147483647,0,0,1,1,2,2,3,3,4,4,5,5,6,6,7,7,12,12,15,15,16,16,17,17],"right_children":[2,4,6,8,10,12,14,16,-1,-1,-1,-1,18,-1,-1,20,22,24,-1,-1,-1,-1,-1,-1,-1],"split_conditions":[-1.03882864E-1,6.636726E-2,1.191993E0,-1.2596084E-1,3.6462703E-1,-1.0886753E0,7.3442586E-2,-3.769587E-1,7.890708E-2,-2.8305685E-2,-1.8455131E-1,-7.577661E-2,1.3081176E0,-1.2882234E-1,1.916523E-2,2.2378768E-1,-1.0093074E0,1.0725225E0,-5.2041143E-2,1.3784252E-1,-1.7927248E-2,1.916523E-2,-1.3898818E-1,1.0151644E-1,-6.3536675E-3],"split_indices":[96,71,25,70,91,139,71,31,0,0,0,0,12,0,0,116,69,86,0,0,0,0,0,0,0],"split_type":[0,0,0,0,0,0,0,0,0,0,0,0,0,0,0,0,0,0,0,0,0,0,0,0,0],"sum_hessian":[7.439576E1,3.484984E1,3.9545918E1,2.6940657E1,7.9091835E0,3.2872543E1,6.6733737E0,2.125593E1,5.6847258E0,3.2131057E0,4.696078E0,3.2131057E0,2.965944E1,3.4602678E0,3.2131057E0,8.156345E0,1.3099586E1,2.6446333E1,3.2131057E0,3.2131057E0,4.9432397E0,3.2131057E0,9.886479E0,2.2738903E1,3.70743E0],"tree_param":{"num_deleted":"0","num_feature":"144","num_nodes":"25","size_leaf_vector":"1"}},{"base_weights":[1.0202845E-2,-1.2644704E-1,8.519834E-1,8.084126E-2,-8.0129665E-1,2.951082E-2,1.4069209E-1,2.692109E-1,-1.0757762E-1,-1.1496204E0,2.8865883E-2,4.7090858E-1,-6.009627E-1,-1.7646442E-1,-6.036531E-1,-3.2184739E-3,8.654363E-2,1.4688836E-2,-1.18955396E-1,2.127189E-2,-1.23826526E-1],"categories":[],"categories_nodes":[],"categories_segments":[],"categories_sizes":[],"default_left":[0,0,0,0,0,0,0,0,0,0,0,0,0,0,0,0,0,0,0,0,0],"id":1,"left_children":[1,3,5,7,9,-1,-1,11,-1,13,-1,15,17,-1,19,-1,-1,-1,-1,-1,-1],"loss_changes":[8.530159E0,8.998695E0,2.784912E0,1.1132169E1,6.0642204E0,0E0,0E0,7.9345813E0,0E0,2.8442411E0,0E0,7.163935E0,3.979152E0,0E0,4.24621E0,0E0,0E0,0E0,0E0,0E0,0E0],"parents":[2147483647,0,0,1,1,2,2,3,3,4,4,7,7,9,9,11,11,12,12,14,14],"right_children":[2,4,6,8,10,-1,-1,12,-1,14,-1,16,18,-1,20,-1,-1,-1,-1,-1,-1],"split_conditions":[7.712396E-1,9.148433E-1,-2.482406E-1,8.086045E-1,1.4442714E0,2.951082E-2,1.4069209E-1,1.1258216E0,-1.0757762E-1,-4.715182E-1,2.8865883E-2,-4.7550133E-1,-5.983899E-1,-1.7646442E-1,1.1687474E0,-3.2184739E-3,8.654363E-2,1.4688836E-2,-1.18955396E-1,2.127189E-2,-1.23826526E-1],"split_indices":[5,127,65,40,112,0,0,85,0,103,0,102,57,0,55,0,0,0,0,0,0],"split_type":[0,0,0,0,0,0,0,0,0,0,0,0,0,0,0,0,0,0,0,0,0],"sum_hessian":[7.2219894E1,6.28646E1,9.355296E0,4.87658E1,1.4098802E1,5.4340534E0,3.921243E0,4.2595783E1,6.1700144E0,1.0642858E1,3.4559443E0,3.4952885E1,7.6429E0,3.955221E0,6.687637E0,1.5766368E1,1.9186516E1,3.696566E0,3.9463341E0,3.2157135E0,3.4719234E0],"tree_param":{"num_deleted":"0","num_feature":"144","num_nodes":"21","size_leaf_vector":"1"}},{"base_weights":[4.002721E-2,-2.073562E-1,5.145062E-1,8.3304174E-2,-3.8032314E-1,-4.985071E-2,8.7684083E-1,5.914041E-2,-5.3507304E-1,1.1712527E0,-1.187645E-2,-2.2561033E-1,-1.2673764E0,1.4161466E-1,3.0284202E-2,-4.9479544E-2,7.1269125E-2,-3.6817066E-2,-1.744508E-1],"categories":[],"categories_nodes":[],"categories_segments":[],"categories_sizes":[],"default_left":[0,0,0,0,0,0,0,0,0,0,0,0,0,0,0,0,0,0,0],"id":2,"left_children":[1,3,5,-1,7,-1,9,-1,11,13,-1,15,17,-1,-1,-1,-1,-1,-1],"loss_changes":[8.510829E0,8.914064E0,9.54886E0,0E0,6.579665E0,0E0,5.6048145E0,0E0,7.9752903E0,2.6512566E0,0E0,7.132222E0,3.910822E0,0E0,0E0,0E0,0E0,0E0,0E0],"parents":[2147483647,0,0,1,1,2,2,4,4,6,6,8,8,9,9,11,11,12,12],"right_children":[2,4,6,-1,8,-1,10,-1,12,14,-1,16,18,-1,-1,-1,-1,-1,-1],"split_conditions":[3.4528726E-1,-1.5077147E0,-1.3412213E-1,8.3304174E-2,-9.1955525E-1,-4.985071E-2,8.795289E-1,5.914041E-2,6.416236E-1,1.1906084E0,-1.187645E-2,2.424485E-1,-9.3826294E-2,1.4161466E-1,3.0284202E-2,-4.9479544E-2,7.1269125E-2,-3.6817066E-2,-1.744508E-1],"split_indices":[14,79,81,0,113,0,59,0,24,129,0,104,5,0,0,0,0,0,0],"split_type":[0,0,0,0,0,0,0,0,0,0,0,0,0,0,0,0,0,0,0],"sum_hessian":[7.0598816E1,4.6774536E1,2.3824282E1,6.1237745E0,4.065076E1,6.1774845E0,1.7646797E1,5.1967745E0,3.5453987E1,1.348323E1,4.1635675E0,2.5841682E1,9.612305E0,1.002533E1,3.4579003E0,2.044809E1,5.3935914E0,3.946443E0,5.6658616E0],"tree_param":{"num_deleted":"0","num_feature":"144","num_nodes":"19","size_leaf_vector":"1"}},{"base_weights":[-5.1931873E-2,-6.5168214E-1,1.1620062E-1,5.8816582E-2,-9.8242146E-1,6.002179E-1,-2.6771352E-1,-1.4074721E0,-2.5991416E-3,3.2746915E-2,9.844753E-1,4.2866722E-1,-7.965449E-1,-1.7871575E-1,-5.8148246E-2,1.2075503E-1,-5.932642E-1,1.4045493E-1,3.625415E-1,-4.2526748E-2,8.9903975E-1,-1.2551476E0,-3.4491885E-1,2.3443146E-2,-1.14829086E-1,1.0548418E-1,-3.268786E-2,1.0724188E-2,1.3219048E-1,-4.688085E-2,-1.7400052E-1,4.4849142E-2,-1.0144619E-1],"categories":[],"categories_nodes":[],"categories_segments":[],"categories_sizes":[],"default_left":[0,0,0,0,0,0,0,0,0,0,0,0,0,0,0,0,0,0,0,0,0,0,0,0,0,0,0,0,0,0,0,0,0],"id":3,"left_children":[1,3,5,-1,7,9,11,13,-1,15,17,19,21,-1,-1,-1,23,-1,25,-1,27,29,31,-1,-1,-1,-1,-1,-1,-1,-1,-1,-1],"loss_changes":[7.7198877E0,7.446302E0,1.1320556E1,0E0,5.491002E0,5.827691E0,1.2930119E1,1.9071198E0,0E0,9.456773E0,3.6680698E0,6.569831E0,3.66362E0,0E0,0E0,0E0,4.138996E0,0E0,4.0646496E0,0E0,3.2915916E0,2.781375E0,6.481263E0,0E0,0E0,0E0,0E0,0E0,0E0,0E0,0E0,0E0,0E0],"parents":[2147483647,0,0,1,1,2,2,4,4,5,5,6,6,7,7,9,9,10,10,11,11,12,12,16,16,18,18,20,20,21,21,22,22],"right_children":[2,4,6,-1,8,10,12,14,-1,16,18,20,22,-1,-1,-1,24,-1,26,-1,28,30,32,-1,-1,-1,-1,-1,-1,-1,-1,-1,-1],"split_conditions":[-9.506687E-1,-1.5578389E0,1.9463873E-1,5.8816582E-2,-6.315796E-2,-2.1942973E-1,2.7654046E-1,-8.448374E-1,-2.5991416E-3,-1.0120885E0,1.9701913E-1,-4.680654E-1,-2.8410232E-1,-1.7871575E-1,-5.8148246E-2,1.2075503E-1,-5.888302E-1,1.4045493E-1,-1.6781047E-1,-4.2526748E-2,-3.2282808E-1,2.8144965E-2,-1.14511736E-1,2.3443146E-2,-1.14829086E-1,1.0548418E-1,-3.268786E-2,1.0724188E-2,1.3219048E-1,-4.688085E-2,-1.7400052E-1,4.4849142E-2,-1.0144619E-1],"split_indices":[64,79,46,0,95,85,116,46,0,19,6,18,15,0,0,0,66,0,95,0,116,6,36,0,0,0,0,0,0,0,0,0,0],"split_type":[0,0,0,0,0,0,0,0,0,0,0,0,0,0,0,0,0,0,0,0,0,0,0,0,0,0,0,0,0,0,0,0,0],"sum_hessian":[7.480673E1,1.57496605E1,5.905707E1,3.1527092E0,1.2596951E1,2.5873634E1,3.3183437E1,8.394659E0,4.2022915E0,1.0884555E1,1.4989079E1,1.44045315E1,1.8778904E1,4.9538503E0,3.440809E0,3.4608305E0,7.4237247E0,8.195333E0,6.793747E0,5.150316E0,9.254215E0,8.434717E0,1.0344188E1,3.2117512E0,4.2119737E0,3.1253245E0,3.6684227E0,3.6581268E0,5.5960884E0,3.9673662E0,4.4673505E0,4.885276E0,5.458912E0],"tree_param":{"num_deleted":"0","num_feature":"144","num_nodes":"33","size_leaf_vector":"1"}},{"base_weights":[-1.20650835E-1,-4.0402845E-1,2.1427155E-1,-1.7729151E-1,-1.1718835E0,4.5372382E-1,-8.084536E-2,4.6218526E-1,-5.2788424E-1,-1.8544424E-2,-1.6501111E-1,9.6411216E-1,-7.139497E-2,9.0126127E-1,-5.2625943E-2,4.526307E-2,-1.0638936E0,9.050302E-3,1.2624887E0,7.9446815E-2,-5.635446E-1,2.4956325E-2,1.3551141E-1,6.5092914E-2,-9.20619E-2,-1.4898208E-1,-2.3621055E-3,1.4626116E-1,5.588028E-2,-1.2778352E-1,4.4500124E-2],"categories":[],"categories_nodes":[],"categories_segments":[],"categories_sizes":[],"default_left":[0,0,0,0,0,0,0,0,0,0,0,0,0,0,0,0,0,0,0,0,0,0,0,0,0,0,0,0,0,0,0],"id":4,"left_children":[1,3,5,7,9,11,-1,13,15,-1,-1,17,19,21,-1,23,25,-1,27,-1,29,-1,-1,-1,-1,-1,-1,-1,-1,-1,-1],"loss_changes":[7.41167E0,7.131207E0,9.189435E0,7.8043246E0,4.143224E0,8.064279E0,0E0,5.8882437E0,6.882885E0,0E0,0E0,3.8471136E0,7.1102996E0,2.3256316E0,0E0,7.449937E0,5.0766525E0,0E0,7.670822E-1,0E0,8.1715355E0,0E0,0E0,0E0,0E0,0E0,0E0,0E0,0E0,0E0,0E0],"parents":[2147483647,0,0,1,1,2,2,3,3,4,4,5,5,7,7,8,8,11,11,12,12,13,13,15,15,16,16,18,18,20,20],"right_children":[2,4,6,8,10,12,-1,14,16,-1,-1,18,20,22,-1,24,26,-1,28,-1,30,-1,-1,-1,-1,-1,-1,-1,-1,-1,-1],"split_conditions":[9.838894E-3,2.7462617E-1,1.1258216E0,-3.382696E-1,-8.4100896E-1,5.8666706E-1,-8.084536E-2,3.5313448E-1,1.1742632E-1,-1.8544424E-2,-1.6501111E-1,-2.5800836E-1,5.0812817E-1,-1.0777603E0,-5.2625943E-2,1.0735224E-1,3.4407818E-1,9.050302E-3,1.5209746E-1,7.9446815E-2,1.0585136E0,2.4956325E-2,1.3551141E-1,6.5092914E-2,-9.20619E-2,-1.4898208E-1,-2.3621055E-3,1.4626116E-1,5.588028E-2,-1.2778352E-1,4.4500124E-2],"split_indices":[70,57,85,141,80,50,0,67,126,0,0,107,111,108,0,75,74,0,118,0,121,0,0,0,0,0,0,0,0,0,0],"split_type":[0,0,0,0,0,0,0,0,0,0,0,0,0,0,0,0,0,0,0,0,0,0,0,0,0,0,0,0,0,0,0],"sum_hessian":[7.617982E1,4.115352E1,3.50263E1,3.2722046E1,8.431474E0,2.883214E1,6.194157E0,1.1474465E1,2.124758E1,3.2060778E0,5.2253957E0,1.4197204E1,1.4634936E1,8.006228E0,3.4682362E0,1.0710523E1,1.0537057E1,3.946288E0,1.0250916E1,5.0811453E0,9.553791E0,3.9229906E0,4.083238E0,6.783155E0,3.9273677E0,7.1694617E0,3.3675952E0,7.141444E0,3.1094716E0,5.436469E0,4.1173224E0],"tree_param":{"num_deleted":"0","num_feature":"144","num_nodes":"31","size_leaf_vector":"1"}},{"base_weights":[-8.824303E-2,5.456783E-2,-8.0681634E-1,3.0938676E-1,-4.404946E-1,-1.213471E0,3.3749808E-2,8.018234E-1,4.5591936E-2,-1.5450107E-1,-1.7309521E-1,-1.6013755E-1,-5.107369E-2,1.085347E0,-1.2196953E-2,-1.0822048E-1,3.0528548E-1,2.211564E-1,-1.21554434E-1,2.0261012E-2,1.393971E-1,-1.8726539E-2,8.192031E-2,-1.7571555E-2,9.020006E-2],"categories":[],"categories_nodes":[],"categories_segments":[],"categories_sizes":[],"default_left":[0,0,0,0,0,0,0,0,0,0,0,0,0,0,0,0,0,0,0,0,0,0,0,0,0],"id":5,"left_children":[1,3,5,7,9,11,-1,13,15,-1,17,-1,-1,19,-1,-1,21,23,-1,-1,-1,-1,-1,-1,-1],"loss_changes":[7.8605857E0,8.270284E0,6.315525E0,5.569389E0,6.3256116E0,1.794013E0,0E0,4.059414E0,8.871299E0,0E0,8.117961E0,0E0,0E0,2.8705597E0,0E0,0E0,6.3509355E0,4.131492E0,0E0,0E0,0E0,0E0,0E0,0E0,0E0],"parents":[2147483647,0,0,1,1,2,2,3,3,4,4,5,5,7,7,8,8,10,10,13,13,16,16,17,17],"right_children":[2,4,6,8,10,12,-1,14,16,-1,18,-1,-1,20,-1,-1,22,24,-1,-1,-1,-1,-1,-1,-1],"split_conditions":[1.0222229E0,5.6575346E-1,1.89512E-1,-4.203433E-1,2.1736693E-1,-3.6321554E-1,3.3749808E-2,2.9781282E-1,-7.8410816E-1,-1.5450107E-1,8.113098E-1,-1.6013755E-1,-5.107369E-2,-9.979699E-1,-1.2196953E-2,-1.0822048E-1,2.0537217E-1,-2.2575663E-1,-1.21554434E-1,2.0261012E-2,1.393971E-1,-1.8726539E-2,8.192031E-2,-1.7571555E-2,9.020006E-2],"split_indices":[25,122,68,14,130,115,0,116,123,0,22,0,0,46,0,0,111,70,0,0,0,0,0,0,0],"split_type":[0,0,0,0,0,0,0,0,0,0,0,0,0,0,0,0,0,0,0,0,0,0,0,0,0],"sum_hessian":[7.516988E1,6.3478157E1,1.169173E1,4.2155106E1,2.1323053E1,8.581639E0,3.1100903E0,1.3993426E1,2.8161678E1,3.2248054E0,1.8098248E1,4.705473E0,3.8761659E0,1.0573427E1,3.4199991E0,4.6781554E0,2.3483522E1,1.3703477E1,4.394771E0,3.1681805E0,7.4052467E0,1.2315584E1,1.1167938E1,9.125836E0,4.5776405E0],"tree_param":{"num_deleted":"0","num_feature":"144","num_nodes":"25","size_leaf_vector":"1"}},{"base_weights":[5.1768396E-2,1.5785782E-1,-8.514563E-1,-4.582677E-1,3.4894747E-1,-3.8662825E-3,-1.4243181E-1,-8.650725E-1,4.9142938E-2,6.097833E-1,-2.2201513E-1,-1.325805E-2,-1.3151018E-1,1.0664104E0,3.4309608E-1,1.8899357E-1,-1.0250659E-1,1.3046068E-1,6.020665E-2,-1.2479394E-2,8.03432E-2,-6.890562E-2,6.82625E-2],"categories":[],"categories_nodes":[],"categories_segments":[],"categories_sizes":[],"default_left":[0,0,0,0,0,0,0,0,0,0,0,0,0,0,0,0,0,0,0,0,0,0,0],"id":6,"left_children":[1,3,5,7,9,-1,-1,11,-1,13,15,-1,-1,17,19,21,-1,-1,-1,-1,-1,-1,-1],"loss_changes":[6.9089866E0,7.708098E0,3.4778652E0,6.4556093E0,7.5076375E0,0E0,0E0,3.5474453E0,0E0,3.804513E0,5.559219E0,0E0,0E0,5.586481E-1,5.0743904E0,5.4969096E0,0E0,0E0,0E0,0E0,0E0,0E0,0E0],"parents":[2147483647,0,0,1,1,2,2,3,3,4,4,7,7,9,9,10,10,13,13,14,14,15,15],"right_children":[2,4,6,8,10,-1,-1,12,-1,14,16,-1,-1,18,20,22,-1,-1,-1,-1,-1,-1,-1],"split_conditions":[1.1498107E0,-9.506687E-1,2.4579303E-1,2.6229233E-1,6.2720615E-1,-3.8662825E-3,-1.4243181E-1,-9.673823E-1,4.9142938E-2,-8.74831E-2,3.5703284E-1,-1.325805E-2,-1.3151018E-1,5.484042E-1,-2.5557533E-1,-4.2837942E-1,-1.0250659E-1,1.3046068E-1,6.020665E-2,-1.2479394E-2,8.03432E-2,-6.890562E-2,6.82625E-2],"split_indices":[84,64,131,63,120,0,0,7,0,92,57,0,0,3,4,112,0,0,0,0,0,0,0],"split_type":[0,0,0,0,0,0,0,0,0,0,0,0,0,0,0,0,0,0,0,0,0,0,0],"sum_hessian":[6.9699165E1,6.311155E1,6.58762E0,1.4609221E1,4.8502327E1,3.1647992E0,3.4228208E0,1.0290409E1,4.3188124E0,3.324627E1,1.5256058E1,4.4088807E0,5.8815284E0,1.1152317E1,2.2093952E1,1.0597048E1,4.65901E0,6.175086E0,4.977231E0,1.131856E1,1.0775392E1,3.6711233E0,6.9259243E0],"tree_param":{"num_deleted":"0","num_feature":"144","num_nodes":"23","size_leaf_vector":"1"}},{"base_weights":[5.8200754E-2,1.05464496E-1,-2.784039E-2,1.5458432E-1,-4.9199748E-1,-1.757405E-1,8.394635E-1,3.0699117E-2,-7.6891893E-1,1.0340785E-1,-3.265742E-1,5.3872976E-2,1.4225984E-1,-1.1635841E0,-1.8828891E-1,-7.7414624E-2,3.0567176E-3,6.1692934E-2,-6.371446E-2,-1.4333792E-1,-5.0414335E-2,-8.9062035E-2,5.7957917E-2],"categories":[],"categories_nodes":[],"categories_segments":[],"categories_sizes":[],"default_left":[0,0,0,0,0,0,0,0,0,0,0,0,0,0,0,0,0,0,0,0,0,0,0],"id":7,"left_children":[1,-1,3,5,7,9,11,-1,13,-1,15,17,-1,19,21,-1,-1,-1,-1,-1,-1,-1,-1],"loss_changes":[6.3899627E0,0E0,5.9410906E0,1.1568796E1,4.6128874E0,6.703561E0,7.5277615E0,0E0,3.2126198E0,0E0,5.1032324E0,3.5491214E0,0E0,8.292122E-1,4.427761E0,0E0,0E0,0E0,0E0,0E0,0E0,0E0,0E0],"parents":[2147483647,0,0,2,2,3,3,4,4,5,5,6,6,8,8,10,10,11,11,13,13,14,14],"right_children":[2,-1,4,6,8,10,12,-1,14,-1,16,18,-1,20,22,-1,-1,-1,-1,-1,-1,-1,-1],"split_conditions":[-9.8651993E-1,1.05464496E-1,5.830672E-1,2.1313244E-2,-1.4385911E0,-1.839306E0,-2.75192E-1,3.0699117E-2,3.6583295E-1,1.0340785E-1,-3.9530635E-1,3.0602401E-1,1.4225984E-1,1.7827614E-1,-2.0350586E-1,-7.7414624E-2,3.0567176E-3,6.1692934E-2,-6.371446E-2,-1.4333792E-1,-5.0414335E-2,-8.9062035E-2,5.7957917E-2],"split_indices":[103,0,86,95,17,82,139,0,53,0,29,48,0,41,4,0,0,0,0,0,0,0,0],"split_type":[0,0,0,0,0,0,0,0,0,0,0,0,0,0,0,0,0,0,0,0,0,0,0],"sum_hessian":[7.318891E1,4.922611E0,6.8266304E1,4.948463E1,1.8781673E1,3.3884945E1,1.5599686E1,4.8061438E0,1.3975529E1,3.1071467E0,3.0777798E1,7.1115274E0,8.488158E0,7.722439E0,6.25309E0,1.3141352E1,1.7636448E1,3.9776592E0,3.1338685E0,4.6474237E0,3.0750153E0,3.1824224E0,3.0706675E0],"tree_param":{"num_deleted":"0","num_feature":"144","num_nodes":"23","size_leaf_vector":"1"}},{"base_weights":[6.4135976E-2,1.4185102E-1,-8.3610944E-2,-1.108676E-1,5.356962E-1,-2.4530768E-1,7.950028E-2,-1.9114003E-1,9.710183E-1,-5.438177E-3,-9.256587E-1,4.4919983E-1,-1.1332871E-1,3.0979153E-3,1.2633001E0,8.9690305E-2,-3.6898725E-2,-3.893688E-3,-1.344999E-1,8.5924186E-2,-7.780759E-3,1.4412382E-1,5.255198E-2],"categories":[],"categories_nodes":[],"categories_segments":[],"categories_sizes":[],"default_left":[0,0,0,0,0,0,0,0,0,0,0,0,0,0,0,0,0,0,0,0,0,0,0],"id":8,"left_children":[1,3,-1,5,7,9,-1,11,13,15,17,19,-1,-1,21,-1,-1,-1,-1,-1,-1,-1,-1],"loss_changes":[5.14845E0,6.7315383E0,0E0,5.2688465E0,8.530264E0,6.0400925E0,0E0,6.9730062E0,4.5379534E0,9.644981E0,3.5357609E0,1.6000614E0,0E0,0E0,9.075451E-1,0E0,0E0,0E0,0E0,0E0,0E0,0E0,0E0],"parents":[2147483647,0,0,1,1,3,3,4,4,5,5,7,7,8,8,9,9,10,10,11,11,14,14],"right_children":[2,4,-1,6,8,10,-1,12,14,16,18,20,-1,-1,22,-1,-1,-1,-1,-1,-1,-1,-1],"split_conditions":[1.7161119E0,4.6009946E-1,-8.3610944E-2,8.8099056E-1,-6.0642433E-1,3.3692265E-1,7.950028E-2,-5.1689884E-3,-1.0421592E0,-3.382696E-1,6.397611E-1,-7.233515E-1,-1.1332871E-1,3.0979153E-3,4.8605374E-1,8.9690305E-2,-3.6898725E-2,-3.893688E-3,-1.344999E-1,8.5924186E-2,-7.780759E-3,1.4412382E-1,5.255198E-2],"split_indices":[81,93,0,132,76,57,0,67,123,141,127,102,0,0,6,0,0,0,0,0,0,0,0],"split_type":[0,0,0,0,0,0,0,0,0,0,0,0,0,0,0,0,0,0,0,0,0,0,0],"sum_hessian":[7.089335E1,6.603519E1,4.8581576E0,4.0662064E1,2.5373125E1,3.6042244E1,4.6198215E0,9.714395E0,1.56587305E1,2.7392529E1,8.649715E0,6.095049E0,3.6193452E0,3.9762542E0,1.1682477E1,7.4454904E0,1.9947039E1,3.128068E0,5.5216475E0,3.0733721E0,3.0216768E0,8.64419E0,3.0382872E0],"tree_param":{"num_deleted":"0","num_feature":"144","num_nodes":"23","size_leaf_vector":"1"}},{"base_weights":[-4.5378163E-2,-3.7668455E-1,1.9112948E-1,-5.5691797E-1,5.9453268E-2,7.5712043E-1,-1.0906564E-1,1.0422957E-1,-8.1469834E-1,6.273139E-3,1.0838531E0,-4.8924726E-1,5.5313355E-1,-8.727048E-2,9.433649E-2,-1.1457213E0,-2.2524205E-1,3.533101E-2,1.3466173E-1,-7.884197E-2,-1.4161766E-1,2.5913485E-3,1.03003465E-1,-3.4623038E-2,-1.4140563E-1,3.2975577E-2,-6.851333E-2,-5.5486824E-2,8.2344055E-2],"categories":[],"categories_nodes":[],"categories_segments":[],"categories_sizes":[],"default_left":[0,0,0,0,0,0,0,0,0,0,0,0,0,0,0,0,0,0,0,0,0,0,0,0,0,0,0,0,0],"id":9,"left_children":[1,3,5,7,-1,9,11,13,15,-1,17,19,21,-1,-1,23,25,-1,-1,27,-1,-1,-1,-1,-1,-1,-1,-1,-1],"loss_changes":[5.852283E0,5.7685766E0,7.5085554E0,4.638359E0,0E0,3.397173E0,7.680507E0,7.694164E0,3.5148182E0,0E0,1.5061607E0,7.2032256E0,2.790405E0,0E0,0E0,2.1143045E0,2.3184414E0,0E0,0E0,6.636101E0,0E0,0E0,0E0,0E0,0E0,0E0,0E0,0E0,0E0],"parents":[2147483647,0,0,1,1,2,2,3,3,5,5,6,6,7,7,8,8,10,10,11,11,12,12,15,15,16,16,19,19],"right_children":[2,4,6,8,-1,10,12,14,16,-1,18,20,22,-1,-1,24,26,-1,-1,28,-1,-1,-1,-1,-1,-1,-1,-1,-1],"split_conditions":[-2.2954564E-1,1.5195186E0,4.197615E-1,-9.337304E-1,5.9453268E-2,-6.899979E-1,8.848259E-1,-9.986366E-1,-8.1046615E-3,6.273139E-3,-8.812058E-2,2.7654046E-1,-4.1967335E-1,-8.727048E-2,9.433649E-2,-1.0795577E0,-2.6877481E-2,3.533101E-2,1.3466173E-1,-6.55068E-2,-1.4161766E-1,2.5913485E-3,1.03003465E-1,-3.4623038E-2,-1.4140563E-1,3.2975577E-2,-6.851333E-2,-5.5486824E-2,8.2344055E-2],"split_indices":[106,123,132,19,0,76,132,100,103,0,29,116,4,0,0,72,129,0,0,122,0,0,0,0,0,0,0,0,0],"split_type":[0,0,0,0,0,0,0,0,0,0,0,0,0,0,0,0,0,0,0,0,0,0,0,0,0,0,0,0,0],"sum_hessian":[7.276909E1,3.0063133E1,4.270596E1,2.5717241E1,4.345893E0,1.427314E1,2.8432817E1,7.3813753E0,1.8335865E1,4.9484463E0,9.324694E0,1.8228598E1,1.020422E1,3.392162E0,3.989213E0,1.1137596E1,7.19827E0,3.0869298E0,6.2377634E0,1.3386621E1,4.841976E0,5.3471813E0,4.8570385E0,3.3743057E0,7.76329E0,3.3900812E0,3.8081884E0,9.015346E0,4.371277E0],"tree_param":{"num_deleted":"0","num_feature":"144","num_nodes":"29","size_leaf_vector":"1"}},{"base_weights":[-6.275446E-2,-1.2971003E-1,9.169909E-2,-4.3260628E-1,1.499785E-1,6.9685094E-2,-5.7759273E-1,7.377069E-1,-1.450965E-1,-7.0798767E-1,4.6236526E-2,1.1144563E-1,6.3108406E-3,-4.977846E-1,5.225219E-1,2.199133E-3,-8.4016435E-2,5.8662742E-3,-9.143982E-2,-1.2898776E-2,9.2845686E-2],"categories":[],"categories_nodes":[],"categories_segments":[],"categories_sizes":[],"default_left":[0,0,0,0,0,0,0,0,0,0,0,0,0,0,0,0,0,0,0,0,0],"id":10,"left_children":[1,3,-1,5,7,-1,9,11,13,15,-1,-1,-1,17,19,-1,-1,-1,-1,-1,-1],"loss_changes":[4.9811044E0,6.0165443E0,0E0,5.9677486E0,6.570336E0,0E0,4.485756E0,3.137445E0,6.2990704E0,2.6857395E0,0E0,0E0,0E0,4.0628037E0,2.5934548E0,0E0,0E0,0E0,0E0,0E0,0E0],"parents":[2147483647,0,0,1,1,3,3,4,4,6,6,7,7,8,8,9,9,13,13,14,14],"right_children":[2,4,-1,6,8,-1,10,12,14,16,-1,-1,-1,18,20,-1,-1,-1,-1,-1,-1],"split_conditions":[1.9511712E0,-1.03882864E-1,9.169909E-2,-8.83708E-1,4.194069E-1,6.9685094E-2,1.0511657E0,2.1989559E-1,2.2606935E-1,-8.244381E-1,4.6236526E-2,1.1144563E-1,6.3108406E-3,-2.2970252E-1,1.9363238E-1,2.199133E-3,-8.4016435E-2,5.8662742E-3,-9.143982E-2,-1.2898776E-2,9.2845686E-2],"split_indices":[112,96,0,30,132,0,113,140,139,112,0,0,0,66,42,0,0,0,0,0,0],"split_type":[0,0,0,0,0,0,0,0,0,0,0,0,0,0,0,0,0,0,0,0,0],"sum_hessian":[7.311898E1,6.92538E1,3.86518E0,3.298503E1,3.626877E1,3.3195016E0,2.9665527E1,1.162136E1,2.464741E1,2.6643991E1,3.0215375E0,7.0384827E0,4.582877E0,1.6294024E1,8.353386E0,4.2125773E0,2.2431414E1,7.344106E0,8.949918E0,3.4686244E0,4.8847613E0],"tree_param":{"num_deleted":"0","num_feature":"144","num_nodes":"21","size_leaf_vector":"1"}},{"base_weights":[5.902111E-2,-4.723594E-1,2.0100604E-1,3.7525997E-2,-9.7310513E-1,5.5627185E-1,-1.8098053E-1,-3.7178095E-2,-1.3009514E-1,1.617539E-1,1.1260239E0,4.7750944E-1,-5.0813085E-1,4.6103132E-1,-7.42998E-2,1.3392787E-1,6.223571E-2,-4.335683E-2,9.765455E-2,-8.356526E-1,1.04873486E-1,-2.9771808E-3,9.4520696E-2,-1.2759468E-1,2.9776173E-3,7.43125E-2,-5.477653E-2],"categories":[],"categories_nodes":[],"categories_segments":[],"categories_sizes":[],"default_left":[0,0,0,0,0,0,0,0,0,0,0,0,0,0,0,0,0,0,0,0,0,0,0,0,0,0,0],"id":11,"left_children":[1,3,5,-1,7,9,11,-1,-1,13,15,17,19,21,-1,-1,-1,-1,-1,23,25,-1,-1,-1,-1,-1,-1],"loss_changes":[5.215731E0,6.5661955E0,7.4643736E0,0E0,1.3817759E0,6.192487E0,6.038031E0,0E0,0E0,5.1959887E0,3.9474392E-1,4.717574E0,3.7933578E0,3.375515E0,0E0,0E0,0E0,0E0,0E0,4.6643867E0,3.4544945E0,0E0,0E0,0E0,0E0,0E0,0E0],"parents":[2147483647,0,0,1,1,2,2,4,4,5,5,6,6,9,9,10,10,11,11,12,12,13,13,19,19,20,20],"right_children":[2,4,6,-1,8,10,12,-1,-1,14,16,18,20,22,-1,-1,-1,-1,-1,24,26,-1,-1,-1,-1,-1,-1],"split_conditions":[-9.506687E-1,-1.2055274E0,2.7654046E-1,3.7525997E-2,-6.1436094E-2,-1.461258E-1,1.669812E-1,-3.7178095E-2,-1.3009514E-1,5.520389E-1,4.3636486E-1,-7.255517E-2,1.2878779E0,-1.084049E-1,-7.42998E-2,1.3392787E-1,6.223571E-2,-4.335683E-2,9.765455E-2,8.4831095E-1,-1.7017314E-1,-2.9771808E-3,9.4520696E-2,-1.2759468E-1,2.9776173E-3,7.43125E-2,-5.477653E-2],"split_indices":[64,58,116,0,40,4,42,0,0,74,48,29,127,105,0,0,0,0,0,12,20,0,0,0,0,0,0],"split_type":[0,0,0,0,0,0,0,0,0,0,0,0,0,0,0,0,0,0,0,0,0,0,0,0,0,0,0],"sum_hessian":[6.687169E1,1.3609841E1,5.3261845E1,5.1473866E0,8.462455E0,2.7359726E1,2.5902117E1,3.7388308E0,4.723624E0,1.6924479E1,1.0435248E1,8.444792E0,1.7457325E1,1.3086205E1,3.8382735E0,6.165635E0,4.2696137E0,3.03502E0,5.4097714E0,1.114139E1,6.315936E0,6.96469E0,6.121514E0,7.0700774E0,4.0713124E0,3.1230686E0,3.1928673E0],"tree_param":{"num_deleted":"0","num_feature":"144","num_nodes":"27","size_leaf_vector":"1"}},{"base_weights":[-6.6149846E-2,7.726629E-2,-1.3493732E-1,-2.163222E-1,6.228534E-2,6.887382E-2,-4.7298658E-1,6.50221E-1,-3.8340726E-1,-6.433325E-1,2.8832508E-2,-2.9896522E-2,1.0186823E-1,-9.994475E-2,2.3733985E-2,2.8609028E-2,-7.8706585E-2],"categories":[],"categories_nodes":[],"categories_segments":[],"categories_sizes":[],"default_left":[0,0,0,0,0,0,0,0,0,0,0,0,0,0,0,0,0],"id":12,"left_children":[1,-1,3,5,-1,7,9,11,13,15,-1,-1,-1,-1,-1,-1,-1],"loss_changes":[4.10662E0,0E0,4.140952E0,4.380756E0,0E0,7.8769183E0,4.256579E0,4.8737626E0,6.717127E0,3.6933517E0,0E0,0E0,0E0,0E0,0E0,0E0,0E0],"parents":[2147483647,0,0,2,2,3,3,5,5,6,6,7,7,8,8,9,9],"right_children":[2,-1,4,6,-1,8,10,12,14,16,-1,-1,-1,-1,-1,-1,-1],"split_conditions":[-9.8651993E-1,7.726629E-2,1.4378068E0,-2.3518656E-1,6.228534E-2,-7.3644896E-3,5.726075E-1,-7.647116E-1,-1.8848027E-1,-1.3011843E0,2.8832508E-2,-2.9896522E-2,1.0186823E-1,-9.994475E-2,2.3733985E-2,2.8609028E-2,-7.8706585E-2],"split_indices":[103,0,87,65,0,5,5,113,137,77,0,0,0,0,0,0,0],"split_type":[0,0,0,0,0,0,0,0,0,0,0,0,0,0,0,0,0],"sum_hessian":[6.83652E1,4.4058976E0,6.3959293E1,5.8401638E1,5.5576572E0,2.8009817E1,3.039182E1,1.2064658E1,1.594516E1,2.496156E1,5.4302597E0,3.4264514E0,8.6382065E0,7.696725E0,8.248435E0,3.2105784E0,2.1750982E1],"tree_param":{"num_deleted":"0","num_feature":"144","num_nodes":"17","size_leaf_vector":"1"}},{"base_weights":[3.1160763E-3,1.7384665E-1,-5.599889E-1,-2.2262837E-1,4.7853205E-1,1.6568335E-2,-8.5718113E-1,3.040906E-1,-5.934988E-1,-3.8763966E-2,6.345757E-1,-1.2926384E-2,-1.18916385E-1,-1.1242566E-2,8.830804E-2,2.6339648E-2,-8.905206E-1,7.800268E-1,-2.9573966E-2,-1.2886329E-1,-3.911019E-2,1.0067898E-1,9.505293E-3],"categories":[],"categories_nodes":[],"categories_segments":[],"categories_sizes":[],"default_left":[0,0,0,0,0,0,0,0,0,0,0,0,0,0,0,0,0,0,0,0,0,0,0],"id":13,"left_children":[1,3,5,7,9,-1,11,13,15,-1,17,-1,-1,-1,-1,-1,19,21,-1,-1,-1,-1,-1],"loss_changes":[6.55548E0,6.4255047E0,3.5636282E0,4.754117E0,4.286762E0,0E0,2.6054478E0,2.591703E0,3.8176455E0,0E0,3.709856E0,0E0,0E0,0E0,0E0,0E0,1.6199684E0,3.4007282E0,0E0,0E0,0E0,0E0,0E0],"parents":[2147483647,0,0,1,1,2,2,3,3,4,4,6,6,7,7,8,8,10,10,16,16,17,17],"right_children":[2,4,6,8,10,-1,12,14,16,-1,18,-1,-1,-1,-1,-1,20,22,-1,-1,-1,-1,-1],"split_conditions":[8.672833E-1,-3.513013E-1,-4.396986E-1,-2.6806378E-1,-1.1668606E0,1.6568335E-2,-3.936523E-3,-1.3620378E-1,-5.800766E-1,-3.8763966E-2,1.0796523E0,-1.2926384E-2,-1.18916385E-1,-1.1242566E-2,8.830804E-2,2.6339648E-2,-4.9336728E-1,1.1258216E0,-2.9573966E-2,-1.2886329E-1,-3.911019E-2,1.0067898E-1,9.505293E-3],"split_indices":[135,63,54,57,56,0,120,70,14,0,50,0,0,0,0,0,66,85,0,0,0,0,0],"split_type":[0,0,0,0,0,0,0,0,0,0,0,0,0,0,0,0,0,0,0,0,0,0,0],"sum_hessian":[6.6174736E1,5.1309288E1,1.4865445E1,2.24132E1,2.889609E1,4.447709E0,1.0417736E1,9.335196E0,1.3078004E1,4.1844964E0,2.4711594E1,3.6982307E0,6.7195053E0,5.8980527E0,3.4371433E0,3.3954582E0,9.682546E0,2.151012E1,3.2014742E0,4.508401E0,5.1741447E0,1.580725E1,5.70287E0],"tree_param":{"num_deleted":"0","num_feature":"144","num_nodes":"23","size_leaf_vector":"1"}},{"base_weights":[4.284912E-2,-8.51418E-2,1.359461E-1,3.6905238E-1,-2.9715592E-1,-7.299203E-2,6.294588E-1,1.8037511E-2,-8.356728E-1,-4.5360532E-1,8.116135E-2,2.615708E-1,1.088722E-1,-5.967287E-2,5.108776E-1,-2.4493504E-2,-1.22973695E-1,-9.5595986E-2,2.3522345E-2,6.7080766E-2,-4.69519E-2,-1.7007694E-2,1.0712391E-1],"categories":[],"categories_nodes":[],"categories_segments":[],"categories_sizes":[],"default_left":[0,0,0,0,0,0,0,0,0,0,0,0,0,0,0,0,0,0,0,0,0,0,0],"id":14,"left_children":[1,-1,3,5,7,9,11,13,15,17,-1,19,-1,-1,21,-1,-1,-1,-1,-1,-1,-1,-1],"loss_changes":[5.547669E0,0E0,6.1627464E0,4.5840197E0,3.6699424E0,5.590519E0,3.9243927E0,4.716723E0,1.5543594E0,4.199501E0,0E0,4.847245E0,0E0,0E0,3.4717932E0,0E0,0E0,0E0,0E0,0E0,0E0,0E0,0E0],"parents":[2147483647,0,0,2,2,3,3,4,4,5,5,6,6,7,7,8,8,9,9,11,11,14,14],"right_children":[2,-1,4,6,8,10,12,14,16,18,-1,20,-1,-1,22,-1,-1,-1,-1,-1,-1,-1,-1],"split_conditions":[-1.6254748E0,-8.51418E-2,5.3809613E-1,-4.5158193E-1,6.268557E-1,3.3650863E-1,6.1897468E-2,-2.542288E-1,7.441267E-1,1.9443434E-1,8.116135E-2,4.6579048E-1,1.088722E-1,-5.967287E-2,-1.7738332E-1,-2.4493504E-2,-1.22973695E-1,-9.5595986E-2,2.3522345E-2,6.7080766E-2,-4.69519E-2,-1.7007694E-2,1.0712391E-1],"split_indices":[64,0,84,77,120,51,70,115,80,103,0,118,0,0,103,0,0,0,0,0,0,0,0],"split_type":[0,0,0,0,0,0,0,0,0,0,0,0,0,0,0,0,0,0,0,0,0,0,0],"sum_hessian":[6.424552E1,5.289582E0,5.895594E1,3.8423397E1,2.0532543E1,1.4510784E1,2.3912613E1,1.356151E1,6.9710336E0,1.0486186E1,4.0245976E0,1.4148584E1,9.764029E0,5.9405293E0,7.620981E0,3.4382887E0,3.532745E0,5.839618E0,4.646568E0,9.123849E0,5.0247355E0,3.754716E0,3.866265E0],"tree_param":{"num_deleted":"0","num_feature":"144","num_nodes":"23","size_leaf_vector":"1"}},{"base_weights":[1.5103535E-2,2.7702513E-1,-2.434217E-1,4.0321708E-1,-6.577226E-2,9.532185E-2,-8.1295043E-1,5.5358833E-1,-6.95936E-2,-2.1114947E-1,6.863388E-1,-1.15923636E-1,-4.6092654E-3,1.0507419E0,2.8458688E-1,-7.249354E-1,3.9869747E-1,1.09462634E-1,1.902427E-3,4.7273014E-2,1.3133226E-1,-5.0147425E-2,5.1975366E-2,-9.397767E-3,-1.11186855E-1,9.400597E-2,-2.7506486E-2],"categories":[],"categories_nodes":[],"categories_segments":[],"categories_sizes":[],"default_left":[0,0,0,0,0,0,0,0,0,0,0,0,0,0,0,0,0,0,0,0,0,0,0,0,0,0,0],"id":15,"left_children":[1,3,5,7,-1,9,11,13,-1,15,17,-1,-1,19,21,23,25,-1,-1,-1,-1,-1,-1,-1,-1,-1,-1],"loss_changes":[4.6038904E0,4.2458763E0,6.684834E0,5.401975E0,0E0,4.19686E0,3.3663511E0,3.3461685E0,0E0,5.144449E0,2.1245577E0,0E0,0E0,7.752676E-1,3.7836676E0,2.0354543E0,3.078401E0,0E0,0E0,0E0,0E0,0E0,0E0,0E0,0E0,0E0,0E0],"parents":[2147483647,0,0,1,1,2,2,3,3,5,5,6,6,7,7,9,9,10,10,13,13,14,14,15,15,16,16],"right_children":[2,4,6,8,-1,10,12,14,-1,16,18,-1,-1,20,22,24,26,-1,-1,-1,-1,-1,-1,-1,-1,-1,-1],"split_conditions":[-2.6877481E-2,1.1405321E0,-3.0198678E-1,1.7161119E0,-6.577226E-2,3.5590562E-1,-1.04401335E-2,-1.292947E-1,-6.95936E-2,2.1736693E-1,-6.317703E-1,-1.15923636E-1,-4.6092654E-3,-6.810727E-1,-7.074151E-1,2.312697E-1,-2.0156118E-1,1.09462634E-1,1.902427E-3,4.7273014E-2,1.3133226E-1,-5.0147425E-2,5.1975366E-2,-9.397767E-3,-1.11186855E-1,9.400597E-2,-2.7506486E-2],"split_indices":[129,30,54,81,0,106,30,5,0,130,54,0,0,115,114,55,4,0,0,0,0,0,0,0,0,0,0],"split_type":[0,0,0,0,0,0,0,0,0,0,0,0,0,0,0,0,0,0,0,0,0,0,0,0,0,0,0],"sum_hessian":[6.599501E1,3.274662E1,3.3248386E1,2.935262E1,3.3939998E0,2.1370375E1,1.1878014E1,2.625686E1,3.0957587E0,1.4496146E1,6.874229E0,7.8304076E0,4.047606E0,8.198594E0,1.8058268E1,7.765296E0,6.73085E0,3.8675652E0,3.0066638E0,3.4357958E0,4.762798E0,3.897657E0,1.416061E1,3.4242973E0,4.3409986E0,3.5129695E0,3.2178807E0],"tree_param":{"num_deleted":"0","num_feature":"144","num_nodes":"27","size_leaf_vector":"1"}},{"base_weights":[1.4641643E-1,-8.233245E-2,2.3588724E-1,3.765271E-1,-2.5285852E-1,4.9179528E-2,6.3967085E-1,3.140178E-2,-6.907278E-1,5.733851E-1,-3.126422E-1,9.4161403E-1,1.5822168E-2,-1.0118397E-2,-1.052404E-1,1.099631E-1,-1.1172734E-2,-8.5757345E-2,2.7212496E-3,1.08567886E-1,2.78142E-2,6.294529E-2,-4.671107E-2],"categories":[],"categories_nodes":[],"categories_segments":[],"categories_sizes":[],"default_left":[0,0,0,0,0,0,0,0,0,0,0,0,0,0,0,0,0,0,0,0,0,0,0],"id":16,"left_children":[1,-1,3,5,7,9,11,-1,13,15,17,19,21,-1,-1,-1,-1,-1,-1,-1,-1,-1,-1],"loss_changes":[5.6468754E0,0E0,4.1035414E0,3.903832E0,3.5998187E0,4.2461805E0,4.740035E0,0E0,1.5997117E0,3.4070227E0,2.4925942E0,1.3222647E0,3.0351822E0,0E0,0E0,0E0,0E0,0E0,0E0,0E0,0E0,0E0,0E0],"parents":[2147483647,0,0,2,2,3,3,4,4,5,5,6,6,8,8,9,9,10,10,11,11,12,12],"right_children":[2,-1,4,6,8,10,12,-1,14,16,18,20,22,-1,-1,-1,-1,-1,-1,-1,-1,-1,-1],"split_conditions":[-9.9560446E-1,-8.233245E-2,8.6534137E-1,-1.9545617E-2,-3.7134272E-1,-4.507772E-1,8.054263E-1,3.140178E-2,6.8485305E-2,-5.84544E-2,-3.7643364E-1,5.453136E-1,-1.8266992E-1,-1.0118397E-2,-1.052404E-1,1.099631E-1,-1.1172734E-2,-8.5757345E-2,2.7212496E-3,1.08567886E-1,2.78142E-2,6.294529E-2,-4.671107E-2],"split_indices":[102,0,135,95,94,30,94,0,46,52,5,66,131,0,0,0,0,0,0,0,0,0,0],"split_type":[0,0,0,0,0,0,0,0,0,0,0,0,0,0,0,0,0,0,0,0,0,0,0],"sum_hessian":[6.184513E1,4.5311823E0,5.731395E1,4.4685112E1,1.2628835E1,2.0442183E1,2.4242931E1,5.626927E0,7.0019073E0,8.109076E0,1.2333108E1,1.5992963E1,8.249968E0,3.1488862E0,3.8530214E0,4.244087E0,3.864988E0,4.152129E0,8.180979E0,1.2616981E1,3.3759818E0,3.4997156E0,4.7502522E0],"tree_param":{"num_deleted":"0","num_feature":"144","num_nodes":"23","size_leaf_vector":"1"}},{"base_weights":[6.8813465E-3,3.256555E-1,-1.765425E-1,-4.6783086E-2,4.9926028E-1,-3.375109E-1,5.0822634E-1,7.4553555E-1,-3.8265612E-2,3.3492103E-2,-4.9743813E-1,9.3970574E-2,3.940153E-4,2.7239892E-1,1.10544436E-1,-7.2807825E-1,6.928212E-2,-2.840488E-2,6.590193E-2,-1.0456415E-1,1.1168176E-2,7.167201E-2,-4.7931638E-2],"categories":[],"categories_nodes":[],"categories_segments":[],"categories_sizes":[],"default_left":[0,0,0,0,0,0,0,0,0,0,0,0,0,0,0,0,0,0,0,0,0,0,0],"id":17,"left_children":[1,3,5,-1,7,9,11,13,-1,-1,15,-1,-1,17,-1,19,21,-1,-1,-1,-1,-1,-1],"loss_changes":[3.713113E0,3.4276016E0,4.617375E0,0E0,4.5223308E0,3.7431796E0,1.7534976E0,2.3534374E0,0E0,0E0,3.614902E0,0E0,0E0,1.9216006E0,0E0,5.308752E0,3.4695673E0,0E0,0E0,0E0,0E0,0E0,0E0],"parents":[2147483647,0,0,1,1,2,2,4,4,5,5,6,6,7,7,10,10,13,13,15,15,16,16],"right_children":[2,4,6,-1,8,10,12,14,-1,-1,16,-1,-1,18,-1,20,22,-1,-1,-1,-1,-1,-1],"split_conditions":[-2.7653548E-1,-1.4969113E0,7.1321636E-1,-4.6783086E-2,6.9737893E-1,-1.0162681E0,2.7654046E-1,-9.28184E-2,-3.8265612E-2,3.3492103E-2,7.878333E-1,9.3970574E-2,3.940153E-4,-4.0594155E-1,1.10544436E-1,-5.046655E-2,-3.8647306E-1,-2.840488E-2,6.590193E-2,-1.0456415E-1,1.1168176E-2,7.167201E-2,-4.7931638E-2],"split_indices":[113,64,20,0,12,80,116,87,0,0,113,0,0,5,0,139,102,0,0,0,0,0,0],"split_type":[0,0,0,0,0,0,0,0,0,0,0,0,0,0,0,0,0,0,0,0,0,0,0],"sum_hessian":[6.1520477E1,2.2186651E1,3.9333828E1,3.6785393E0,1.850811E1,3.2258053E1,7.0757747E0,1.4588822E1,3.9192889E0,5.987736E0,2.6270317E1,3.3478425E0,3.727932E0,7.0619836E0,7.5268383E0,1.8469145E1,7.8011737E0,3.0038958E0,4.058088E0,1.3223415E1,5.2457285E0,3.4376802E0,4.3634934E0],"tree_param":{"num_deleted":"0","num_feature":"144","num_nodes":"23","size_leaf_vector":"1"}},{"base_weights":[-1.4365183E-2,1.570482E-1,-3.0687428E-1,-5.700861E-1,3.208923E-1,-9.0257823E-1,-1.0864E-2,9.1974735E-3,-1.14395715E-1,1.5858676E-2,6.3289183E-1,-1.2722622E-1,-2.9861981E-2,8.1926644E-2,-4.2886335E-1,2.5149292E-1,-8.505491E-2,2.340508E-1,9.1318136E-1,3.1069944E-2,-7.3392963E-1,-6.629976E-2,6.533062E-2,7.20868E-2,-4.0283654E-2,3.506513E-2,1.118833E-1,-1.1319274E-1,-7.486985E-3],"categories":[],"categories_nodes":[],"categories_segments":[],"categories_sizes":[],"default_left":[0,0,0,0,0,0,0,0,0,0,0,0,0,0,0,0,0,0,0,0,0,0,0,0,0,0,0,0,0],"id":18,"left_children":[1,3,5,7,9,11,13,-1,-1,15,17,-1,-1,-1,19,21,-1,23,25,-1,27,-1,-1,-1,-1,-1,-1,-1,-1],"loss_changes":[3.3792734E0,5.252199E0,4.3783884E0,3.2149174E0,3.355683E0,1.4618082E0,6.4712386E0,0E0,0E0,4.0740623E0,1.7378349E0,0E0,0E0,0E0,3.0226572E0,6.1789913E0,0E0,2.9411664E0,7.538557E-1,0E0,2.2935061E0,0E0,0E0,0E0,0E0,0E0,0E0,0E0,0E0],"parents":[2147483647,0,0,1,1,2,2,3,3,4,4,5,5,6,6,9,9,10,10,14,14,15,15,17,17,18,18,20,20],"right_children":[2,4,6,8,10,12,14,-1,-1,16,18,-1,-1,-1,20,22,-1,24,26,-1,28,-1,-1,-1,-1,-1,-1,-1,-1],"split_conditions":[-6.0679205E-3,-8.39647E-1,-5.1124528E-2,9.0660445E-2,-1.084049E-1,-4.509459E-3,-6.56231E-1,9.1974735E-3,-1.14395715E-1,-1.8385044E-1,2.1313244E-2,-1.2722622E-1,-2.9861981E-2,8.1926644E-2,-3.0704895E-1,-5.5049765E-1,-8.505491E-2,5.8931477E-2,-3.1460148E-1,3.1069944E-2,1.1233405E-1,-6.629976E-2,6.533062E-2,7.20868E-2,-4.0283654E-2,3.506513E-2,1.118833E-1,-1.1319274E-1,-7.486985E-3],"split_indices":[66,123,138,116,105,21,123,0,0,104,95,0,0,0,31,18,0,5,8,0,53,0,0,0,0,0,0,0,0],"split_type":[0,0,0,0,0,0,0,0,0,0,0,0,0,0,0,0,0,0,0,0,0,0,0,0,0,0,0,0,0],"sum_hessian":[6.543561E1,4.1549984E1,2.3885624E1,7.1847725E0,3.436521E1,7.2487597E0,1.6636864E1,3.725957E0,3.4588158E0,1.7907932E1,1.6457277E1,3.8100708E0,3.438689E0,5.2502003E0,1.1386663E1,1.4636907E1,3.2710254E0,7.549569E0,8.907709E0,3.3198907E0,8.066773E0,4.2696214E0,1.0367285E1,4.2041693E0,3.3453996E0,3.1088839E0,5.7988253E0,4.582171E0,3.4846022E0],"tree_param":{"num_deleted":"0","num_feature":"144","num_nodes":"29","size_leaf_vector":"1"}},{"base_weights":[3.7028328E-2,-6.850417E-2,1.0317273E-1,3.745951E-1,-6.516229E-2,6.8747336E-1,-2.204283E-1,-6.6317606E-1,1.1958405E-1,-2.2743676E-2,9.908402E-1,3.480124E-2,-8.6050734E-2,1.1993606E-3,-1.0256445E-1,3.78393E-1,-5.355674E-1,3.4203123E-2,1.2167821E-1,-2.4044484E-2,5.8745768E-2,-9.025102E-2,9.389649E-3],"categories":[],"categories_nodes":[],"categories_segments":[],"categories_sizes":[],"default_left":[0,0,0,0,0,0,0,0,0,0,0,0,0,0,0,0,0,0,0,0,0,0,0],"id":19,"left_children":[1,-1,3,5,7,9,11,13,15,-1,17,-1,-1,-1,-1,19,21,-1,-1,-1,-1,-1,-1],"loss_changes":[3.1395245E0,0E0,2.7535343E0,4.435834E0,4.246494E0,4.4788613E0,3.460504E0,2.2283328E0,5.2323794E0,0E0,1.2983122E0,0E0,0E0,0E0,0E0,2.9680927E0,2.120561E0,0E0,0E0,0E0,0E0,0E0,0E0],"parents":[2147483647,0,0,2,2,3,3,4,4,5,5,6,6,7,7,8,8,10,10,15,15,16,16],"right_children":[2,-1,4,6,8,10,12,14,16,-1,18,-1,-1,-1,-1,20,22,-1,-1,-1,-1,-1,-1],"split_conditions":[-9.9560446E-1,-6.850417E-2,-3.8501346E-1,4.7577062E-1,-5.6538355E-1,-5.939941E-1,6.4372957E-1,-4.394142E-1,5.0870234E-1,-2.2743676E-2,-7.230945E-1,3.480124E-2,-8.6050734E-2,1.1993606E-3,-1.0256445E-1,-4.7343346E-1,-5.6100525E-2,3.4203123E-2,1.2167821E-1,-2.4044484E-2,5.8745768E-2,-9.025102E-2,9.389649E-3],"split_indices":[102,0,66,94,76,18,79,18,123,0,59,0,0,0,0,6,75,0,0,0,0,0,0],"split_type":[0,0,0,0,0,0,0,0,0,0,0,0,0,0,0,0,0,0,0,0,0,0,0],"sum_hessian":[6.325439E1,4.522915E0,5.8731476E1,2.2012829E1,3.671865E1,1.4325007E1,7.687821E0,8.055094E0,2.8663555E1,3.6294389E0,1.0695568E1,4.3134418E0,3.374379E0,3.1515722E0,4.9035215E0,2.084962E1,7.813934E0,3.4118867E0,7.283682E0,5.227112E0,1.5622509E1,4.662296E0,3.1516378E0],"tree_param":{"num_deleted":"0","num_feature":"144","num_nodes":"23","size_leaf_vector":"1"}},{"base_weights":[2.2573143E-3,-8.0167085E-2,6.608732E-1,-4.3583748E-1,1.5726277E-1,1.27603235E-2,1.0644895E-1,3.5972174E-2,-6.5246755E-1,3.398277E-1,-5.1621777E-1,-8.270252E-1,1.8680086E-2,6.9581014E-1,-2.247716E-3,-1.11956656E-1,8.422565E-3,-3.8350762E-3,-1.1404114E-1,-6.5277903E-3,9.511293E-2,6.8375684E-2,-5.419902E-2],"categories":[],"categories_nodes":[],"categories_segments":[],"categories_sizes":[],"default_left":[0,0,0,0,0,0,0,0,0,0,0,0,0,0,0,0,0,0,0,0,0,0,0],"id":20,"left_children":[1,3,5,7,9,-1,-1,-1,11,13,15,17,-1,19,21,-1,-1,-1,-1,-1,-1,-1,-1],"loss_changes":[3.5639186E0,4.9979515E0,1.4357877E0,4.3076706E0,4.569794E0,0E0,0E0,0E0,2.9278126E0,3.4989889E0,2.9994204E0,3.8750591E0,0E0,2.7976456E0,6.162777E0,0E0,0E0,0E0,0E0,0E0,0E0,0E0,0E0],"parents":[2147483647,0,0,1,1,2,2,3,3,4,4,8,8,9,9,10,10,11,11,13,13,14,14],"right_children":[2,4,6,8,10,-1,-1,-1,12,14,16,18,-1,20,22,-1,-1,-1,-1,-1,-1,-1,-1],"split_conditions":[1.2588265E0,-4.6086144E-1,-3.8205203E-1,-7.1318614E-1,5.453136E-1,1.27603235E-2,1.0644895E-1,3.5972174E-2,5.1290864E-1,9.842671E-2,-1.5501353E-1,-9.855659E-1,1.8680086E-2,-5.375698E-1,-2.4207276E-1,-1.11956656E-1,8.422565E-3,-3.8350762E-3,-1.1404114E-1,-6.5277903E-3,9.511293E-2,6.8375684E-2,-5.419902E-2],"split_indices":[133,123,4,31,66,0,0,0,5,5,139,123,0,139,142,0,0,0,0,0,0,0,0],"split_type":[0,0,0,0,0,0,0,0,0,0,0,0,0,0,0,0,0,0,0,0,0,0,0],"sum_hessian":[6.3674824E1,5.7372993E1,6.3018303E0,2.2633026E1,3.4739967E1,3.2818723E0,3.019958E0,4.702582E0,1.7930445E1,2.7720892E1,7.019074E0,1.48553095E1,3.075135E0,1.307757E1,1.4643322E1,3.0698268E0,3.9492471E0,4.5434766E0,1.0311832E1,3.4720283E0,9.605541E0,6.3305144E0,8.312808E0],"tree_param":{"num_deleted":"0","num_feature":"144","num_nodes":"23","size_leaf_vector":"1"}},{"base_weights":[1.8879551E-2,6.548013E-1,-8.283095E-2,2.447196E-2,9.4561264E-2,6.7647494E-2,-1.6282867E-1,-2.4545391E-1,5.8903027E-2,4.0470753E-3,-5.933501E-1,2.5620693E-2,-5.3398844E-2,-1.17190175E-1,-1.9900704E-2],"categories":[],"categories_nodes":[],"categories_segments":[],"categories_sizes":[],"default_left":[0,0,0,0,0,0,0,0,0,0,0,0,0,0,0],"id":21,"left_children":[1,3,5,-1,-1,-1,7,9,-1,11,13,-1,-1,-1,-1],"loss_changes":[4.069526E0,8.0281544E-1,3.4149852E0,0E0,0E0,0E0,3.2524014E0,3.9761066E0,0E0,3.8885512E0,4.130464E0,0E0,0E0,0E0,0E0],"parents":[2147483647,0,0,1,1,2,2,6,6,7,7,9,9,10,10],"right_children":[2,4,6,-1,-1,-1,8,10,-1,12,14,-1,-1,-1,-1],"split_conditions":[-7.509492E-1,3.7227213E-2,-8.771388E-1,2.447196E-2,9.4561264E-2,6.7647494E-2,1.3901119E0,9.842671E-2,5.8903027E-2,1.8667611E-1,-5.345097E-1,2.5620693E-2,-5.3398844E-2,-1.17190175E-1,-1.9900704E-2],"split_indices":[30,63,103,0,0,0,31,5,0,30,135,0,0,0,0],"split_type":[0,0,0,0,0,0,0,0,0,0,0,0,0,0,0],"sum_hessian":[6.1079365E1,7.6722813E0,5.340708E1,3.9474173E0,3.724864E0,4.379783E0,4.9027298E1,4.477978E1,4.247519E0,2.6653229E1,1.8126553E1,1.8504553E1,8.148676E0,6.548007E0,1.1578545E1],"tree_param":{"num_deleted":"0","num_feature":"144","num_nodes":"15","size_leaf_vector":"1"}},{"base_weights":[-1.2716875E-2,7.611553E-2,-1.0027481E-1,-1.7694967E-2,-8.9379825E-2,-2.1619663E-1,7.2242653E-1,-7.5909317E-1,-3.2466188E-2,1.1467975E-1,2.5363702E-2,-1.2939176E-1,-2.0237898E-2,-4.843048E-2,2.3784911E-2],"categories":[],"categories_nodes":[],"categories_segments":[],"categories_sizes":[],"default_left":[0,0,0,0,0,0,0,0,0,0,0,0,0,0,0],"id":22,"left_children":[1,-1,3,5,-1,7,9,11,13,-1,-1,-1,-1,-1,-1],"loss_changes":[4.327381E0,0E0,3.73539E0,7.923503E0,0E0,4.2104077E0,1.9792876E0,2.921327E0,4.117327E0,0E0,0E0,0E0,0E0,0E0,0E0],"parents":[2147483647,0,0,2,2,3,3,5,5,6,6,7,7,8,8],"right_children":[2,-1,4,6,-1,8,10,12,14,-1,-1,-1,-1,-1,-1],"split_conditions":[-9.3622714E-1,7.611553E-2,1.0744654E0,3.2018003E-1,-8.9379825E-2,-5.52274E-1,4.114277E-1,-2.539932E-1,-6.0463536E-1,1.1467975E-1,2.5363702E-2,-1.2939176E-1,-2.0237898E-2,-4.843048E-2,2.3784911E-2],"split_indices":[103,0,50,63,0,129,135,42,76,0,0,0,0,0,0],"split_type":[0,0,0,0,0,0,0,0,0,0,0,0,0,0,0],"sum_hessian":[6.173822E1,5.493276E0,5.624494E1,5.186934E1,4.375603E0,4.1458107E1,1.0411234E1,9.691015E0,3.176709E1,4.7053914E0,5.7058425E0,4.2673E0,5.423715E0,1.1594677E1,2.0172415E1],"tree_param":{"num_deleted":"0","num_feature":"144","num_nodes":"15","size_leaf_vector":"1"}},{"base_weights":[-3.743619E-2,6.407279E-2,-1.15510285E-1,4.3053037E-1,-2.3329408E-1,-1.7342541E-2,9.714829E-2,-6.199117E-1,-7.061868E-2,-2.4920134E-1,-1.1891545E-1,1.0074046E-1,-6.1101055E-1,-7.07983E-2,3.5779115E-2,-2.3694487E-2,4.8547216E-2,6.0372856E-3,-9.935727E-2],"categories":[],"categories_nodes":[],"categories_segments":[],"categories_sizes":[],"default_left":[0,0,0,0,0,0,0,0,0,0,0,0,0,0,0,0,0,0,0],"id":23,"left_children":[1,-1,3,5,7,-1,-1,9,11,13,-1,15,17,-1,-1,-1,-1,-1,-1],"loss_changes":[3.4472454E0,0E0,3.8293746E0,3.644317E0,2.996516E0,0E0,0E0,2.6976118E0,3.3167503E0,2.9983437E0,0E0,3.694024E0,2.2701051E0,0E0,0E0,0E0,0E0,0E0,0E0],"parents":[2147483647,0,0,2,2,3,3,4,4,7,7,8,8,9,9,11,11,12,12],"right_children":[2,-1,4,6,8,-1,-1,10,12,14,-1,16,18,-1,-1,-1,-1,-1,-1],"split_conditions":[-8.5982794E-1,6.407279E-2,-1.1172049E0,-1.5899756E0,-4.245524E-1,-1.7342541E-2,9.714829E-2,4.3848622E-1,8.347381E-1,1.6030836E-1,-1.1891545E-1,-2.2344148E-1,-1.0703135E0,-7.07983E-2,3.5779115E-2,-2.3694487E-2,4.8547216E-2,6.0372856E-3,-9.935727E-2],"split_indices":[103,0,95,86,103,0,0,41,1,82,0,85,29,0,0,0,0,0,0],"split_type":[0,0,0,0,0,0,0,0,0,0,0,0,0,0,0,0,0,0,0],"sum_hessian":[6.2709595E1,5.7301273E0,5.6979465E1,9.638861E0,4.7340607E1,4.8752313E0,4.763629E0,1.3187709E1,3.4152897E1,8.857307E0,4.330402E0,2.6548048E1,7.6048503E0,4.949762E0,3.907545E0,1.4343048E1,1.2204999E1,3.0661137E0,4.5387363E0],"tree_param":{"num_deleted":"0","num_feature":"144","num_nodes":"19","size_leaf_vector":"1"}},{"base_weights":[-4.567274E-3,7.838867E-2,-7.9249784E-2,7.8896135E-3,-6.902193E-1,-1.1729662E-1,4.8593563E-1,-9.661897E-2,-2.5420105E-2,-1.3462231E-2,-1.0079583E-1,9.675342E-2,-2.5310263E-2,-2.6823685E-2,2.8408287E-2],"categories":[],"categories_nodes":[],"categories_segments":[],"categories_sizes":[],"default_left":[0,0,0,0,0,0,0,0,0,0,0,0,0,0,0],"id":24,"left_children":[1,-1,3,5,7,9,11,-1,-1,13,-1,-1,-1,-1,-1],"loss_changes":[3.779739E0,0E0,3.1242342E0,3.1843023E0,6.356077E-1,3.8907897E0,4.1739206E0,0E0,0E0,3.0192866E0,0E0,0E0,0E0,0E0,0E0],"parents":[2147483647,0,0,2,2,3,3,4,4,5,5,6,6,9,9],"right_children":[2,-1,4,6,8,10,12,-1,-1,14,-1,-1,-1,-1,-1],"split_conditions":[-9.2470735E-1,7.838867E-2,1.1159246E0,7.878333E-1,1.4749848E0,1.1498107E0,1.312115E-1,-9.661897E-2,-2.5420105E-2,-2.4980007E-1,-1.0079583E-1,9.675342E-2,-2.5310263E-2,-2.6823685E-2,2.8408287E-2],"split_indices":[103,0,25,113,74,84,138,0,0,102,0,0,0,0,0],"split_type":[0,0,0,0,0,0,0,0,0,0,0,0,0,0,0],"sum_hessian":[6.213487E1,4.554534E0,5.7580338E1,5.1256916E1,6.3234205E0,4.121781E1,1.00391035E1,3.1277955E0,3.1956253E0,3.7823425E1,3.3943849E0,5.8910117E0,4.148092E0,2.042926E1,1.7394165E1],"tree_param":{"num_deleted":"0","num_feature":"144","num_nodes":"15","size_leaf_vector":"1"}},{"base_weights":[-4.318959E-2,-3.78433E-1,7.966475E-2,-5.7035065E-1,3.257767E-2,1.9462812E-1,-3.9656714E-1,-8.0322003E-1,1.8451354E-2,-1.4603938E-1,5.453579E-1,2.6065236E-2,-8.036401E-2,-2.6308922E-2,-1.0840942E-1,1.2106325E-1,-7.901127E-2,7.2327006E-1,-1.4182349E-2,-1.7328031E-2,6.447209E-2,1.0432887E-1,1.6433819E-3],"categories":[],"categories_nodes":[],"categories_segments":[],"categories_sizes":[],"default_left":[0,0,0,0,0,0,0,0,0,0,0,0,0,0,0,0,0,0,0,0,0,0,0],"id":25,"left_children":[1,3,5,7,-1,9,11,13,-1,15,17,-1,-1,-1,-1,19,-1,21,-1,-1,-1,-1,-1],"loss_changes":[2.59756E0,2.4687157E0,2.620023E0,2.5454874E0,0E0,4.6300426E0,2.7138546E0,1.3242931E0,0E0,3.5549173E0,2.4225736E0,0E0,0E0,0E0,0E0,2.4361858E0,0E0,3.4296112E0,0E0,0E0,0E0,0E0,0E0],"parents":[2147483647,0,0,1,1,2,2,3,3,5,5,6,6,7,7,9,9,10,10,15,15,17,17],"right_children":[2,4,6,8,-1,10,12,14,-1,16,18,-1,-1,-1,-1,20,-1,22,-1,-1,-1,-1,-1],"split_conditions":[-5.939941E-1,1.1594638E0,7.075523E-1,6.473308E-1,3.257767E-2,-2.6999533E-1,-6.316976E-2,-2.003966E-1,1.8451354E-2,5.619782E-1,8.254956E-1,2.6065236E-2,-8.036401E-2,-2.6308922E-2,-1.0840942E-1,3.142769E-1,-7.901127E-2,8.2733023E-1,-1.4182349E-2,-1.7328031E-2,6.447209E-2,1.0432887E-1,1.6433819E-3],"split_indices":[18,140,138,138,0,139,103,71,0,101,127,0,0,0,0,90,0,1,0,0,0,0,0],"split_type":[0,0,0,0,0,0,0,0,0,0,0,0,0,0,0,0,0,0,0,0,0,0,0],"sum_hessian":[6.133685E1,1.589163E1,4.544522E1,1.2637599E1,3.2540305E0,3.708431E1,8.360912E0,9.609185E0,3.0284138E0,1.910806E1,1.7976246E1,3.335476E0,5.0254364E0,3.9499578E0,5.659228E0,1.4080708E1,5.0273533E0,1.4237597E1,3.7386491E0,9.442343E0,4.6383653E0,9.472806E0,4.764791E0],"tree_param":{"num_deleted":"0","num_feature":"144","num_nodes":"23","size_leaf_vector":"1"}},{"base_weights":[-2.2153819E-2,7.884394E-2,-9.354349E-2,1.0360389E-1,-5.651455E-1,-1.2994231E-1,4.346107E-1,-8.567399E-1,1.5286378E-2,3.623186E-1,-4.13006E-1,8.831623E-1,-8.167813E-2,-1.1846731E-1,-9.788529E-3,8.746926E-2,-1.9794043E-2,-8.299982E-2,1.9398192E-2,1.1468317E-1,3.7787747E-2,-4.4544302E-2,4.3744333E-2],"categories":[],"categories_nodes":[],"categories_segments":[],"categories_sizes":[],"default_left":[0,0,0,0,0,0,0,0,0,0,0,0,0,0,0,0,0,0,0,0,0,0,0],"id":26,"left_children":[1,-1,3,5,7,9,11,13,-1,15,17,19,21,-1,-1,-1,-1,-1,-1,-1,-1,-1,-1],"loss_changes":[3.5180225E0,0E0,5.22757E0,3.1526465E0,3.5948544E0,3.5290127E0,3.962409E0,2.849763E0,0E0,2.867803E0,4.1766977E0,7.75507E-1,1.8424695E0,0E0,0E0,0E0,0E0,0E0,0E0,0E0,0E0,0E0,0E0],"parents":[2147483647,0,0,2,2,3,3,4,4,5,5,6,6,7,7,9,9,10,10,11,11,12,12],"right_children":[2,-1,4,6,8,10,12,14,-1,16,18,20,22,-1,-1,-1,-1,-1,-1,-1,-1,-1,-1],"split_conditions":[-1.5713804E0,7.884394E-2,4.5312613E-2,2.699312E-1,4.0753475E-1,-1.4731714E-1,4.267874E-1,2.2403623E-1,1.5286378E-2,-5.42723E-1,5.339348E-1,-4.1585043E-2,-2.0448348E-1,-1.1846731E-1,-9.788529E-3,8.746926E-2,-1.9794043E-2,-8.299982E-2,1.9398192E-2,1.1468317E-1,3.7787747E-2,-4.4544302E-2,4.3744333E-2],"split_indices":[78,0,40,77,4,5,84,139,0,40,142,43,30,0,0,0,0,0,0,0,0,0,0],"split_type":[0,0,0,0,0,0,0,0,0,0,0,0,0,0,0,0,0,0,0,0,0,0,0],"sum_hessian":[5.851943E1,3.9236968E0,5.459573E1,3.905118E1,1.5544548E1,2.3252506E1,1.5798677E1,1.0917551E1,4.6269975E0,8.387049E0,1.4865457E1,8.073674E0,7.7250037E0,7.2314167E0,3.6861339E0,4.087592E0,4.2994566E0,8.594056E0,6.271401E0,4.470953E0,3.6027212E0,4.6256166E0,3.0993872E0],"tree_param":{"num_deleted":"0","num_feature":"144","num_nodes":"23","size_leaf_vector":"1"}},{"base_weights":[1.4126985E-2,6.985822E-2,-4.2540323E-2,-6.4478785E-1,8.0727026E-2,-1.0192329E-1,8.040568E-3,3.128578E-1,-1.7864275E-1,5.386425E-1,-2.8521898E-1,-4.1821697E-1,3.5001558E-1,4.867709E-3,8.772617E-2,-5.9021443E-2,4.82714E-3,-9.302181E-2,-6.518587E-3,-1.1148658E-2,7.93593E-2],"categories":[],"categories_nodes":[],"categories_segments":[],"categories_sizes":[],"default_left":[0,0,0,0,0,0,0,0,0,0,0,0,0,0,0,0,0,0,0,0,0],"id":27,"left_children":[1,-1,3,5,7,-1,-1,9,11,13,15,17,19,-1,-1,-1,-1,-1,-1,-1,-1],"loss_changes":[2.4062092E0,0E0,4.322874E0,2.766357E0,2.984606E0,0E0,0E0,3.6690583E0,3.136707E0,3.1502323E0,8.20668E-1,2.9584825E0,1.7071967E0,0E0,0E0,0E0,0E0,0E0,0E0,0E0,0E0],"parents":[2147483647,0,0,2,2,3,3,4,4,7,7,8,8,9,9,10,10,11,11,12,12],"right_children":[2,-1,4,6,8,-1,-1,10,12,14,16,18,20,-1,-1,-1,-1,-1,-1,-1,-1],"split_conditions":[-9.8651993E-1,6.985822E-2,-5.9846413E-1,2.2114761E-1,6.6549405E-2,-1.0192329E-1,8.040568E-3,4.329591E-1,5.3133845E-1,-1.8718775E-1,-3.9456472E-1,-4.122134E-1,5.542889E-1,4.867709E-3,8.772617E-2,-5.9021443E-2,4.82714E-3,-9.302181E-2,-6.518587E-3,-1.1148658E-2,7.93593E-2],"split_indices":[103,0,103,90,5,0,0,67,58,83,120,29,5,0,0,0,0,0,0,0,0],"split_type":[0,0,0,0,0,0,0,0,0,0,0,0,0,0,0,0,0,0,0,0,0],"sum_hessian":[6.0271515E1,3.742309E0,5.652921E1,8.885669E0,4.764354E1,5.592556E0,3.2931135E0,2.5033148E1,2.2610392E1,1.824479E1,6.7883587E0,1.5703074E1,6.9073167E0,7.923549E0,1.0321239E1,3.1435754E0,3.644783E0,5.7413898E0,9.961685E0,3.752179E0,3.1551378E0],"tree_param":{"num_deleted":"0","num_feature":"144","num_nodes":"21","size_leaf_vector":"1"}},{"base_weights":[2.4670113E-2,-1.8255556E-1,3.1347623E-1,8.382725E-3,-6.697393E-1,-1.5269066E-1,5.479936E-1,7.7753395E-2,-1.4642586E-1,-1.315731E-2,-1.0290735E-1,-6.304676E-2,4.076074E-2,9.910873E-2,1.0716431E-1,-3.4087384E-1,6.9932185E-2,6.3092604E-2,-2.7377484E-2,-7.777365E-2,1.6985876E-2],"categories":[],"categories_nodes":[],"categories_segments":[],"categories_sizes":[],"default_left":[0,0,0,0,0,0,0,0,0,0,0,0,0,0,0,0,0,0,0,0,0],"id":28,"left_children":[1,3,5,7,9,11,13,-1,15,-1,-1,-1,-1,-1,17,19,-1,-1,-1,-1,-1],"loss_changes":[3.6005309E0,3.2709744E0,2.827922E0,3.2343235E0,1.7783647E0,2.7154202E0,3.1984172E0,0E0,3.9644759E0,0E0,0E0,0E0,0E0,0E0,2.0885458E0,4.392413E0,0E0,0E0,0E0,0E0,0E0],"parents":[2147483647,0,0,1,1,2,2,3,3,4,4,5,5,6,6,8,8,14,14,15,15],"right_children":[2,4,6,8,10,12,14,-1,16,-1,-1,-1,-1,-1,18,20,-1,-1,-1,-1,-1],"split_conditions":[3.682608E-2,-1.7716013E-1,-9.829163E-1,-9.974245E-1,1.5121145E-2,-1.9519702E-1,5.8068967E-1,7.7753395E-2,8.3734E-1,-1.315731E-2,-1.0290735E-1,-6.304676E-2,4.076074E-2,9.910873E-2,-6.5411514E-1,2.79351E-2,6.9932185E-2,6.3092604E-2,-2.7377484E-2,-7.777365E-2,1.6985876E-2],"split_indices":[70,47,126,99,22,30,68,0,139,0,0,0,0,0,51,27,0,0,0,0,0],"split_type":[0,0,0,0,0,0,0,0,0,0,0,0,0,0,0,0,0,0,0,0,0],"sum_hessian":[5.820501E1,3.4103085E1,2.4101925E1,2.5206776E1,8.896309E0,8.183639E0,1.5918287E1,3.5493965E0,2.165738E1,4.1088066E0,4.787503E0,4.3495E0,3.8341384E0,7.3162355E0,8.602051E0,1.8094242E1,3.5631368E0,3.3457148E0,5.256336E0,9.47062E0,8.623622E0],"tree_param":{"num_deleted":"0","num_feature":"144","num_nodes":"21","size_leaf_vector":"1"}},{"base_weights":[-2.0960301E-2,-4.661851E-1,7.747963E-2,-8.4144807E-1,3.560509E-2,7.502132E-2,3.0514929E-3,-4.043001E-2,-1.10687606E-1,1.9411312E-1,-2.5296417E-1,4.6725827E-1,-1.6674912E-1,5.5594087E-2,-4.602067E-1,7.321883E-2,-3.3991244E-2,-5.815638E-2,4.64047E-2,7.6437736E-4,-9.8354064E-2],"categories":[],"categories_nodes":[],"categories_segments":[],"categories_sizes":[],"default_left":[0,0,0,0,0,0,0,0,0,0,0,0,0,0,0,0,0,0,0,0,0],"id":29,"left_children":[1,3,5,7,-1,-1,9,-1,-1,11,13,15,17,-1,19,-1,-1,-1,-1,-1,-1],"loss_changes":[2.699926E0,3.7392325E0,2.5328314E0,4.751196E-1,0E0,0E0,2.3281255E0,0E0,0E0,2.7635145E0,3.666553E0,3.621393E0,3.534203E0,0E0,4.106941E0,0E0,0E0,0E0,0E0,0E0,0E0],"parents":[2147483647,0,0,1,1,2,2,3,3,6,6,9,9,10,10,11,11,12,12,14,14],"right_children":[2,4,6,8,-1,-1,10,-1,-1,12,14,16,18,-1,20,-1,-1,-1,-1,-1,-1],"split_conditions":[-1.1031157E0,2.6229233E-1,-8.711297E-1,-2.742204E-1,3.560509E-2,7.502132E-2,2.7462617E-1,-4.043001E-2,-1.10687606E-1,4.692513E-1,-5.845402E-1,9.8862594E-1,8.846192E-1,5.5594087E-2,-6.764437E-1,7.321883E-2,-3.3991244E-2,-5.815638E-2,4.64047E-2,7.6437736E-4,-9.8354064E-2],"split_indices":[64,63,43,18,0,0,57,0,0,24,23,28,132,0,51,0,0,0,0,0,0],"split_type":[0,0,0,0,0,0,0,0,0,0,0,0,0,0,0,0,0,0,0,0,0],"sum_hessian":[5.9778778E1,1.0147567E1,4.9631214E1,6.951557E0,3.1960092E0,4.039519E0,4.5591694E1,3.5794935E0,3.3720636E0,2.6246223E1,1.9345472E1,1.4770924E1,1.1475299E1,3.6023374E0,1.57431345E1,1.1190776E1,3.5801473E0,6.9699035E0,4.5053954E0,8.83247E0,6.9106646E0],"tree_param":{"num_deleted":"0","num_feature":"144","num_nodes":"21","size_leaf_vector":"1"}},{"base_weights":[6.622382E-3,-7.385461E-2,5.5178225E-1,-8.862621E-2,1.4558367E-2,1.0410204E-1,-7.2537563E-3,-5.0862837E-1,1.5961382E-1,-8.552841E-3,-9.934822E-2,2.4759436E-1,-5.990703E-2,4.4179287E-2,-5.684586E-3],"categories":[],"categories_nodes":[],"categories_segments":[],"categories_sizes":[],"default_left":[0,0,0,0,0,0,0,0,0,0,0,0,0,0,0],"id":30,"left_children":[1,3,5,-1,7,-1,-1,9,11,-1,-1,13,-1,-1,-1],"loss_changes":[2.5834231E0,3.7035735E0,2.3886142E0,0E0,3.6726015E0,0E0,0E0,2.0713413E0,2.6722538E0,0E0,0E0,2.0701582E0,0E0,0E0,0E0],"parents":[2147483647,0,0,1,1,2,2,4,4,7,7,8,8,11,11],"right_children":[2,4,6,-1,8,-1,-1,10,12,-1,-1,14,-1,-1,-1],"split_conditions":[1.0289286E0,-9.5714897E-1,6.8679774E-1,-8.862621E-2,-9.506687E-1,1.0410204E-1,-7.2537563E-3,-5.536004E-1,1.5487202E0,-8.552841E-3,-9.934822E-2,4.8168996E-1,-5.990703E-2,4.4179287E-2,-5.684586E-3],"split_indices":[113,102,46,0,64,0,0,128,127,0,0,94,0,0,0],"split_type":[0,0,0,0,0,0,0,0,0,0,0,0,0,0,0],"sum_hessian":[5.69555E1,5.0382515E1,6.572986E0,4.0592093E0,4.6323307E1,3.3109589E0,3.262027E0,9.511335E0,3.681197E1,5.7073274E0,3.8040078E0,3.3590332E1,3.221638E0,2.0232876E1,1.3357457E1],"tree_param":{"num_deleted":"0","num_feature":"144","num_nodes":"15","size_leaf_vector":"1"}},{"base_weights":[4.0029056E-2,-5.9724417E-2,1.0058646E-1,2.8127283E-1,-1.7310113E-1,6.7613834E-1,-5.7884004E-2,-9.2186324E-2,6.1568983E-2,-1.982341E-2,9.133281E-1,-4.6385372E-1,2.3520452E-1,6.099981E-2,-1.6682623E-1,1.1556567E-1,3.891397E-2,2.3985012E-2,-9.824596E-2,6.202144E-2,-4.4871416E-2,-4.722463E-2,4.499976E-2],"categories":[],"categories_nodes":[],"categories_segments":[],"categories_sizes":[],"default_left":[0,0,0,0,0,0,0,0,0,0,0,0,0,0,0,0,0,0,0,0,0,0,0],"id":31,"left_children":[1,-1,3,5,7,9,11,-1,13,-1,15,17,19,-1,21,-1,-1,-1,-1,-1,-1,-1,-1],"loss_changes":[2.2800808E0,0E0,2.688882E0,4.3968782E0,3.8960457E0,3.3155441E0,2.301485E0,0E0,2.30298E0,0E0,1.0831251E0,3.1777048E0,3.2706294E0,0E0,2.6977267E0,0E0,0E0,0E0,0E0,0E0,0E0,0E0,0E0],"parents":[2147483647,0,0,2,2,3,3,4,4,5,5,6,6,8,8,10,10,11,11,12,12,14,14],"right_children":[2,-1,4,6,8,10,12,-1,14,-1,16,18,20,-1,22,-1,-1,-1,-1,-1,-1,-1,-1],"split_conditions":[-9.9560446E-1,-5.9724417E-2,4.973539E-1,9.0660445E-2,2.2657087E-1,-1.4858513E0,-2.58036E-2,-9.2186324E-2,5.812285E-1,-1.982341E-2,4.8168996E-1,-3.0937263E-1,8.672833E-1,6.099981E-2,1.2588265E0,1.1556567E-1,3.891397E-2,2.3985012E-2,-9.824596E-2,6.202144E-2,-4.4871416E-2,-4.722463E-2,4.499976E-2],"split_indices":[102,0,2,116,141,64,58,0,143,0,94,59,135,0,133,0,0,0,0,0,0,0,0],"split_type":[0,0,0,0,0,0,0,0,0,0,0,0,0,0,0,0,0,0,0,0,0,0,0],"sum_hessian":[5.652561E1,4.1361866E0,5.2389427E1,3.1539549E1,2.0849876E1,1.4113838E1,1.7425713E1,4.2765017E0,1.6573376E1,3.0467148E0,1.1067123E1,7.061659E0,1.0364053E1,4.3815265E0,1.2191849E1,6.744519E0,4.3226037E0,3.2242024E0,3.8374567E0,6.6906934E0,3.673359E0,8.311033E0,3.8808148E0],"tree_param":{"num_deleted":"0","num_feature":"144","num_nodes":"23","size_leaf_vector":"1"}},{"base_weights":[-8.984981E-3,-4.0704814E-1,9.947362E-2,-9.394428E-2,2.1849615E-2,2.144759E-1,-3.8065943E-1,-5.2222867E-2,3.0542076E-1,-8.977976E-2,4.2396784E-3,1.874396E-2,6.682012E-1,6.889473E-2,-1.4324975E-2,1.0062911E-1,2.1831296E-2],"categories":[],"categories_nodes":[],"categories_segments":[],"categories_sizes":[],"default_left":[0,0,0,0,0,0,0,0,0,0,0,0,0,0,0,0,0],"id":32,"left_children":[1,3,5,-1,-1,7,9,-1,11,-1,-1,13,15,-1,-1,-1,-1],"loss_changes":[2.5111897E0,4.3516216E0,2.6092958E0,0E0,0E0,2.6767364E0,2.0521922E0,0E0,3.5311491E0,0E0,0E0,2.2767978E0,2.0636077E0,0E0,0E0,0E0,0E0],"parents":[2147483647,0,0,1,1,2,2,5,5,6,6,8,8,11,11,12,12],"right_children":[2,4,6,-1,-1,8,10,-1,12,-1,-1,14,16,-1,-1,-1,-1],"split_conditions":[-9.829163E-1,2.2445188E-1,8.509533E-1,-9.394428E-2,2.1849615E-2,-1.848559E0,1.1467097E0,-5.2222867E-2,-5.046655E-2,-8.977976E-2,4.2396784E-3,-1.0610399E0,3.3042285E-1,6.889473E-2,-1.4324975E-2,1.0062911E-1,2.1831296E-2],"split_indices":[126,82,22,0,0,131,22,0,139,0,0,80,64,0,0,0,0],"split_type":[0,0,0,0,0,0,0,0,0,0,0,0,0,0,0,0,0],"sum_hessian":[5.622739E1,1.1450159E1,4.4777233E1,5.9145455E0,5.535613E0,3.6570988E1,8.206245E0,3.4974463E0,3.307354E1,3.187598E0,5.018647E0,1.9062006E1,1.4011533E1,3.077362E0,1.5984645E1,7.2936296E0,6.7179036E0],"tree_param":{"num_deleted":"0","num_feature":"144","num_nodes":"17","size_leaf_vector":"1"}},{"base_weights":[-7.534803E-2,-3.8540182E-3,-5.9381064E-2,5.391875E-2,-6.479724E-2,5.4856694E-1,-4.0736314E-2,7.389333E-3,8.747618E-2,4.9567112E-1,-1.545648E-1,9.1719866E-2,-2.5957783E-3,-6.966067E-2,1.3239573E-2],"categories":[],"categories_nodes":[],"categories_segments":[],"categories_sizes":[],"default_left":[0,0,0,0,0,0,0,0,0,0,0,0,0,0,0],"id":33,"left_children":[1,3,-1,5,-1,7,9,-1,-1,11,13,-1,-1,-1,-1],"loss_changes":[2.093079E0,1.9210631E0,0E0,2.2433705E0,0E0,1.1258147E0,2.5646262E0,0E0,0E0,1.6445391E0,5.439402E0,0E0,0E0,0E0,0E0],"parents":[2147483647,0,0,1,1,3,3,5,5,6,6,9,9,10,10],"right_children":[2,4,-1,6,-1,8,10,-1,-1,12,14,-1,-1,-1,-1],"split_conditions":[1.0890423E0,1.6215141E0,-5.9381064E-2,-1.0313213E0,-6.479724E-2,-1.6104944E-2,-1.0162681E0,7.389333E-3,8.747618E-2,1.3175717E-1,-6.315796E-2,9.1719866E-2,-2.5957783E-3,-6.966067E-2,1.3239573E-2],"split_indices":[46,139,0,101,0,130,80,0,0,40,95,0,0,0,0],"split_type":[0,0,0,0,0,0,0,0,0,0,0,0,0,0,0],"sum_hessian":[5.552924E1,4.9685265E1,5.8439746E0,4.6436535E1,3.2487314E0,6.688477E0,3.974806E1,3.223794E0,3.464683E0,6.3709464E0,3.337711E1,3.1041512E0,3.2667954E0,1.1059398E1,2.2317713E1],"tree_param":{"num_deleted":"0","num_feature":"144","num_nodes":"15","size_leaf_vector":"1"}},{"base_weights":[1.3848618E-2,7.266169E-2,-4.6676405E-2,-5.0447935E-1,6.973293E-2,-1.438166E-3,-8.938904E-2,3.600352E-1,-1.2584962E-1,-4.2776734E-2,7.060117E-1,-3.3724284E-1,4.4298303E-1,-4.472775E-2,4.571646E-2,-3.620733E-3,1.0745591E-1,1.5129437E-2,-6.354623E-2,-2.8797092E-3,8.097147E-2],"categories":[],"categories_nodes":[],"categories_segments":[],"categories_sizes":[],"default_left":[0,0,0,0,0,0,0,0,0,0,0,0,0,0,0,0,0,0,0,0,0],"id":34,"left_children":[1,-1,3,5,7,-1,-1,9,11,13,15,17,19,-1,-1,-1,-1,-1,-1,-1,-1],"loss_changes":[2.4091845E0,0E0,2.7898357E0,2.010217E0,2.4350414E0,0E0,0E0,2.4273963E0,3.2623518E0,2.002392E0,2.5857158E0,2.9286249E0,1.3116485E0,0E0,0E0,0E0,0E0,0E0,0E0,0E0,0E0],"parents":[2147483647,0,0,2,2,3,3,4,4,7,7,8,8,9,9,10,10,11,11,12,12],"right_children":[2,-1,4,6,8,-1,-1,10,12,14,16,18,20,-1,-1,-1,-1,-1,-1,-1,-1],"split_conditions":[-1.5391929E0,7.266169E-2,-9.051203E-1,-9.7613946E-2,1.1207209E-1,-1.438166E-3,-8.938904E-2,-2.1942973E-1,8.103142E-1,-5.235729E-1,-8.2396024E-1,-4.537331E-1,-9.817822E-2,-4.472775E-2,4.571646E-2,-3.620733E-3,1.0745591E-1,1.5129437E-2,-6.354623E-2,-2.8797092E-3,8.097147E-2],"split_indices":[79,0,64,40,42,0,0,85,7,18,76,23,21,0,0,0,0,0,0,0,0],"split_type":[0,0,0,0,0,0,0,0,0,0,0,0,0,0,0,0,0,0,0,0,0],"sum_hessian":[5.4059143E1,3.3697941E0,5.068935E1,9.600357E0,4.1088993E1,4.709763E0,4.8905945E0,1.6201035E1,2.4887957E1,7.8905826E0,8.310452E0,1.8441675E1,6.446282E0,4.419843E0,3.4707394E0,3.0565703E0,5.253882E0,7.17705E0,1.1264626E1,3.222364E0,3.223918E0],"tree_param":{"num_deleted":"0","num_feature":"144","num_nodes":"21","size_leaf_vector":"1"}},{"base_weights":[3.7905395E-2,-2.2273743E-1,1.854144E-1,5.7713743E-2,-7.0323485E-1,-5.9513893E-2,3.1262606E-1,3.2370436E-1,-6.661793E-2,-2.221401E-2,-1.0115816E-1,8.4313795E-2,1.7009534E-1,5.861998E-1,-2.6467575E-2,-3.49844E-2,3.363886E-1,9.594441E-2,3.6763833E-3,5.4128684E-2,-1.4102625E-2],"categories":[],"categories_nodes":[],"categories_segments":[],"categories_sizes":[],"default_left":[0,0,0,0,0,0,0,0,0,0,0,0,0,0,0,0,0,0,0,0,0],"id":35,"left_children":[1,3,5,7,9,-1,11,13,-1,-1,-1,-1,15,17,-1,-1,19,-1,-1,-1,-1],"loss_changes":[2.1898458E0,2.8234117E0,3.7837567E0,2.9044015E0,9.1557837E-1,0E0,2.2619047E0,1.8362718E0,0E0,0E0,0E0,0E0,2.3939457E0,1.5720689E0,0E0,0E0,2.0774438E0,0E0,0E0,0E0,0E0],"parents":[2147483647,0,0,1,1,2,2,3,3,4,4,6,6,7,7,12,12,13,13,16,16],"right_children":[2,4,6,8,10,-1,12,14,-1,-1,-1,-1,16,18,-1,-1,20,-1,-1,-1,-1],"split_conditions":[-4.7463816E-1,-3.9927617E-1,-9.78328E-1,5.005196E-1,-2.4215604E-1,-5.9513893E-2,-5.845402E-1,6.9730884E-1,-6.661793E-2,-2.221401E-2,-1.0115816E-1,8.4313795E-2,-2.4839565E-1,2.3192796E-1,-2.6467575E-2,-3.49844E-2,6.6702974E-1,9.594441E-2,3.6763833E-3,5.4128684E-2,-1.4102625E-2],"split_indices":[102,66,14,127,21,0,23,99,0,0,0,0,23,78,0,0,131,0,0,0,0],"split_type":[0,0,0,0,0,0,0,0,0,0,0,0,0,0,0,0,0,0,0,0,0],"sum_hessian":[5.488311E1,1.9650835E1,3.5232273E1,1.2964028E1,6.6868067E0,4.421881E0,3.0810392E1,9.884756E0,3.0792723E0,3.283767E0,3.40304E0,5.4837837E0,2.5326609E1,6.8378677E0,3.0468888E0,5.869866E0,1.9456741E1,3.6274345E0,3.2104332E0,1.3520283E1,5.936459E0],"tree_param":{"num_deleted":"0","num_feature":"144","num_nodes":"21","size_leaf_vector":"1"}},{"base_weights":[1.3779396E-2,8.443829E-2,-5.912158E-2,3.8793296E-4,5.124392E-1,1.6768959E-1,-3.0355906E-1,8.5053496E-2,-5.654033E-3,7.063716E-1,-3.720468E-2,-5.6587034E-1,4.1816007E-2,2.9816378E-2,1.0096413E-1,-4.0292796E-2,1.7679317E-2,-9.726758E-2,-1.693598E-2],"categories":[],"categories_nodes":[],"categories_segments":[],"categories_sizes":[],"default_left":[0,0,0,0,0,0,0,0,0,0,0,0,0,0,0,0,0,0,0],"id":36,"left_children":[1,3,-1,5,7,9,11,-1,-1,13,15,17,-1,-1,-1,-1,-1,-1,-1],"loss_changes":[2.4371672E0,1.830109E0,0E0,2.2643588E0,1.6545241E0,3.1961002E0,3.2295425E0,0E0,0E0,6.848414E-1,1.7739084E0,1.7741117E0,0E0,0E0,0E0,0E0,0E0,0E0,0E0],"parents":[2147483647,0,0,1,1,3,3,4,4,5,5,6,6,9,9,10,10,11,11],"right_children":[2,4,-1,6,8,10,12,-1,-1,14,16,18,-1,-1,-1,-1,-1,-1,-1],"split_conditions":[1.0890423E0,5.961865E-1,-5.912158E-2,1.8769081E-1,3.02159E-1,-5.1832145E-1,5.7750547E-1,8.5053496E-2,-5.654033E-3,-2.75192E-1,-2.2973262E-1,-3.92885E-1,4.1816007E-2,2.9816378E-2,1.0096413E-1,-4.0292796E-2,1.7679317E-2,-9.726758E-2,-1.693598E-2],"split_indices":[46,42,0,6,107,4,77,0,0,139,31,56,0,0,0,0,0,0,0],"split_type":[0,0,0,0,0,0,0,0,0,0,0,0,0,0,0,0,0,0,0],"sum_hessian":[5.4844242E1,4.987916E1,4.96508E0,4.252839E1,7.350773E0,2.7719196E1,1.4809193E1,4.3005075E0,3.0502656E0,6.9636793E0,2.0755516E1,1.1019911E1,3.7892823E0,3.8136215E0,3.1500578E0,7.3357787E0,1.3419738E1,4.7221084E0,6.297802E0],"tree_param":{"num_deleted":"0","num_feature":"144","num_nodes":"19","size_leaf_vector":"1"}},{"base_weights":[6.299682E-2,3.8546523E-1,-9.814601E-2,5.807364E-1,-1.5216837E-2,-2.961025E-1,3.080874E-1,7.8817266E-1,4.1267606E-3,1.0986662E-1,-5.4883325E-1,-2.3313908E-2,6.2777096E-1,2.3831664E-2,1.0547101E-1,-3.9928608E-2,5.6362297E-2,-8.75912E-1,-2.8167257E-2,9.447638E-2,1.9835524E-2,-1.1579827E-1,-3.2894082E-2,3.5212304E-2,-4.0287726E-2],"categories":[],"categories_nodes":[],"categories_segments":[],"categories_sizes":[],"default_left":[0,0,0,0,0,0,0,0,0,0,0,0,0,0,0,0,0,0,0,0,0,0,0,0,0],"id":37,"left_children":[1,3,5,7,-1,9,11,13,-1,15,17,-1,19,-1,-1,-1,-1,21,23,-1,-1,-1,-1,-1,-1],"loss_changes":[2.8035028E0,1.9715114E0,3.0092201E0,1.4631844E0,0E0,2.6157987E0,2.2881548E0,1.1553788E0,0E0,2.625376E0,2.6179504E0,0E0,9.087844E-1,0E0,0E0,0E0,0E0,1.084382E0,1.1422375E0,0E0,0E0,0E0,0E0,0E0,0E0],"parents":[2147483647,0,0,1,1,2,2,3,3,5,5,6,6,7,7,9,9,10,10,12,12,17,17,18,18],"right_children":[2,4,6,8,-1,10,12,14,-1,16,18,-1,20,-1,-1,-1,-1,22,24,-1,-1,-1,-1,-1,-1],"split_conditions":[-2.2197756E-1,4.0526727E-1,5.726075E-1,2.7088186E-1,-1.5216837E-2,-2.4395128E-1,-8.2516834E-2,-7.156677E-1,4.1267606E-3,-1.4936882E-1,4.3893948E-1,-2.3313908E-2,-4.3156534E-2,2.3831664E-2,1.0547101E-1,-3.9928608E-2,5.6362297E-2,4.7298324E-1,1.0111864E0,9.447638E-2,1.9835524E-2,-1.1579827E-1,-3.2894082E-2,3.5212304E-2,-4.0287726E-2],"split_indices":[5,66,5,114,0,38,14,46,0,29,20,0,21,0,0,0,0,116,28,0,0,0,0,0,0],"split_type":[0,0,0,0,0,0,0,0,0,0,0,0,0,0,0,0,0,0,0,0,0,0,0,0,0],"sum_hessian":[5.2223366E1,1.693736E1,3.5286003E1,1.2365852E1,4.571509E0,2.3907194E1,1.137881E1,8.598533E0,3.7673194E0,9.389629E0,1.4517564E1,4.325845E0,7.0529656E0,3.4256577E0,5.172875E0,4.48129E0,4.90834E0,8.497317E0,6.0202465E0,3.3671997E0,3.685766E0,4.869207E0,3.6281104E0,3.0177915E0,3.0024552E0],"tree_param":{"num_deleted":"0","num_feature":"144","num_nodes":"25","size_leaf_vector":"1"}},{"base_weights":[-1.7333925E-2,-6.474686E-2,4.8089042E-2,-9.5111065E-2,3.05001E-1,2.7035126E-1,-3.4444782E-1,7.1184593E-1,2.531483E-2,4.912343E-1,-3.8689606E-2,-2.2433454E-2,-6.258989E-1,9.583765E-2,2.9128863E-2,-5.0385445E-2,3.8513526E-1,7.778558E-2,-1.1582731E-2,-4.1192595E-2,5.8839824E-2,-8.368322E-2,-7.163214E-3,6.299902E-2,3.3795342E-3],"categories":[],"categories_nodes":[],"categories_segments":[],"categories_sizes":[],"default_left":[0,0,0,0,0,0,0,0,0,0,0,0,0,0,0,0,0,0,0,0,0,0,0,0,0],"id":38,"left_children":[1,-1,3,5,7,9,11,13,15,17,-1,19,21,-1,-1,-1,23,-1,-1,-1,-1,-1,-1,-1,-1],"loss_changes":[2.2572672E0,0E0,1.863017E0,3.079374E0,2.0392118E0,2.2008796E0,1.791384E0,4.8065472E-1,2.4314897E0,1.9705818E0,0E0,2.699543E0,1.178472E0,0E0,0E0,0E0,6.292014E-1,0E0,0E0,0E0,0E0,0E0,0E0,0E0,0E0],"parents":[2147483647,0,0,2,2,3,3,4,4,5,5,6,6,7,7,8,8,9,9,11,11,12,12,16,16],"right_children":[2,-1,4,6,8,10,12,14,16,18,-1,20,22,-1,-1,-1,24,-1,-1,-1,-1,-1,-1,-1,-1],"split_conditions":[-9.5714897E-1,-6.474686E-2,2.8521815E-1,-2.5719154E-1,5.3136476E-4,-1.2131885E-1,-7.3644896E-3,7.2188306E-1,4.227714E-1,1.8980984E-1,-3.8689606E-2,-2.3675251E-1,6.2319267E-1,9.583765E-2,2.9128863E-2,-5.0385445E-2,-4.0337047E-1,7.778558E-2,-1.1582731E-2,-4.1192595E-2,5.8839824E-2,-8.368322E-2,-7.163214E-3,6.299902E-2,3.3795342E-3],"split_indices":[102,0,14,113,32,14,5,131,121,67,0,60,5,0,0,0,138,0,0,0,0,0,0,0,0],"split_type":[0,0,0,0,0,0,0,0,0,0,0,0,0,0,0,0,0,0,0,0,0,0,0,0,0],"sum_hessian":[5.2999172E1,4.1482077E0,4.8850967E1,3.1771595E1,1.7079372E1,1.28510475E1,1.8920547E1,6.3284883E0,1.0750883E1,9.807575E0,3.0434725E0,9.327945E0,9.592602E0,3.1834981E0,3.1449904E0,4.189422E0,6.561461E0,6.4709826E0,3.3365927E0,5.894799E0,3.433146E0,6.5790567E0,3.013545E0,3.399313E0,3.1621478E0],"tree_param":{"num_deleted":"0","num_feature":"144","num_nodes":"25","size_leaf_vector":"1"}},{"base_weights":[5.2516013E-2,-1.6427748E-1,2.0706046E-1,2.7393628E-2,-3.5071343E-1,4.918553E-1,-6.4635135E-2,-2.80039E-2,-7.365224E-2,6.6532195E-2,8.429133E-1,-3.5470143E-1,7.018673E-2,5.1349282E-2,-5.5176616E-2,6.304349E-2,-6.059627E-2,1.0219319E-1,4.387526E-2,-6.9752514E-2,8.0465426E-4],"categories":[],"categories_nodes":[],"categories_segments":[],"categories_sizes":[],"default_left":[0,0,0,0,0,0,0,0,0,0,0,0,0,0,0,0,0,0,0,0,0],"id":39,"left_children":[1,3,5,-1,7,9,11,13,-1,15,17,19,-1,-1,-1,-1,-1,-1,-1,-1,-1],"loss_changes":[1.7132668E0,1.8458102E0,2.3301854E0,0E0,1.9046167E0,2.1266341E0,3.8252974E0,2.9662535E0,0E0,3.300404E0,1.24846935E-1,1.5393989E0,0E0,0E0,0E0,0E0,0E0,0E0,0E0,0E0,0E0],"parents":[2147483647,0,0,1,1,2,2,4,4,5,5,6,6,7,7,9,9,10,10,11,11],"right_children":[2,4,6,-1,8,10,12,14,-1,16,18,20,-1,-1,-1,-1,-1,-1,-1,-1,-1],"split_conditions":[-2.1589288E-1,-2.4017039E-1,4.8814535E-1,2.7393628E-2,-3.0433644E-2,6.157652E-2,1.0617948E0,2.5119916E-1,-7.365224E-2,-1.5920226E-1,-8.034727E-2,-3.9530635E-1,7.018673E-2,5.1349282E-2,-5.5176616E-2,6.304349E-2,-6.059627E-2,1.0219319E-1,4.387526E-2,-6.9752514E-2,8.0465426E-4],"split_indices":[85,116,72,0,31,72,71,101,0,104,76,29,0,0,0,0,0,0,0,0,0],"split_type":[0,0,0,0,0,0,0,0,0,0,0,0,0,0,0,0,0,0,0,0,0],"sum_hessian":[4.912058E1,2.0416925E1,2.8703651E1,5.953655E0,1.4463271E1,1.3618376E1,1.5085275E1,8.459726E0,6.0035453E0,6.69572E0,6.922656E0,1.1333574E1,3.7517002E0,4.1690845E0,4.290642E0,3.675919E0,3.019801E0,3.7382917E0,3.1843646E0,5.352332E0,5.981242E0],"tree_param":{"num_deleted":"0","num_feature":"144","num_nodes":"21","size_leaf_vector":"1"}},{"base_weights":[3.4901958E-2,-3.5428232E-1,1.4498556E-1,3.1353515E-2,-6.292461E-1,-2.8105852E-1,2.6428473E-1,-1.0328028E-1,7.0320456E-3,2.8336992E-2,-7.1218364E-2,3.9653353E-2,6.650225E-1,3.7197703E-1,-4.9435598E-1,9.7096376E-2,5.9987296E-4,8.861629E-2,8.599052E-3,8.174353E-3,-8.581859E-2],"categories":[],"categories_nodes":[],"categories_segments":[],"categories_sizes":[],"default_left":[0,0,0,0,0,0,0,0,0,0,0,0,0,0,0,0,0,0,0,0,0],"id":40,"left_children":[1,3,5,-1,7,9,11,-1,-1,-1,-1,13,15,17,19,-1,-1,-1,-1,-1,-1],"loss_changes":[2.2235682E0,2.3034053E0,2.1191432E0,0E0,2.460176E0,2.4614058E0,2.8493793E0,0E0,0E0,0E0,0E0,4.0055137E0,2.2950191E0,1.9596542E0,1.8915989E0,0E0,0E0,0E0,0E0,0E0,0E0],"parents":[2147483647,0,0,1,1,2,2,4,4,5,5,6,6,11,11,12,12,13,13,14,14],"right_children":[2,4,6,-1,8,10,12,-1,-1,-1,-1,14,16,18,20,-1,-1,-1,-1,-1,-1],"split_conditions":[-9.506687E-1,-1.3699925E0,-1.044915E0,3.1353515E-2,-3.205631E-1,-1.4276077E0,9.507818E-2,-1.0328028E-1,7.0320456E-3,2.8336992E-2,-7.1218364E-2,4.794585E-1,1.5182109E-1,5.216777E-2,-3.1188858E-1,9.7096376E-2,5.9987296E-4,8.861629E-2,8.599052E-3,8.174353E-3,-8.581859E-2],"split_indices":[64,79,111,0,41,105,31,0,0,0,0,44,123,125,66,0,0,0,0,0,0],"split_type":[0,0,0,0,0,0,0,0,0,0,0,0,0,0,0,0,0,0,0,0,0],"sum_hessian":[4.9701683E1,1.0469613E1,3.923207E1,3.0125685E0,7.4570446E0,8.28578E0,3.0946291E1,4.426942E0,3.0301025E0,3.736577E0,4.549203E0,2.0534653E1,1.0411638E1,1.2844631E1,7.6900215E0,6.787372E0,3.624266E0,3.8406916E0,9.003941E0,3.2767844E0,4.413237E0],"tree_param":{"num_deleted":"0","num_feature":"144","num_nodes":"21","size_leaf_vector":"1"}},{"base_weights":[4.565185E-2,1.745181E-1,-2.1648936E-1,-7.379468E-2,6.570236E-1,-6.673597E-2,7.9455666E-2,3.0552956E-1,-3.484265E-1,1.871699E-2,9.3288265E-2,5.5941503E-2,-3.628074E-2,-2.4629055E-2,6.445606E-2,-5.3124815E-1,7.654895E-3,-1.5649451E-2,-8.2679115E-2],"categories":[],"categories_nodes":[],"categories_segments":[],"categories_sizes":[],"default_left":[0,0,0,0,0,0,0,0,0,0,0,0,0,0,0,0,0,0,0],"id":41,"left_children":[1,3,5,7,9,-1,11,13,15,-1,-1,-1,-1,-1,-1,17,-1,-1,-1],"loss_changes":[1.8073137E0,4.322433E0,2.4161477E0,2.6535888E0,1.4094486E0,0E0,2.6622326E0,2.1794367E0,1.1788698E0,0E0,0E0,0E0,0E0,0E0,0E0,1.0190494E0,0E0,0E0,0E0],"parents":[2147483647,0,0,1,1,2,2,3,3,4,4,6,6,7,7,8,8,15,15],"right_children":[2,4,6,8,10,-1,12,14,16,-1,-1,-1,-1,-1,-1,18,-1,-1,-1],"split_conditions":[5.3809613E-1,2.1313244E-2,4.6543986E-1,-2.2142097E-1,-3.780123E-1,-6.673597E-2,5.509883E-1,-3.2794273E-1,9.74757E-1,1.871699E-2,9.3288265E-2,5.5941503E-2,-3.628074E-2,-2.4629055E-2,6.445606E-2,-8.579938E-2,7.654895E-3,-1.5649451E-2,-8.2679115E-2],"split_indices":[84,95,64,30,63,0,136,135,126,0,0,0,0,0,0,112,0,0,0],"split_type":[0,0,0,0,0,0,0,0,0,0,0,0,0,0,0,0,0,0,0],"sum_hessian":[5.138224E1,3.467204E1,1.6710201E1,2.3450647E1,1.1221393E1,6.1245213E0,1.058568E1,9.800959E0,1.3649689E1,4.772013E0,6.4493794E0,4.94946E0,5.6362195E0,3.8340516E0,5.966907E0,9.369097E0,4.280592E0,4.8053474E0,4.5637493E0],"tree_param":{"num_deleted":"0","num_feature":"144","num_nodes":"19","size_leaf_vector":"1"}},{"base_weights":[-1.5851911E-2,-2.465757E-1,1.8938619E-1,3.8534444E-2,-4.3262556E-1,3.4711915E-1,-1.8883684E-1,-6.588156E-1,2.2527482E-2,6.36708E-1,-1.4277858E-1,4.173902E-2,-5.635636E-2,-8.7903005E-1,1.331788E-2,8.172946E-1,1.0434393E-2,-5.637572E-2,4.7196347E-2,-1.0703802E-1,-2.4158532E-2,9.871637E-2,4.014137E-2],"categories":[],"categories_nodes":[],"categories_segments":[],"categories_sizes":[],"default_left":[0,0,0,0,0,0,0,0,0,0,0,0,0,0,0,0,0,0,0,0,0,0,0],"id":42,"left_children":[1,3,5,-1,7,9,11,13,-1,15,17,-1,-1,19,-1,21,-1,-1,-1,-1,-1,-1,-1],"loss_changes":[2.5944529E0,3.1956704E0,1.79801E0,0E0,3.180352E0,3.0482564E0,2.323851E0,2.805853E0,0E0,1.191853E0,2.481664E0,0E0,0E0,1.228795E0,0E0,2.94168E-1,0E0,0E0,0E0,0E0,0E0,0E0,0E0],"parents":[2147483647,0,0,1,1,2,2,4,4,5,5,6,6,7,7,9,9,10,10,13,13,15,15],"right_children":[2,4,6,-1,8,10,12,14,-1,16,18,-1,-1,20,-1,22,-1,-1,-1,-1,-1,-1,-1],"split_conditions":[-2.7203768E-1,-2.2197756E-1,7.0447993E-1,3.8534444E-2,7.6241887E-1,1.0420015E0,-3.3086264E-1,6.0651386E-1,2.2527482E-2,4.54668E-1,1.8057802E0,4.173902E-2,-5.635636E-2,-1.09552264E-1,1.331788E-2,-2.2282118E-1,1.0434393E-2,-5.637572E-2,4.7196347E-2,-1.0703802E-1,-2.4158532E-2,9.871637E-2,4.014137E-2],"split_indices":[138,5,3,0,9,112,103,113,0,80,112,0,0,103,0,8,0,0,0,0,0,0,0],"split_type":[0,0,0,0,0,0,0,0,0,0,0,0,0,0,0,0,0,0,0,0,0,0,0],"sum_hessian":[5.28031E1,2.4763334E1,2.8039764E1,5.3888535E0,1.9374481E1,1.9845638E1,8.194127E0,1.4416583E1,4.9578986E0,1.2284397E1,7.561241E0,3.0866845E0,5.107442E0,1.119415E1,3.2224329E0,8.773175E0,3.5112221E0,4.5371284E0,3.0241125E0,8.087305E0,3.1068451E0,5.2536287E0,3.5195463E0],"tree_param":{"num_deleted":"0","num_feature":"144","num_nodes":"23","size_leaf_vector":"1"}},{"base_weights":[-5.6617156E-2,2.1666794E-1,-2.0633417E-1,7.057384E-1,-4.350397E-1,-4.1168728E-1,2.6416713E-1,-9.637297E-3,1.0467326E-1,-7.554858E-2,8.87502E-3,-6.281328E-1,1.4321405E-1,-1.8546855E-2,6.236125E-2,-1.06908225E-1,-2.1662085E-1,-2.6502568E-2,5.226466E-2,3.318094E-2,-5.351007E-2],"categories":[],"categories_nodes":[],"categories_segments":[],"categories_sizes":[],"default_left":[0,0,0,0,0,0,0,0,0,0,0,0,0,0,0,0,0,0,0,0,0],"id":43,"left_children":[1,3,5,7,9,11,13,-1,-1,-1,-1,15,17,-1,-1,-1,19,-1,-1,-1,-1],"loss_changes":[2.030248E0,5.9370017E0,3.1874409E0,2.9652247E0,1.4419434E0,2.8011546E0,1.7788594E0,0E0,0E0,0E0,0E0,2.7487922E0,1.2458274E0,0E0,0E0,0E0,1.8805437E0,0E0,0E0,0E0,0E0],"parents":[2147483647,0,0,1,1,2,2,3,3,4,4,5,5,6,6,11,11,12,12,16,16],"right_children":[2,4,6,8,10,12,14,-1,-1,-1,-1,16,18,-1,-1,-1,20,-1,-1,-1,-1],"split_conditions":[-2.5719154E-1,-4.3984044E-2,5.927938E-1,-4.1819593E-1,6.3747145E-2,4.629085E-1,7.878333E-1,-9.637297E-3,1.0467326E-1,-7.554858E-2,8.87502E-3,1.50439665E-2,-1.905961E-1,-1.8546855E-2,6.236125E-2,-1.06908225E-1,2.6898488E-1,-2.6502568E-2,5.226466E-2,3.318094E-2,-5.351007E-2],"split_indices":[113,103,77,138,50,20,113,0,0,0,0,43,15,0,0,0,46,0,0,0,0],"split_type":[0,0,0,0,0,0,0,0,0,0,0,0,0,0,0,0,0,0,0,0,0],"sum_hessian":[4.752795E1,1.6663729E1,3.0864222E1,9.472349E0,7.1913795E0,2.157339E1,9.2908325E0,3.0396469E0,6.4327025E0,4.187308E0,3.0040717E0,1.54248E1,6.148589E0,4.3426104E0,4.948222E0,6.6746945E0,8.750106E0,3.1071067E0,3.0414824E0,3.1991816E0,5.5509243E0],"tree_param":{"num_deleted":"0","num_feature":"144","num_nodes":"21","size_leaf_vector":"1"}},{"base_weights":[6.83283E-2,1.5381348E-1,-3.8933375E-1,-2.3554975E-1,2.7147993E-1,1.7722419E-2,-8.3205365E-2,7.1381503E-3,-6.492356E-2,5.657705E-1,3.5464212E-2,2.0651082E-3,7.5466335E-1,-4.904134E-1,3.6172402E-1,2.8961886E-2,1.0093438E-1,-6.5653943E-3,-7.782996E-2,5.66107E-2,-1.5580805E-2],"categories":[],"categories_nodes":[],"categories_segments":[],"categories_sizes":[],"default_left":[0,0,0,0,0,0,0,0,0,0,0,0,0,0,0,0,0,0,0,0,0],"id":44,"left_children":[1,3,5,7,9,-1,-1,-1,-1,11,13,-1,15,17,19,-1,-1,-1,-1,-1,-1],"loss_changes":[1.8823317E0,1.8950543E0,2.057424E0,1.292036E0,2.1439958E0,0E0,0E0,0E0,0E0,1.4053497E0,3.3269787E0,0E0,9.181371E-1,8.602637E-1,1.3473685E0,0E0,0E0,0E0,0E0,0E0,0E0],"parents":[2147483647,0,0,1,1,2,2,3,3,4,4,9,9,10,10,12,12,13,13,14,14],"right_children":[2,4,6,8,10,-1,-1,-1,-1,12,14,-1,16,18,20,-1,-1,-1,-1,-1,-1],"split_conditions":[9.035087E-1,-8.159747E-1,6.551025E-1,5.8371678E-2,4.688991E-1,1.7722419E-2,-8.3205365E-2,7.1381503E-3,-6.492356E-2,-6.6131496E-1,4.7561812E-1,2.0651082E-3,-3.384501E-1,-8.900487E-2,3.6032352E-1,2.8961886E-2,1.0093438E-1,-6.5653943E-3,-7.782996E-2,5.66107E-2,-1.5580805E-2],"split_indices":[59,104,8,31,33,0,0,0,0,123,140,0,103,105,78,0,0,0,0,0,0],"split_type":[0,0,0,0,0,0,0,0,0,0,0,0,0,0,0,0,0,0,0,0,0],"sum_hessian":[4.5582108E1,3.8967426E1,6.614682E0,8.8106785E0,3.0156746E1,3.1645865E0,3.4500957E0,5.5329766E0,3.277702E0,1.2799606E1,1.735714E1,3.579366E0,9.220241E0,6.4529305E0,1.0904209E1,4.0189157E0,5.201325E0,3.1028738E0,3.3500564E0,7.749808E0,3.154401E0],"tree_param":{"num_deleted":"0","num_feature":"144","num_nodes":"21","size_leaf_vector":"1"}},{"base_weights":[2.4558345E-3,1.2843342E-1,-4.2888314E-1,-1.9497864E-1,2.886851E-1,-7.843125E-2,-1.3542378E-1,-4.0621558E-1,2.8413907E-2,4.4391304E-1,-1.9604674E-1,2.7748127E-2,-5.210614E-2,1.2239964E-2,-6.854378E-2,-1.0151357E-2,6.036027E-1,-4.127198E-2,6.955067E-3,7.460519E-2,3.5863228E-3],"categories":[],"categories_nodes":[],"categories_segments":[],"categories_sizes":[],"default_left":[0,0,0,0,0,0,0,0,0,0,0,0,0,0,0,0,0,0,0,0,0],"id":45,"left_children":[1,3,5,7,9,-1,11,13,-1,15,17,-1,-1,-1,-1,-1,19,-1,-1,-1,-1],"loss_changes":[2.6926427E0,2.0431712E0,1.0622351E0,1.4613671E0,2.0462072E0,0E0,1.3141088E0,1.5069541E0,0E0,1.8057256E0,4.320768E-1,0E0,0E0,0E0,0E0,0E0,1.2378268E0,0E0,0E0,0E0,0E0],"parents":[2147483647,0,0,1,1,2,2,3,3,4,4,6,6,7,7,9,9,10,10,16,16],"right_children":[2,4,6,8,10,-1,12,14,-1,16,18,-1,-1,-1,-1,-1,20,-1,-1,-1,-1],"split_conditions":[8.672833E-1,-6.1317503E-1,-2.7274927E-1,3.6333957E-1,5.453136E-1,-7.843125E-2,3.8906705E-1,9.605168E-2,2.8413907E-2,-5.503665E-1,-2.4097756E-1,2.7748127E-2,-5.210614E-2,1.2239964E-2,-6.854378E-2,-1.0151357E-2,7.5454485E-1,-4.127198E-2,6.955067E-3,7.460519E-2,3.5863228E-3],"split_indices":[135,102,123,113,66,0,16,6,0,66,50,0,0,0,0,0,114,0,0,0,0],"split_type":[0,0,0,0,0,0,0,0,0,0,0,0,0,0,0,0,0,0,0,0,0],"sum_hessian":[4.7538944E1,3.7336597E1,1.0202344E1,1.2298888E1,2.503771E1,3.85755E0,6.3447943E0,8.641235E0,3.6576524E0,1.9028376E1,6.0093355E0,3.199513E0,3.1452816E0,3.1808965E0,5.460339E0,4.3919153E0,1.4636459E1,3.004417E0,3.0049188E0,1.1449612E1,3.1868477E0],"tree_param":{"num_deleted":"0","num_feature":"144","num_nodes":"21","size_leaf_vector":"1"}},{"base_weights":[5.6160722E-2,-7.125093E-2,4.3696573E-1,1.9788872E-1,-2.3712383E-1,6.13448E-1,-2.5199023E-3,4.4210815E-1,-4.741781E-2,-5.997704E-1,3.386878E-3,9.382285E-2,2.6169503E-2,-8.2022045E-3,6.850108E-1,-2.3521999E-2,-1.0385045E-1,-5.520044E-2,3.8957515E-1,1.0099347E-1,1.2790838E-2,7.2719544E-2,-1.5257755E-2],"categories":[],"categories_nodes":[],"categories_segments":[],"categories_sizes":[],"default_left":[0,0,0,0,0,0,0,0,0,0,0,0,0,0,0,0,0,0,0,0,0,0,0],"id":46,"left_children":[1,3,5,7,9,11,-1,13,-1,15,17,-1,-1,-1,19,-1,-1,-1,21,-1,-1,-1,-1],"loss_changes":[2.4869704E0,1.7784545E0,1.0619068E0,2.7265165E0,2.1347163E0,8.196552E-1,0E0,1.554002E0,0E0,1.3160713E0,3.5815892E0,0E0,0E0,0E0,1.3453989E0,0E0,0E0,0E0,1.912905E0,0E0,0E0,0E0,0E0],"parents":[2147483647,0,0,1,1,2,2,3,3,4,4,5,5,7,7,9,9,10,10,14,14,18,18],"right_children":[2,4,6,8,10,12,-1,14,-1,16,18,-1,-1,-1,20,-1,-1,-1,22,-1,-1,-1,-1],"split_conditions":[4.9538743E-1,-4.203433E-1,7.843713E-1,4.6179268E-1,1.7905305E-1,-1.6072054E-1,-2.5199023E-3,-3.621636E-1,-4.741781E-2,4.52887E-1,-2.360044E-1,9.382285E-2,2.6169503E-2,-8.2022045E-3,9.170367E-1,-2.3521999E-2,-1.0385045E-1,-5.520044E-2,5.830672E-1,1.0099347E-1,1.2790838E-2,7.2719544E-2,-1.5257755E-2],"split_indices":[87,14,8,122,109,113,0,78,0,1,79,0,0,0,119,0,0,0,86,0,0,0,0],"split_type":[0,0,0,0,0,0,0,0,0,0,0,0,0,0,0,0,0,0,0,0,0,0,0],"sum_hessian":[4.9615974E1,3.778618E1,1.1829796E1,1.4334499E1,2.345168E1,8.323895E0,3.5059004E0,1.0764867E1,3.5696318E0,8.755793E0,1.4695888E1,3.4609962E0,4.8628993E0,3.618744E0,7.1461234E0,5.621194E0,3.1345983E0,5.851405E0,8.844482E0,4.00021E0,3.1459136E0,5.240008E0,3.6044745E0],"tree_param":{"num_deleted":"0","num_feature":"144","num_nodes":"23","size_leaf_vector":"1"}},{"base_weights":[-4.4299517E-2,-1.2732303E-1,5.3038128E-2,-4.3066403E-1,-1.3131038E-3,2.469004E-2,-6.9141716E-1,5.2186202E-2,-1.0659838E-1,-9.781272E-2,-1.8042898E-2,-4.7880667E-1,5.3617932E-2,-7.4604526E-2,-6.627089E-3,4.620361E-2,-2.3773698E-2],"categories":[],"categories_nodes":[],"categories_segments":[],"categories_sizes":[],"default_left":[0,0,0,0,0,0,0,0,0,0,0,0,0,0,0,0,0],"id":47,"left_children":[1,3,-1,5,7,-1,9,-1,11,-1,-1,13,15,-1,-1,-1,-1],"loss_changes":[2.3680491E0,1.640645E0,0E0,2.396559E0,1.7818245E0,0E0,1.1948824E0,0E0,1.6309315E0,0E0,0E0,8.5468245E-1,2.4561303E0,0E0,0E0,0E0,0E0],"parents":[2147483647,0,0,1,1,3,3,4,4,6,6,8,8,11,11,12,12],"right_children":[2,4,-1,6,8,-1,10,-1,12,-1,-1,14,16,-1,-1,-1,-1],"split_conditions":[8.507324E-1,-6.0463536E-1,5.3038128E-2,-2.6780462E-1,-4.6259072E-1,2.469004E-2,6.743681E-2,5.2186202E-2,-4.3584773E-1,-9.781272E-2,-1.8042898E-2,7.007711E-1,4.2106267E-3,-7.4604526E-2,-6.627089E-3,4.620361E-2,-2.3773698E-2],"split_indices":[5,76,0,128,76,0,70,0,40,0,0,64,40,0,0,0,0],"split_type":[0,0,0,0,0,0,0,0,0,0,0,0,0,0,0,0,0],"sum_hessian":[4.721677E1,4.1936672E1,5.2801003E0,1.1598397E1,3.0338274E1,3.237892E0,8.360505E0,4.4196844E0,2.5918589E1,4.7699494E0,3.590556E0,7.201001E0,1.8717588E1,3.8794656E0,3.3215356E0,7.549276E0,1.1168312E1],"tree_param":{"num_deleted":"0","num_feature":"144","num_nodes":"17","size_leaf_vector":"1"}},{"base_weights":[-2.8748661E-2,6.814846E-2,-9.413756E-2,1.3084064E-1,-2.5039428E-1,6.240595E-1,-2.1653011E-1,-7.324101E-1,-3.963749E-2,9.984805E-3,1.0030153E-1,6.8155214E-2,-7.434869E-2,-9.5314875E-2,-2.9701352E-2,-3.4838384E-1,3.1902075E-1,-4.873964E-2,4.7336206E-2,2.838088E-3,-7.3993795E-2,6.3384764E-2,-9.377164E-3],"categories":[],"categories_nodes":[],"categories_segments":[],"categories_sizes":[],"default_left":[0,0,0,0,0,0,0,0,0,0,0,0,0,0,0,0,0,0,0,0,0,0,0],"id":48,"left_children":[1,-1,3,5,7,9,11,13,15,-1,-1,17,-1,-1,-1,19,21,-1,-1,-1,-1,-1,-1],"loss_changes":[2.2964342E0,0E0,1.6109468E0,3.4001763E0,2.6971793E0,1.5154707E0,1.8395072E0,4.9604368E-1,2.2958272E0,0E0,0E0,2.1797016E0,0E0,0E0,0E0,1.6555998E0,1.3133779E0,0E0,0E0,0E0,0E0,0E0,0E0],"parents":[2147483647,0,0,2,2,3,3,4,4,5,5,6,6,7,7,8,8,11,11,15,15,16,16],"right_children":[2,-1,4,6,8,10,12,14,16,-1,-1,18,-1,-1,-1,20,22,-1,-1,-1,-1,-1,-1],"split_conditions":[-9.2470735E-1,6.814846E-2,-1.364059E-1,-4.433624E-1,-1.9438113E-1,-2.9088834E-1,3.7616003E-1,1.7574374E-2,3.4528726E-1,9.984805E-3,1.0030153E-1,-5.861441E-1,-7.434869E-2,-9.5314875E-2,-2.9701352E-2,4.52887E-1,9.100035E-1,-4.873964E-2,4.7336206E-2,2.838088E-3,-7.3993795E-2,6.3384764E-2,-9.377164E-3],"split_indices":[103,0,5,56,77,49,67,44,14,0,0,10,0,0,0,1,23,0,0,0,0,0,0],"split_type":[0,0,0,0,0,0,0,0,0,0,0,0,0,0,0,0,0,0,0,0,0,0,0],"sum_hessian":[4.7066654E1,3.1736338E0,4.3893017E1,1.8057096E1,2.5835922E1,7.132872E0,1.0924224E1,7.106868E0,1.8729055E1,3.5229878E0,3.6098843E0,7.657803E0,3.2664208E0,3.9268637E0,3.1800041E0,1.0080249E1,8.648807E0,3.1441877E0,4.5136156E0,5.609827E0,4.470422E0,4.602828E0,4.045978E0],"tree_param":{"num_deleted":"0","num_feature":"144","num_nodes":"23","size_leaf_vector":"1"}},{"base_weights":[-1.1645814E-1,4.293176E-2,-3.4197664E-1,-2.9812163E-1,2.4439496E-1,-5.356601E-1,3.132167E-2,1.1411106E-3,-6.3633956E-2,4.3762162E-1,-3.0447831E-2,-4.9579195E-3,-7.356653E-1,-2.2858683E-2,6.3749E-1,-9.471752E-2,-1.3811E-2,9.012884E-3,8.3425455E-2],"categories":[],"categories_nodes":[],"categories_segments":[],"categories_sizes":[],"default_left":[0,0,0,0,0,0,0,0,0,0,0,0,0,0,0,0,0,0,0],"id":49,"left_children":[1,3,5,7,9,11,-1,-1,-1,13,-1,-1,15,-1,17,-1,-1,-1,-1],"loss_changes":[1.7700006E0,2.0997806E0,2.7480602E0,1.2012671E0,2.158358E0,1.5251355E0,0E0,0E0,0E0,2.0808556E0,0E0,0E0,1.2983913E0,0E0,1.1572495E0,0E0,0E0,0E0,0E0],"parents":[2147483647,0,0,1,1,2,2,3,3,4,4,5,5,9,9,12,12,14,14],"right_children":[2,4,6,8,10,12,-1,-1,-1,14,-1,-1,16,-1,18,-1,-1,-1,-1],"split_conditions":[1.8769081E-1,-4.036489E-1,4.059742E-1,2.6694232E-1,3.9394423E-1,-2.1568643E-1,3.132167E-2,1.1411106E-3,-6.3633956E-2,-9.963489E-1,-3.0447831E-2,-4.9579195E-3,1.0895394E0,-2.2858683E-2,-8.3279496E-1,-9.471752E-2,-1.3811E-2,9.012884E-3,8.3425455E-2],"split_indices":[6,5,139,138,42,119,0,0,0,74,0,0,81,0,116,0,0,0,0],"split_type":[0,0,0,0,0,0,0,0,0,0,0,0,0,0,0,0,0,0,0],"sum_hessian":[4.783296E1,2.8499777E1,1.933318E1,1.0405208E1,1.809457E1,1.5062851E1,4.270329E0,5.9375234E0,4.4676847E0,1.3533052E1,4.5615172E0,4.7548456E0,1.0308005E1,3.0899224E0,1.04431305E1,7.1811075E0,3.1268976E0,3.146957E0,7.296173E0],"tree_param":{"num_deleted":"0","num_feature":"144","num_nodes":"19","size_leaf_vector":"1"}},{"base_weights":[-9.85033E-3,8.681131E-2,-4.2058977E-1,-2.4427395E-1,2.656786E-1,-6.533521E-2,7.55869E-4,-4.7146085E-1,4.0704288E-2,-2.5009332E-2,4.9653333E-1,7.798679E-4,-7.586708E-2,5.8879323E-2,-4.0396425E-1,-6.271872E-3,7.6274085E-1,-6.8872735E-2,4.4035385E-3,2.852307E-2,9.611743E-2],"categories":[],"categories_nodes":[],"categories_segments":[],"categories_sizes":[],"default_left":[0,0,0,0,0,0,0,0,0,0,0,0,0,0,0,0,0,0,0,0,0],"id":50,"left_children":[1,3,5,7,9,-1,-1,11,-1,13,15,-1,-1,-1,17,-1,19,-1,-1,-1,-1],"loss_changes":[1.8744457E0,2.3331797E0,9.0084755E-1,2.2569337E0,1.7133543E0,0E0,0E0,1.4938893E0,0E0,3.0689814E0,2.1582096E0,0E0,0E0,0E0,1.066034E0,0E0,6.430402E-1,0E0,0E0,0E0,0E0],"parents":[2147483647,0,0,1,1,2,2,3,3,4,4,7,7,9,9,10,10,14,14,16,16],"right_children":[2,4,6,8,10,-1,-1,12,-1,14,16,-1,-1,-1,18,-1,20,-1,-1,-1,-1],"split_conditions":[4.1690594E-1,-7.565364E-1,4.2958406E-1,1.1402901E0,-2.6829922E-1,-6.533521E-2,7.55869E-4,-2.2034201E-1,4.0704288E-2,-2.5719154E-1,-6.382731E-1,7.798679E-4,-7.586708E-2,5.8879323E-2,-6.1099565E-1,-6.271872E-3,-3.2856923E-1,-6.8872735E-2,4.4035385E-3,2.852307E-2,9.611743E-2],"split_indices":[15,126,113,143,15,0,0,6,0,113,129,0,0,0,52,0,138,0,0,0,0],"split_type":[0,0,0,0,0,0,0,0,0,0,0,0,0,0,0,0,0,0,0,0,0],"sum_hessian":[4.5292355E1,3.7302414E1,7.989941E0,1.2955667E1,2.4346746E1,4.8352633E0,3.1546779E0,9.809975E0,3.1456916E0,1.1171487E1,1.317526E1,4.040518E0,5.769457E0,4.0530057E0,7.118481E0,4.495486E0,8.679774E0,4.023607E0,3.0948744E0,3.2636178E0,5.4161563E0],"tree_param":{"num_deleted":"0","num_feature":"144","num_nodes":"21","size_leaf_vector":"1"}},{"base_weights":[-4.343945E-2,1.5896386E-1,-2.2082637E-1,-4.505949E-2,2.912768E-1,-4.556562E-1,1.02988556E-1,9.8143004E-2,1.01264425E-1,1.0828989E-3,-7.908387E-1,5.5510737E-2,-1.8055826E-1,-1.3731098E-1,7.309474E-2,-4.7150064E-2,4.4734146E-2,-9.7627535E-2,-3.7026547E-2,-5.368811E-2,2.5208134E-2,1.9054962E-2,-4.5569174E-2],"categories":[],"categories_nodes":[],"categories_segments":[],"categories_sizes":[],"default_left":[0,0,0,0,0,0,0,0,0,0,0,0,0,0,0,0,0,0,0,0,0,0,0],"id":51,"left_children":[1,3,5,-1,7,9,11,-1,13,15,17,-1,19,21,-1,-1,-1,-1,-1,-1,-1,-1,-1],"loss_changes":[1.732674E0,1.9592266E0,1.9948304E0,0E0,2.422388E0,2.3022282E0,1.5852151E0,0E0,2.533081E0,1.7633705E0,3.1480265E-1,0E0,1.3491166E0,1.4006009E0,0E0,0E0,0E0,0E0,0E0,0E0,0E0,0E0,0E0],"parents":[2147483647,0,0,1,1,2,2,4,4,5,5,6,6,8,8,9,9,10,10,12,12,13,13],"right_children":[2,4,6,-1,8,10,12,-1,14,16,18,-1,20,22,-1,-1,-1,-1,-1,-1,-1,-1,-1],"split_conditions":[-4.1754004E-2,-1.2043687E0,3.4528726E-1,-4.505949E-2,-6.7061794E-1,-1.4102599E-1,-4.9393675E-1,9.8143004E-2,6.372978E-2,-4.5725837E-1,5.8418155E-1,5.5510737E-2,-2.8529656E-1,-3.053633E-1,7.309474E-2,-4.7150064E-2,4.4734146E-2,-9.7627535E-2,-3.7026547E-2,-5.368811E-2,2.5208134E-2,1.9054962E-2,-4.5569174E-2],"split_indices":[80,114,14,0,114,5,66,0,58,6,64,0,76,30,0,0,0,0,0,0,0,0,0],"split_type":[0,0,0,0,0,0,0,0,0,0,0,0,0,0,0,0,0,0,0,0,0,0,0],"sum_hessian":[4.6281216E1,2.1664867E1,2.4616346E1,3.4349074E0,1.822996E1,1.4032709E1,1.0583638E1,3.036361E0,1.51936E1,6.3612585E0,7.6714506E0,3.7101045E0,6.8735332E0,1.1585863E1,3.607736E0,3.0620322E0,3.2992263E0,4.4070315E0,3.2644188E0,3.637082E0,3.2364511E0,5.905761E0,5.6801023E0],"tree_param":{"num_deleted":"0","num_feature":"144","num_nodes":"23","size_leaf_vector":"1"}},{"base_weights":[5.554513E-2,-1.5576273E-1,2.4277042E-1,-4.7163144E-1,1.0488491E-1,4.949912E-1,-7.1365245E-2,-8.731892E-2,1.7859092E-3,4.693872E-1,-4.187877E-2,-2.2218807E-2,7.67238E-1,4.5016725E-2,-4.2224813E-1,-2.4882997E-3,7.829276E-2,4.0536985E-2,9.4259165E-2,-8.281842E-2,3.397955E-3],"categories":[],"categories_nodes":[],"categories_segments":[],"categories_sizes":[],"default_left":[0,0,0,0,0,0,0,0,0,0,0,0,0,0,0,0,0,0,0,0,0],"id":52,"left_children":[1,3,5,7,9,11,13,-1,-1,15,-1,-1,17,-1,19,-1,-1,-1,-1,-1,-1],"loss_changes":[1.8436468E0,1.8650784E0,1.9838415E0,2.0110877E0,2.6590364E0,2.8583972E0,2.3542173E0,0E0,0E0,1.2713231E0,0E0,0E0,2.6534414E-1,0E0,1.4330013E0,0E0,0E0,0E0,0E0,0E0,0E0],"parents":[2147483647,0,0,1,1,2,2,3,3,4,4,5,5,6,6,9,9,12,12,14,14],"right_children":[2,4,6,8,10,12,14,-1,-1,16,-1,-1,18,-1,20,-1,-1,-1,-1,-1,-1],"split_conditions":[-2.7203768E-1,-1.0597768E-1,-1.3471876E-1,-3.2794273E-1,2.5083777E-1,-7.6069266E-1,-4.816079E-1,-8.731892E-2,1.7859092E-3,1.904784E-2,-4.187877E-2,-2.2218807E-2,-3.3680138E-1,4.5016725E-2,-2.3190773E-1,-2.4882997E-3,7.829276E-2,4.0536985E-2,9.4259165E-2,-8.281842E-2,3.397955E-3],"split_indices":[138,55,67,135,131,126,51,0,0,23,0,0,15,0,12,0,0,0,0,0,0],"split_type":[0,0,0,0,0,0,0,0,0,0,0,0,0,0,0,0,0,0,0,0,0],"sum_hessian":[4.464542E1,2.1052738E1,2.3592682E1,9.152148E0,1.190059E1,1.2766601E1,1.082608E1,4.5970473E0,4.5551004E0,7.077771E0,4.822819E0,3.5634038E0,9.203197E0,4.2404137E0,6.585667E0,3.1044707E0,3.9733002E0,4.0849743E0,5.1182227E0,3.0534883E0,3.5321786E0],"tree_param":{"num_deleted":"0","num_feature":"144","num_nodes":"21","size_leaf_vector":"1"}},{"base_weights":[-1.122905E-2,6.868143E-2,-4.784316E-2,-1.3903299E-1,3.368648E-1,2.7232146E-1,-3.4145048E-1,7.4808854E-1,-3.8523797E-2,-2.1851363E-2,7.22462E-2,-7.092854E-2,-7.0438266E-2,9.94777E-2,2.8494028E-2,-3.2463267E-1,4.7583755E-2,-4.458093E-2,3.8735744E-2,-6.575832E-2,1.0182099E-2],"categories":[],"categories_nodes":[],"categories_segments":[],"categories_sizes":[],"default_left":[0,0,0,0,0,0,0,0,0,0,0,0,0,0,0,0,0,0,0,0,0],"id":53,"left_children":[1,3,-1,5,7,9,11,13,15,-1,-1,-1,17,-1,-1,19,-1,-1,-1,-1,-1],"loss_changes":[1.748443E0,2.2814443E0,0E0,2.0342093E0,2.7767258E0,1.9795594E0,1.5518925E0,6.927252E-1,1.6639217E0,0E0,0E0,0E0,1.9533765E0,0E0,0E0,1.0871829E0,0E0,0E0,0E0,0E0,0E0],"parents":[2147483647,0,0,1,1,3,3,4,4,5,5,6,6,7,7,8,8,12,12,15,15],"right_children":[2,4,-1,6,8,10,12,14,16,-1,-1,-1,18,-1,-1,20,-1,-1,-1,-1,-1],"split_conditions":[1.0603727E0,2.1313244E-2,-4.784316E-2,-1.1172049E0,4.584021E-1,-9.517489E-1,-6.0463536E-1,7.222471E-2,4.2434257E-1,-2.1851363E-2,7.22462E-2,-7.092854E-2,-2.8949824E-1,9.94777E-2,2.8494028E-2,6.189866E-1,4.7583755E-2,-4.458093E-2,3.8735744E-2,-6.575832E-2,1.0182099E-2],"split_indices":[84,95,0,95,95,64,76,71,47,0,0,0,23,0,0,84,0,0,0,0,0],"split_type":[0,0,0,0,0,0,0,0,0,0,0,0,0,0,0,0,0,0,0,0,0],"sum_hessian":[4.4951843E1,3.9114655E1,5.837189E0,2.231372E1,1.6800934E1,7.2450094E0,1.5068711E1,7.543969E0,9.256965E0,3.7119977E0,3.5330117E0,5.706423E0,9.362288E0,4.17328E0,3.3706894E0,6.185306E0,3.0716584E0,5.158633E0,4.203655E0,3.169086E0,3.0162203E0],"tree_param":{"num_deleted":"0","num_feature":"144","num_nodes":"21","size_leaf_vector":"1"}},{"base_weights":[-5.8838274E-2,3.1168142E-1,-1.4000036E-1,-1.6554764E-2,6.3099824E-2,-5.525016E-1,-1.6427102E-2,-1.622822E-2,-7.4579924E-2,8.951039E-2,-3.9299633E-2,-3.291409E-2,5.9252925E-2,2.9347995E-2,-3.6885604E-2],"categories":[],"categories_nodes":[],"categories_segments":[],"categories_sizes":[],"default_left":[0,0,0,0,0,0,0,0,0,0,0,0,0,0,0],"id":54,"left_children":[1,3,5,-1,-1,7,9,-1,-1,11,-1,13,-1,-1,-1],"loss_changes":[1.4189823E0,1.4040177E0,1.9384875E0,0E0,0E0,5.4097724E-1,1.2491263E0,0E0,0E0,1.5321738E0,0E0,2.3783126E0,0E0,0E0,0E0],"parents":[2147483647,0,0,1,1,2,2,5,5,6,6,9,9,11,11],"right_children":[2,4,6,-1,-1,8,10,-1,-1,12,-1,14,-1,-1,-1],"split_conditions":[-7.993783E-1,-5.113869E-1,-5.123523E-1,-1.6554764E-2,6.3099824E-2,4.369874E-2,8.227082E-1,-1.622822E-2,-7.4579924E-2,1.1955792E0,-3.9299633E-2,-2.6031047E-1,5.9252925E-2,2.9347995E-2,-3.6885604E-2],"split_indices":[31,21,31,0,0,114,131,0,0,31,0,4,0,0,0],"split_type":[0,0,0,0,0,0,0,0,0,0,0,0,0,0,0],"sum_hessian":[4.4734898E1,7.5279946E0,3.7206905E1,3.2108436E0,4.317151E0,7.7766237E0,2.943028E1,3.1854813E0,4.5911427E0,2.3563602E1,5.8666778E0,1.970289E1,3.8607128E0,1.0057569E1,9.645322E0],"tree_param":{"num_deleted":"0","num_feature":"144","num_nodes":"15","size_leaf_vector":"1"}},{"base_weights":[-1.8443293E-3,8.754767E-2,-4.9923826E-2,-1.2417346E-1,3.7507418E-1,1.0908137E-2,-5.8803745E-2,6.678942E-1,4.468729E-2,-2.3976782E-1,4.2096478E-1,3.1217793E-2,9.201787E-2,-4.8362248E-2,4.321834E-2,2.6318794E-2,-4.8082158E-2,7.8827135E-2,-1.8574611E-3],"categories":[],"categories_nodes":[],"categories_segments":[],"categories_sizes":[],"default_left":[0,0,0,0,0,0,0,0,0,0,0,0,0,0,0,0,0,0,0],"id":55,"left_children":[1,3,-1,5,7,9,-1,11,13,15,17,-1,-1,-1,-1,-1,-1,-1,-1],"loss_changes":[1.9955617E0,2.3635917E0,0E0,1.427012E0,1.5557764E0,2.006715E0,0E0,4.860661E-1,2.004936E0,1.5988038E0,1.2088397E0,0E0,0E0,0E0,0E0,0E0,0E0,0E0,0E0],"parents":[2147483647,0,0,1,1,3,3,4,4,5,5,7,7,8,8,9,9,10,10],"right_children":[2,4,-1,6,8,10,-1,12,14,16,18,-1,-1,-1,-1,-1,-1,-1,-1],"split_conditions":[1.1495029E0,-1.03882864E-1,-4.9923826E-2,1.0207623E0,4.0821224E-1,-7.2949864E-2,-5.8803745E-2,9.5693395E-2,-3.6465394E-1,-5.058238E-1,2.2583038E-1,3.1217793E-2,9.201787E-2,-4.8362248E-2,4.321834E-2,2.6318794E-2,-4.8082158E-2,7.8827135E-2,-1.8574611E-3],"split_indices":[98,96,0,116,136,54,0,93,4,23,29,0,0,0,0,0,0,0,0],"split_type":[0,0,0,0,0,0,0,0,0,0,0,0,0,0,0,0,0,0,0],"sum_hessian":[4.2898365E1,3.706161E1,5.8367524E0,2.1671707E1,1.5389904E1,1.754029E1,4.1314154E0,7.617238E0,7.772666E0,1.1143392E1,6.3969E0,4.089096E0,3.528142E0,3.1838093E0,4.588856E0,3.5806293E0,7.5627623E0,3.052575E0,3.3443253E0],"tree_param":{"num_deleted":"0","num_feature":"144","num_nodes":"19","size_leaf_vector":"1"}},{"base_weights":[2.7795637E-2,3.523397E-1,-1.503363E-1,6.485846E-2,9.897163E-2,3.3207055E-2,-2.701794E-1,4.621513E-2,-4.75051E-2,-8.405108E-2,-4.3615334E-2,3.9815284E-2,-2.1941072E-1,-6.2345035E-2,3.6002386E-3],"categories":[],"categories_nodes":[],"categories_segments":[],"categories_sizes":[],"default_left":[0,0,0,0,0,0,0,0,0,0,0,0,0,0,0],"id":56,"left_children":[1,3,5,-1,7,-1,9,-1,-1,-1,11,-1,13,-1,-1],"loss_changes":[2.453729E0,1.0628172E0,1.6802894E0,0E0,2.1527689E0,0E0,2.8822055E0,0E0,0E0,0E0,1.42479E0,0E0,1.3602822E0,0E0,0E0],"parents":[2147483647,0,0,1,1,2,2,4,4,6,6,10,10,12,12],"right_children":[2,4,6,-1,8,-1,10,-1,-1,-1,12,-1,14,-1,-1],"split_conditions":[-4.6730787E-1,-1.7221291E-1,-7.009859E-1,6.485846E-2,1.7485565E-1,3.3207055E-2,-2.6000234E-1,4.621513E-2,-4.75051E-2,-8.405108E-2,-2.2048016E-1,3.9815284E-2,-3.7823775E-1,-6.2345035E-2,3.6002386E-3],"split_indices":[20,41,128,0,35,0,106,0,0,0,39,0,58,0,0],"split_type":[0,0,0,0,0,0,0,0,0,0,0,0,0,0,0],"sum_hessian":[4.052725E1,1.4014971E1,2.651228E1,5.741731E0,8.27324E0,4.9233475E0,2.1588932E1,5.186605E0,3.0866349E0,5.367491E0,1.6221441E1,4.2575326E0,1.1963908E1,4.075655E0,7.888253E0],"tree_param":{"num_deleted":"0","num_feature":"144","num_nodes":"15","size_leaf_vector":"1"}},{"base_weights":[-3.0568805E-2,3.8766872E-2,-4.3212842E-2,-1.2359063E-1,2.5651634E-1,-4.7802982E-1,8.860939E-2,7.327663E-2,7.795991E-2,-7.8224264E-2,-5.832847E-3,2.8524724E-1,-4.4040777E-2,-4.4590887E-2,3.1476057E-1,5.662009E-2,-3.9056905E-2,6.685063E-2,-1.4925827E-2],"categories":[],"categories_nodes":[],"categories_segments":[],"categories_sizes":[],"default_left":[0,0,0,0,0,0,0,0,0,0,0,0,0,0,0,0,0,0,0],"id":57,"left_children":[1,3,-1,5,7,9,11,-1,13,-1,-1,15,-1,-1,17,-1,-1,-1,-1],"loss_changes":[1.2724787E0,1.4238466E0,0E0,1.789768E0,1.4008379E0,1.0852118E0,1.7251313E0,0E0,1.8260821E0,0E0,0E0,2.4647708E0,0E0,0E0,1.7321591E0,0E0,0E0,0E0,0E0],"parents":[2147483647,0,0,1,1,3,3,4,4,5,5,6,6,8,8,11,11,14,14],"right_children":[2,4,-1,6,8,10,12,-1,14,-1,-1,16,-1,-1,18,-1,-1,-1,-1],"split_conditions":[9.523645E-1,9.838894E-3,-4.3212842E-2,-3.5062143E-1,-6.4876634E-1,2.1784492E-1,-1.5011929E-1,7.327663E-2,1.3781829E-1,-7.8224264E-2,-5.832847E-3,4.1690594E-1,-4.4040777E-2,-4.4590887E-2,5.12044E-1,5.662009E-2,-3.9056905E-2,6.685063E-2,-1.4925827E-2],"split_indices":[78,70,0,15,116,138,47,0,136,0,0,15,0,0,59,0,0,0,0],"split_type":[0,0,0,0,0,0,0,0,0,0,0,0,0,0,0,0,0,0,0],"sum_hessian":[4.410121E1,3.8378082E1,5.723129E0,2.2233126E1,1.6144958E1,7.856922E0,1.4376204E1,3.556129E0,1.2588829E1,4.0543747E0,3.8025475E0,1.0816474E1,3.5597298E0,3.644073E0,8.9447565E0,7.7548046E0,3.0616689E0,4.825408E0,4.119348E0],"tree_param":{"num_deleted":"0","num_feature":"144","num_nodes":"19","size_leaf_vector":"1"}},{"base_weights":[1.3414748E-2,6.984402E-2,-6.565947E-2,-2.5295213E-1,1.85097E-1,1.631689E-2,-3.944975E-1,-3.0799942E-2,6.832638E-2,-5.963577E-1,5.5217297E-5,3.9399847E-2,-3.9054665E-1,-9.278024E-3,-8.1985526E-2,6.166829E-3,-7.496577E-2],"categories":[],"categories_nodes":[],"categories_segments":[],"categories_sizes":[],"default_left":[0,0,0,0,0,0,0,0,0,0,0,0,0,0,0,0,0],"id":58,"left_children":[1,-1,3,5,7,-1,9,11,-1,13,-1,-1,15,-1,-1,-1,-1],"loss_changes":[2.2706573E0,0E0,1.8190827E0,1.3615876E0,1.8184497E0,0E0,1.3341866E0,2.0818346E0,0E0,1.1699553E0,0E0,0E0,1.2371048E0,0E0,0E0,0E0,0E0],"parents":[2147483647,0,0,2,2,3,3,4,4,6,6,7,7,9,9,12,12],"right_children":[2,-1,4,6,8,-1,10,12,-1,14,-1,-1,16,-1,-1,-1,-1],"split_conditions":[-1.4507601E0,6.984402E-2,-7.275091E-2,-2.3918356E-1,6.1587983E-1,1.631689E-2,5.594827E-1,-2.0625047E-1,6.832638E-2,1.4934465E-1,5.5217297E-5,3.9399847E-2,4.0194993E-3,-9.278024E-3,-8.1985526E-2,6.166829E-3,-7.496577E-2],"split_indices":[79,0,139,5,130,0,5,112,0,42,0,0,57,0,0,0,0],"split_type":[0,0,0,0,0,0,0,0,0,0,0,0,0,0,0,0,0],"sum_hessian":[4.00723E1,3.336371E0,3.6735928E1,2.102407E1,1.5711857E1,5.2974973E0,1.5726573E1,1.16159E1,4.0959578E0,1.0070984E1,5.655589E0,5.2827168E0,6.333183E0,3.5307481E0,6.540236E0,3.169821E0,3.1633615E0],"tree_param":{"num_deleted":"0","num_feature":"144","num_nodes":"17","size_leaf_vector":"1"}},{"base_weights":[-1.2725605E-2,5.887356E-2,-4.420551E-2,3.3465037E-1,-8.7992735E-2,7.452861E-2,7.382308E-2,1.175348E-1,-4.761222E-1,-2.3867995E-2,3.6075726E-2,-2.2296847E-1,5.0853467E-1,-2.0053438E-3,-7.273426E-2,1.8491795E-2,-5.2037068E-2,7.1645275E-2,9.489168E-3],"categories":[],"categories_nodes":[],"categories_segments":[],"categories_sizes":[],"default_left":[0,0,0,0,0,0,0,0,0,0,0,0,0,0,0,0,0,0,0],"id":59,"left_children":[1,3,-1,5,7,9,-1,11,13,-1,-1,15,17,-1,-1,-1,-1,-1,-1],"loss_changes":[1.4023125E0,1.6193825E0,0E0,1.3988758E0,2.1624153E0,9.407921E-1,0E0,2.5186641E0,1.0555279E0,0E0,0E0,1.3519725E0,6.814823E-1,0E0,0E0,0E0,0E0,0E0,0E0],"parents":[2147483647,0,0,1,1,3,3,4,4,5,5,7,7,8,8,11,11,12,12],"right_children":[2,4,-1,6,8,10,-1,12,14,-1,-1,16,18,-1,-1,-1,-1,-1,-1],"split_conditions":[1.0062945E0,-5.9658223E-1,-4.420551E-2,1.2683003E-1,4.197615E-1,7.405764E-1,7.382308E-2,-2.7706712E-1,-1.027769E0,-2.3867995E-2,3.6075726E-2,-5.111298E-1,3.2715148E-1,-2.0053438E-3,-7.273426E-2,1.8491795E-2,-5.2037068E-2,7.1645275E-2,9.489168E-3],"split_indices":[44,112,0,31,132,26,0,27,80,0,0,87,54,0,0,0,0,0,0],"split_type":[0,0,0,0,0,0,0,0,0,0,0,0,0,0,0,0,0,0,0],"sum_hessian":[4.3772404E1,3.8255424E1,5.5169764E0,1.2849254E1,2.5406172E1,8.533671E0,4.3155828E0,1.7066216E1,8.339956E0,4.154113E0,4.379558E0,9.351867E0,7.7143497E0,3.3457894E0,4.994167E0,4.10293E0,5.2489367E0,4.6466503E0,3.0676992E0],"tree_param":{"num_deleted":"0","num_feature":"144","num_nodes":"19","size_leaf_vector":"1"}},{"base_weights":[-6.5334425E-3,1.5190566E-1,-1.8094163E-1,-2.6009497E-1,3.6515704E-1,-3.5502115E-1,1.6484159E-1,2.5480792E-2,-6.0726266E-2,5.493919E-2,7.067759E-1,-1.5151119E-1,-8.296465E-2,6.185157E-2,-2.7055984E-2,-3.1828154E-2,4.2013735E-2,3.28694E-2,9.044269E-2,2.1748886E-2,-4.1062348E-2],"categories":[],"categories_nodes":[],"categories_segments":[],"categories_sizes":[],