{"learner":{"attributes":{"scikit_learn":"{\"_estimator_type\": \"classifier\"}"},"feature_names":[],"feature_types":[],"gradient_booster":{"model":{"gbtree_model_param":{"num_parallel_tree":"1","num_trees":"100"},"iteration_indptr":[0,1,2,3,4,5,6,7,8,9,10,11,12,13,14,15,16,17,18,19,20,21,22,23,24,25,26,27,28,29,30,31,32,33,34,35,36,37,38,39,40,41,42,43,44,45,46,47,48,49,50,51,52,53,54,55,56,57,58,59,60,61,62,63,64,65,66,67,68,69,70,71,72,73,74,75,76,77,78,79,80,81,82,83,84,85,86,87,88,89,90,91,92,93,94,95,96,97,98,99,100],"tree_info":[0,0,0,0,0,0,0,0,0,0,0,0,0,0,0,0,0,0,0,0,0,0,0,0,0,0,0,0,0,0,0,0,0,0,0,0,0,0,0,0,0,0,0,0,0,0,0,0,0,0,0,0,0,0,0,0,0,0,0,0,0,0,0,0,0,0,0,0,0,0,0,0,0,0,0,0,0,0,0,0,0,0,0,0,0,0,0,0,0,0,0,0,0,0,0,0,0,0,0,0],"trees":[{"base_weights":[8.544398E-2,7.3780686E-1,-1.1455738E-1,7.0723863E-3,1.3566269E-1],"categories":[],"categories_nodes":[],"categories_segments":[],"categories_sizes":[],"default_left":[0,0,0,0,0],"id":0,"left_children":[1,3,-1,-1,-1],"loss_changes":[1.2839164E1,4.184905E0,0E0,0E0,0E0],"parents":[2147483647,0,0,1,1],"right_children":[2,4,-1,-1,-1],"split_conditions":[5.822946E-1,-2.55068E-1,-1.1455738E-1,7.0723863E-3,1.3566269E-1],"split_indices":[8,33,0,0,0],"split_type":[0,0,0,0,0],"sum_hessian":[1.3935123E1,9.37017E0,4.5649543E0,5.045476E0,4.3246937E0],"tree_param":{"num_deleted":"0","num_feature":"144","num_nodes":"5","size_leaf_vector":"1"}},{"base_weights":[-1.2857951E-1,4.4265798E-1,-1.3151403E-1,1.3339554E-1,-4.060737E-2],"categories":[],"categories_nodes":[],"categories_segments":[],"categories_sizes":[],"default_left":[0,0,0,0,0],"id":1,"left_children":[1,3,-1,-1,-1],"loss_changes":[1.021069E1,8.361488E0,0E0,0E0,0E0],"parents":[2147483647,0,0,1,1],"right_children":[2,4,-1,-1,-1],"split_conditions":[4.384315E-1,-2.9938474E-1,-1.3151403E-1,1.3339554E-1,-4.060737E-2],"split_indices":[84,76,0,0,0],"split_type":[0,0,0,0,0],"sum_hessian":[1.3205398E1,9.337198E0,3.8682E0,4.275533E0,5.0616646E0],"tree_param":{"num_deleted":"0","num_feature":"144","num_nodes":"5","size_leaf_vector":"1"}},{"base_weights":[-8.45508E-2,5.272969E-1,-1.4148113E-1,1.0113066E-1,-1.5055832E-2],"categories":[],"categories_nodes":[],"categories_segments":[],"categories_sizes":[],"default_left":[0,0,0,0,0],"id":2,"left_children":[1,3,-1,-1,-1],"loss_changes":[1.20696E1,3.5177665E0,0E0,0E0,0E0],"parents":[2147483647,0,0,1,1],"right_children":[2,4,-1,-1,-1],"split_conditions":[7.1746254E-1,-7.583631E-2,-1.4148113E-1,1.0113066E-1,-1.5055832E-2],"split_indices":[50,76,0,0,0],"split_type":[0,0,0,0,0],"sum_hessian":[1.2912446E1,9.257919E0,3.654527E0,5.1142583E0,4.1436605E0],"tree_param":{"num_deleted":"0","num_feature":"144","num_nodes":"5","size_leaf_vector":"1"}},{"base_weights":[6.996564E-2,6.252336E-1,-1.0263177E-1,1.1376935E-1,-3.2567464E-2],"categories":[],"categories_nodes":[],"categories_segments":[],"categories_sizes":[],"default_left":[0,0,0,0,0],"id":3,"left_children":[1,3,-1,-1,-1],"loss_changes":[1.0639323E1,5.9858675E0,0E0,0E0,0E0],"parents":[2147483647,0,0,1,1],"right_children":[2,4,-1,-1,-1],"split_conditions":[5.6071836E-1,6.518667E-1,-1.0263177E-1,1.1376935E-1,-3.2567464E-2],"split_indices":[79,57,0,0,0],"split_type":[0,0,0,0,0],"sum_hessian":[1.5423732E1,1.0523337E1,4.900395E0,6.710507E0,3.8128302E0],"tree_param":{"num_deleted":"0","num_feature":"144","num_nodes":"5","size_leaf_vector":"1"}},{"base_weights":[-1.4089957E-1,3.6193457E-1,-1.1882341E-1,-2.8132454E-2,1.0013731E-1],"categories":[],"categories_nodes":[],"categories_segments":[],"categories_sizes":[],"default_left":[0,0,0,0,0],"id":4,"left_children":[1,3,-1,-1,-1],"loss_changes":[8.898388E0,5.065671E0,0E0,0E0,0E0],"parents":[2147483647,0,0,1,1],"right_children":[2,4,-1,-1,-1],"split_conditions":[7.1746254E-1,-3.8094935E-1,-1.1882341E-1,-2.8132454E-2,1.0013731E-1],"split_indices":[50,54,0,0,0],"split_type":[0,0,0,0,0],"sum_hessian":[1.5080049E1,1.0630621E1,4.4494276E0,5.5786667E0,5.0519547E0],"tree_param":{"num_deleted":"0","num_feature":"144","num_nodes":"5","size_leaf_vector":"1"}},{"base_weights":[5.7441376E-2,5.514032E-1,-9.09481E-2,-1.4282793E-2,1.1772144E-1],"categories":[],"categories_nodes":[],"categories_segments":[],"categories_sizes":[],"default_left":[0,0,0,0,0],"id":5,"left_children":[1,3,-1,-1,-1],"loss_changes":[8.692347E0,5.3699822E0,0E0,0E0,0E0],"parents":[2147483647,0,0,1,1],"right_children":[2,4,-1,-1,-1],"split_conditions":[4.9957484E-1,-5.525693E-1,-9.09481E-2,-1.4282793E-2,1.1772144E-1],"split_indices":[84,40,0,0,0],"split_type":[0,0,0,0,0],"sum_hessian":[1.6149218E1,1.0973189E1,5.176029E0,5.5681E0,5.4050894E0],"tree_param":{"num_deleted":"0","num_feature":"144","num_nodes":"5","size_leaf_vector":"1"}},{"base_weights":[2.9332587E-2,-5.6049275E-1,6.032462E-1,3.2129146E-2,-1.2240779E-1,1.1051661E-1,6.0449378E-3],"categories":[],"categories_nodes":[],"categories_segments":[],"categories_sizes":[],"default_left":[0,0,0,0,0,0,0],"id":6,"left_children":[1,3,5,-1,-1,-1,-1],"loss_changes":[5.2432327E0,4.8780766E0,2.06528E0,0E0,0E0,0E0,0E0],"parents":[2147483647,0,0,1,1,2,2],"right_children":[2,4,6,-1,-1,-1,-1],"split_conditions":[-2.7200395E-1,-4.0906468E-1,2.8883131E-2,3.2129146E-2,-1.2240779E-1,1.1051661E-1,6.0449378E-3],"split_indices":[138,30,80,0,0,0,0],"split_type":[0,0,0,0,0,0,0],"sum_hessian":[1.349037E1,6.664491E0,6.825879E0,3.0832438E0,3.5812473E0,3.0081801E0,3.8176987E0],"tree_param":{"num_deleted":"0","num_feature":"144","num_nodes":"7","size_leaf_vector":"1"}},{"base_weights":[4.3084547E-2,6.911943E-2,-4.85874E-1,1.48789035E-2,-1.2188726E-1],"categories":[],"categories_nodes":[],"categories_segments":[],"categories_sizes":[],"default_left":[0,0,0,0,0],"id":7,"left_children":[1,-1,3,-1,-1],"loss_changes":[5.3406653E0,0E0,4.1940236E0,0E0,0E0],"parents":[2147483647,0,0,2,2],"right_children":[2,-1,4,-1,-1],"split_conditions":[-3.6048496E-1,6.911943E-2,-1.1263729E-1,1.48789035E-2,-1.2188726E-1],"split_indices":[128,0,31,0,0],"split_type":[0,0,0,0,0],"sum_hessian":[1.3598872E1,5.9733186E0,7.625554E0,4.5140767E0,3.1114771E0],"tree_param":{"num_deleted":"0","num_feature":"144","num_nodes":"5","size_leaf_vector":"1"}},{"base_weights":[1.9711463E-2,9.7135596E-2,-3.5791674E-1,3.2433152E-2,-9.1644585E-2],"categories":[],"categories_nodes":[],"categories_segments":[],"categories_sizes":[],"default_left":[0,0,0,0,0],"id":8,"left_children":[1,-1,3,-1,-1],"loss_changes":[5.467457E0,0E0,4.4622154E0,0E0,0E0],"parents":[2147483647,0,0,2,2],"right_children":[2,-1,4,-1,-1],"split_conditions":[-9.6631193E-1,9.7135596E-2,-2.7726364E-1,3.2433152E-2,-9.1644585E-2],"split_indices":[87,0,76,0,0],"split_type":[0,0,0,0,0],"sum_hessian":[1.3246663E1,3.31654E0,9.930123E0,4.658741E0,5.2713823E0],"tree_param":{"num_deleted":"0","num_feature":"144","num_nodes":"5","size_leaf_vector":"1"}},{"base_weights":[2.0684965E-1,6.3532954E-1,-7.650965E-2,-2.2735802E-2,9.840713E-1,4.459713E-2,1.21625476E-1],"categories":[],"categories_nodes":[],"categories_segments":[],"categories_sizes":[],"default_left":[0,0,0,0,0,0,0],"id":9,"left_children":[1,3,-1,-1,5,-1,-1],"loss_changes":[6.8260207E0,3.5668178E0,0E0,0E0,4.6967602E-1,0E0,0E0],"parents":[2147483647,0,0,1,1,4,4],"right_children":[2,4,-1,-1,6,-1,-1],"split_conditions":[7.1746254E-1,-5.85228E-1,-7.650965E-2,-2.2735802E-2,-9.292039E-1,4.459713E-2,1.21625476E-1],"split_indices":[50,95,0,0,99,0,0],"split_type":[0,0,0,0,0,0,0],"sum_hessian":[1.4223411E1,1.0111927E1,4.111484E0,3.0111825E0,7.1007442E0,3.020745E0,4.079999E0],"tree_param":{"num_deleted":"0","num_feature":"144","num_nodes":"7","size_leaf_vector":"1"}},{"base_weights":[-4.463355E-4,6.8242796E-2,-3.874683E-1,3.1777956E-2,-1.09156206E-1],"categories":[],"categories_nodes":[],"categories_segments":[],"categories_sizes":[],"default_left":[0,0,0,0,0],"id":10,"left_children":[1,-1,3,-1,-1],"loss_changes":[4.5593057E0,0E0,5.8140726E0,0E0,0E0],"parents":[2147483647,0,0,2,2],"right_children":[2,-1,4,-1,-1],"split_conditions":[-5.4300296E-1,6.8242796E-2,1.592572E-1,3.1777956E-2,-1.09156206E-1],"split_indices":[30,0,73,0,0],"split_type":[0,0,0,0,0],"sum_hessian":[1.5250823E1,5.2406926E0,1.001013E1,5.275076E0,4.735054E0],"tree_param":{"num_deleted":"0","num_feature":"144","num_nodes":"5","size_leaf_vector":"1"}},{"base_weights":[1.851555E-1,5.2484035E-1,-7.367723E-2,-1.4736012E-2,1.00218765E-1],"categories":[],"categories_nodes":[],"categories_segments":[],"categories_sizes":[],"default_left":[0,0,0,0,0],"id":11,"left_children":[1,3,-1,-1,-1],"loss_changes":[4.7171955E0,3.5774944E0,0E0,0E0,0E0],"parents":[2147483647,0,0,1,1],"right_children":[2,4,-1,-1,-1],"split_conditions":[1.1325796E0,-4.7173938E-1,-7.367723E-2,-1.4736012E-2,1.00218765E-1],"split_indices":[87,113,0,0,0],"split_type":[0,0,0,0,0],"sum_hessian":[1.28282E1,9.688997E0,3.1392033E0,4.310394E0,5.3786035E0],"tree_param":{"num_deleted":"0","num_feature":"144","num_nodes":"5","size_leaf_vector":"1"}},{"base_weights":[-9.262762E-2,4.1084182E-1,-1.0158066E-1,9.209829E-2,-5.711349E-3],"categories":[],"categories_nodes":[],"categories_segments":[],"categories_sizes":[],"default_left":[0,0,0,0,0],"id":12,"left_children":[1,3,-1,-1,-1],"loss_changes":[7.014958E0,2.4153414E0,0E0,0E0,0E0],"parents":[2147483647,0,0,1,1],"right_children":[2,4,-1,-1,-1],"split_conditions":[4.9957484E-1,-5.3005487E-1,-1.0158066E-1,9.209829E-2,-5.711349E-3],"split_indices":[84,87,0,0,0],"split_type":[0,0,0,0,0],"sum_hessian":[1.3194772E1,8.897408E0,4.2973638E0,3.7936568E0,5.103751E0],"tree_param":{"num_deleted":"0","num_feature":"144","num_nodes":"5","size_leaf_vector":"1"}},{"base_weights":[7.3423475E-2,-4.1824165E-1,5.4594094E-1,-1.077333E-1,3.0792907E-2,9.70564E-2,-6.9552097E-3],"categories":[],"categories_nodes":[],"categories_segments":[],"categories_sizes":[],"default_left":[0,0,0,0,0,0,0],"id":13,"left_children":[1,3,5,-1,-1,-1,-1],"loss_changes":[3.5146434E0,3.9206486E0,2.0660763E0,0E0,0E0,0E0,0E0],"parents":[2147483647,0,0,1,1,2,2],"right_children":[2,4,6,-1,-1,-1,-1],"split_conditions":[-2.945482E-1,1.9089831E-1,-1.284189E-1,-1.077333E-1,3.0792907E-2,9.70564E-2,-6.9552097E-3],"split_indices":[138,93,73,0,0,0,0],"split_type":[0,0,0,0,0,0,0],"sum_hessian":[1.314559E1,6.498558E0,6.6470323E0,3.153122E0,3.345436E0,3.5920327E0,3.0549994E0],"tree_param":{"num_deleted":"0","num_feature":"144","num_nodes":"7","size_leaf_vector":"1"}},{"base_weights":[-1.0822293E-1,5.1565327E-2,-4.5874932E-1,3.4049496E-2,-8.7438665E-2],"categories":[],"categories_nodes":[],"categories_segments":[],"categories_sizes":[],"default_left":[0,0,0,0,0],"id":14,"left_children":[1,-1,3,-1,-1],"loss_changes":[3.4385452E0,0E0,3.5877817E0,0E0,0E0],"parents":[2147483647,0,0,2,2],"right_children":[2,-1,4,-1,-1],"split_conditions":[-1.20379664E-1,5.1565327E-2,-5.5150783E-1,3.4049496E-2,-8.7438665E-2],"split_indices":[56,0,4,0,0],"split_type":[0,0,0,0,0],"sum_hessian":[1.3642012E1,4.73804E0,8.903972E0,3.1080935E0,5.7958784E0],"tree_param":{"num_deleted":"0","num_feature":"144","num_nodes":"5","size_leaf_vector":"1"}},{"base_weights":[-6.390749E-3,3.509316E-1,-7.208259E-2,-2.6980031E-2,8.7459505E-2],"categories":[],"categories_nodes":[],"categories_segments":[],"categories_sizes":[],"default_left":[0,0,0,0,0],"id":15,"left_children":[1,3,-1,-1,-1],"loss_changes":[3.974999E0,3.613811E0,0E0,0E0,0E0],"parents":[2147483647,0,0,1,1],"right_children":[2,4,-1,-1,-1],"split_conditions":[4.9957484E-1,-5.525693E-1,-7.208259E-2,-2.6980031E-2,8.7459505E-2],"split_indices":[84,40,0,0,0],"split_type":[0,0,0,0,0],"sum_hessian":[1.3580012E1,9.391623E0,4.1883907E0,4.5193405E0,4.8722816E0],"tree_param":{"num_deleted":"0","num_feature":"144","num_nodes":"5","size_leaf_vector":"1"}},{"base_weights":[1.1454871E-1,6.782719E-2,-3.8284367E-1,-9.255577E-2,2.1199265E-2],"categories":[],"categories_nodes":[],"categories_segments":[],"categories_sizes":[],"default_left":[0,0,0,0,0],"id":16,"left_children":[1,-1,3,-1,-1],"loss_changes":[3.9677842E0,0E0,2.67065E0,0E0,0E0],"parents":[2147483647,0,0,2,2],"right_children":[2,-1,4,-1,-1],"split_conditions":[-3.6048496E-1,6.782719E-2,6.7655873E-3,-9.255577E-2,2.1199265E-2],"split_indices":[128,0,138,0,0],"split_type":[0,0,0,0,0],"sum_hessian":[1.2224761E1,5.5598316E0,6.6649294E0,3.1944263E0,3.470503E0],"tree_param":{"num_deleted":"0","num_feature":"144","num_nodes":"5","size_leaf_vector":"1"}},{"base_weights":[-3.8213376E-2,5.667277E-2,-5.154327E-1,1.818419E-2,-1.0139989E-1],"categories":[],"categories_nodes":[],"categories_segments":[],"categories_sizes":[],"default_left":[0,0,0,0,0],"id":17,"left_children":[1,-1,3,-1,-1],"loss_changes":[4.15313E0,0E0,2.9655213E0,0E0,0E0],"parents":[2147483647,0,0,2,2],"right_children":[2,-1,4,-1,-1],"split_conditions":[-9.389771E-2,5.667277E-2,-1.6534257E-1,1.818419E-2,-1.0139989E-1],"split_indices":[73,0,30,0,0],"split_type":[0,0,0,0,0],"sum_hessian":[1.2374294E1,5.374198E0,7.0000963E0,3.183313E0,3.8167834E0],"tree_param":{"num_deleted":"0","num_feature":"144","num_nodes":"5","size_leaf_vector":"1"}},{"base_weights":[6.538782E-2,5.0936353E-1,-5.229711E-2,2.496741E-4,9.1359116E-2],"categories":[],"categories_nodes":[],"categories_segments":[],"categories_sizes":[],"default_left":[0,0,0,0,0],"id":18,"left_children":[1,3,-1,-1,-1],"loss_changes":[3.5862591E0,1.5856106E0,0E0,0E0,0E0],"parents":[2147483647,0,0,1,1],"right_children":[2,4,-1,-1,-1],"split_conditions":[2.3864675E-1,-4.4859338E-1,-5.229711E-2,2.496741E-4,9.1359116E-2],"split_indices":[131,40,0,0,0],"split_type":[0,0,0,0,0],"sum_hessian":[1.1709266E1,6.749988E0,4.959278E0,3.4411976E0,3.3087902E0],"tree_param":{"num_deleted":"0","num_feature":"144","num_nodes":"5","size_leaf_vector":"1"}},{"base_weights":[-6.011153E-2,2.925666E-1,-8.7312736E-2,8.758527E-2,-1.1332104E-2],"categories":[],"categories_nodes":[],"categories_segments":[],"categories_sizes":[],"default_left":[0,0,0,0,0],"id":19,"left_children":[1,3,-1,-1,-1],"loss_changes":[3.9965925E0,2.4309943E0,0E0,0E0,0E0],"parents":[2147483647,0,0,1,1],"right_children":[2,4,-1,-1,-1],"split_conditions":[1.1029798E0,-1.16462305E-1,-8.7312736E-2,8.758527E-2,-1.1332104E-2],"split_indices":[87,8,0,0,0],"split_type":[0,0,0,0,0],"sum_hessian":[1.204749E1,8.84902E0,3.1984699E0,3.1559093E0,5.693111E0],"tree_param":{"num_deleted":"0","num_feature":"144","num_nodes":"5","size_leaf_vector":"1"}},{"base_weights":[-5.9496038E-2,3.267127E-1,-5.1214617E-2,8.256659E-2,-3.315183E-2],"categories":[],"categories_nodes":[],"categories_segments":[],"categories_sizes":[],"default_left":[0,0,0,0,0],"id":20,"left_children":[1,3,-1,-1,-1],"loss_changes":[2.6643343E0,3.0055583E0,0E0,0E0,0E0],"parents":[2147483647,0,0,1,1],"right_children":[2,4,-1,-1,-1],"split_conditions":[-1.4989518E-1,3.6487815E-1,-5.1214617E-2,8.256659E-2,-3.315183E-2],"split_indices":[31,137,0,0,0],"split_type":[0,0,0,0,0],"sum_hessian":[1.3283526E1,7.3179502E0,5.965576E0,4.0179143E0,3.300036E0],"tree_param":{"num_deleted":"0","num_feature":"144","num_nodes":"5","size_leaf_vector":"1"}},{"base_weights":[-1.11449786E-1,2.3387706E-1,-6.613129E-2,-5.2168913E-2,9.4783746E-2],"categories":[],"categories_nodes":[],"categories_segments":[],"categories_sizes":[],"default_left":[0,0,0,0,0],"id":21,"left_children":[1,3,-1,-1,-1],"loss_changes":[2.6518867E0,5.250693E0,0E0,0E0,0E0],"parents":[2147483647,0,0,1,1],"right_children":[2,4,-1,-1,-1],"split_conditions":[5.8713204E-1,-3.9475328E-1,-6.613129E-2,-5.2168913E-2,9.4783746E-2],"split_indices":[79,42,0,0,0],"split_type":[0,0,0,0,0],"sum_hessian":[1.2151401E1,7.8168807E0,4.3345203E0,3.9286218E0,3.888259E0],"tree_param":{"num_deleted":"0","num_feature":"144","num_nodes":"5","size_leaf_vector":"1"}},{"base_weights":[1.8873952E-2,5.2228462E-2,-4.0217537E-1,1.1427025E-2,-7.7783845E-2],"categories":[],"categories_nodes":[],"categories_segments":[],"categories_sizes":[],"default_left":[0,0,0,0,0],"id":22,"left_children":[1,-1,3,-1,-1],"loss_changes":[3.1380844E0,0E0,1.6579045E0,0E0,0E0],"parents":[2147483647,0,0,2,2],"right_children":[2,-1,4,-1,-1],"split_conditions":[-1.284189E-1,5.2228462E-2,-1.3115288E-2,1.1427025E-2,-7.7783845E-2],"split_indices":[73,0,15,0,0],"split_type":[0,0,0,0,0],"sum_hessian":[1.2814041E1,5.726703E0,7.0873384E0,3.2774527E0,3.8098857E0],"tree_param":{"num_deleted":"0","num_feature":"144","num_nodes":"5","size_leaf_vector":"1"}},{"base_weights":[9.992491E-3,4.0088695E-1,-6.144858E-2,8.433922E-2,-1.107954E-2],"categories":[],"categories_nodes":[],"categories_segments":[],"categories_sizes":[],"default_left":[0,0,0,0,0],"id":23,"left_children":[1,3,-1,-1,-1],"loss_changes":[3.4456832E0,2.0556045E0,0E0,0E0,0E0],"parents":[2147483647,0,0,1,1],"right_children":[2,4,-1,-1,-1],"split_conditions":[3.8917872E-1,-2.0065318E-1,-6.144858E-2,8.433922E-2,-1.107954E-2],"split_indices":[137,76,0,0,0],"split_type":[0,0,0,0,0],"sum_hessian":[1.210642E1,7.6659408E0,4.440479E0,3.7632194E0,3.9027214E0],"tree_param":{"num_deleted":"0","num_feature":"144","num_nodes":"5","size_leaf_vector":"1"}},{"base_weights":[1.130908E-2,3.3850712E-1,-6.0264774E-2,7.901334E-2,-1.258939E-2],"categories":[],"categories_nodes":[],"categories_segments":[],"categories_sizes":[],"default_left":[0,0,0,0,0],"id":24,"left_children":[1,3,-1,-1,-1],"loss_changes":[2.698756E0,1.9329103E0,0E0,0E0,0E0],"parents":[2147483647,0,0,1,1],"right_children":[2,4,-1,-1,-1],"split_conditions":[7.3317593E-1,-2.5280374E-1,-6.0264774E-2,7.901334E-2,-1.258939E-2],"split_indices":[8,112,0,0,0],"split_type":[0,0,0,0,0],"sum_hessian":[1.1418796E1,7.741656E0,3.67714E0,3.5692174E0,4.1724386E0],"tree_param":{"num_deleted":"0","num_feature":"144","num_nodes":"5","size_leaf_vector":"1"}},{"base_weights":[-1.2917725E-2,6.2757276E-2,-2.7124423E-1,-6.919874E-2,1.007133E-2],"categories":[],"categories_nodes":[],"categories_segments":[],"categories_sizes":[],"default_left":[0,0,0,0,0],"id":25,"left_children":[1,-1,3,-1,-1],"loss_changes":[2.325509E0,0E0,1.6316588E0,0E0,0E0],"parents":[2147483647,0,0,2,2],"right_children":[2,-1,4,-1,-1],"split_conditions":[-4.8279956E-1,6.2757276E-2,2.6127417E-4,-6.919874E-2,1.007133E-2],"split_indices":[115,0,136,0,0],"split_type":[0,0,0,0,0],"sum_hessian":[1.2026353E1,3.0456471E0,8.980705E0,3.8102791E0,5.1704264E0],"tree_param":{"num_deleted":"0","num_feature":"144","num_nodes":"5","size_leaf_vector":"1"}},{"base_weights":[-3.3472497E-2,4.3284513E-2,-4.0897784E-1,1.8132752E-2,-8.6293064E-2],"categories":[],"categories_nodes":[],"categories_segments":[],"categories_sizes":[],"default_left":[0,0,0,0,0],"id":26,"left_children":[1,-1,3,-1,-1],"loss_changes":[2.3823843E0,0E0,2.1637764E0,0E0,0E0],"parents":[2147483647,0,0,2,2],"right_children":[2,-1,4,-1,-1],"split_conditions":[-2.9938474E-1,4.3284513E-2,-8.314899E-1,1.8132752E-2,-8.6293064E-2],"split_indices":[76,0,70,0,0],"split_type":[0,0,0,0,0],"sum_hessian":[1.1594519E1,5.1037617E0,6.4907565E0,3.082688E0,3.4080684E0],"tree_param":{"num_deleted":"0","num_feature":"144","num_nodes":"5","size_leaf_vector":"1"}},{"base_weights":[9.494133E-2,4.0835893E-1,-6.33015E-2,-6.62744E-3,7.882378E-2],"categories":[],"categories_nodes":[],"categories_segments":[],"categories_sizes":[],"default_left":[0,0,0,0,0],"id":27,"left_children":[1,3,-1,-1,-1],"loss_changes":[3.2178469E0,1.7966588E0,0E0,0E0,0E0],"parents":[2147483647,0,0,1,1],"right_children":[2,4,-1,-1,-1],"split_conditions":[4.9957484E-1,-3.0732602E-1,-6.33015E-2,-6.62744E-3,7.882378E-2],"split_indices":[84,29,0,0,0],"split_type":[0,0,0,0,0],"sum_hessian":[1.1970823E1,8.674919E0,3.2959046E0,4.2234893E0,4.4514294E0],"tree_param":{"num_deleted":"0","num_feature":"144","num_nodes":"5","size_leaf_vector":"1"}},{"base_weights":[4.427313E-2,4.934045E-2,-4.2923868E-2],"categories":[],"categories_nodes":[],"categories_segments":[],"categories_sizes":[],"default_left":[0,0,0],"id":28,"left_children":[1,-1,-1],"loss_changes":[2.6804008E0,0E0,0E0],"parents":[2147483647,0,0],"right_children":[2,-1,-1],"split_conditions":[-5.71715E-2,4.934045E-2,-4.2923868E-2],"split_indices":[6,0,0],"split_type":[0,0,0],"sum_hessian":[1.0607769E1,5.4224772E0,5.185292E0],"tree_param":{"num_deleted":"0","num_feature":"144","num_nodes":"3","size_leaf_vector":"1"}},{"base_weights":[-4.9770474E-2,2.2371484E-1,-6.70679E-2,6.404568E-2,-3.824116E-2],"categories":[],"categories_nodes":[],"categories_segments":[],"categories_sizes":[],"default_left":[0,0,0,0,0],"id":29,"left_children":[1,3,-1,-1,-1],"loss_changes":[2.3463392E0,2.702417E0,0E0,0E0,0E0],"parents":[2147483647,0,0,1,1],"right_children":[2,4,-1,-1,-1],"split_conditions":[8.4657395E-1,4.0277603E-1,-6.70679E-2,6.404568E-2,-3.824116E-2],"split_indices":[57,82,0,0,0],"split_type":[0,0,0,0,0],"sum_hessian":[1.19339075E1,8.728882E0,3.2050254E0,5.138956E0,3.5899258E0],"tree_param":{"num_deleted":"0","num_feature":"144","num_nodes":"5","size_leaf_vector":"1"}},{"base_weights":[9.433671E-2,5.358038E-2,-3.4941275E-2],"categories":[],"categories_nodes":[],"categories_segments":[],"categories_sizes":[],"default_left":[0,0,0],"id":30,"left_children":[1,-1,-1],"loss_changes":[2.4864984E0,0E0,0E0],"parents":[2147483647,0,0],"right_children":[2,-1,-1],"split_conditions":[1.592572E-1,5.358038E-2,-3.4941275E-2],"split_indices":[73,0,0],"split_type":[0,0,0],"sum_hessian":[1.0736971E1,5.278336E0,5.4586344E0],"tree_param":{"num_deleted":"0","num_feature":"144","num_nodes":"3","size_leaf_vector":"1"}},{"base_weights":[-4.2461385E-3,4.486901E-2,-3.9442667E-1,-8.63772E-2,1.632339E-2],"categories":[],"categories_nodes":[],"categories_segments":[],"categories_sizes":[],"default_left":[0,0,0,0,0],"id":31,"left_children":[1,-1,3,-1,-1],"loss_changes":[2.4127495E0,0E0,2.0591283E0,0E0,0E0],"parents":[2147483647,0,0,2,2],"right_children":[2,-1,4,-1,-1],"split_conditions":[1.592572E-1,4.486901E-2,6.46467E-1,-8.63772E-2,1.632339E-2],"split_indices":[73,0,74,0,0],"split_type":[0,0,0,0,0],"sum_hessian":[1.1651014E1,5.3225007E0,6.3285136E0,3.1382985E0,3.1902153E0],"tree_param":{"num_deleted":"0","num_feature":"144","num_nodes":"5","size_leaf_vector":"1"}},{"base_weights":[2.366013E-2,4.620178E-2,-4.486591E-2],"categories":[],"categories_nodes":[],"categories_segments":[],"categories_sizes":[],"default_left":[0,0,0],"id":32,"left_children":[1,-1,-1],"loss_changes":[2.7198582E0,0E0,0E0],"parents":[2147483647,0,0],"right_children":[2,-1,-1],"split_conditions":[-2.0065318E-1,4.620178E-2,-4.486591E-2],"split_indices":[76,0,0],"split_type":[0,0,0],"sum_hessian":[1.1135395E1,5.7866435E0,5.3487515E0],"tree_param":{"num_deleted":"0","num_feature":"144","num_nodes":"3","size_leaf_vector":"1"}},{"base_weights":[2.0460428E-3,6.3680716E-2,-3.2788226E-1,-8.394795E-2,2.7463809E-2],"categories":[],"categories_nodes":[],"categories_segments":[],"categories_sizes":[],"default_left":[0,0,0,0,0],"id":33,"left_children":[1,-1,3,-1,-1],"loss_changes":[2.8674104E0,0E0,3.0088584E0,0E0,0E0],"parents":[2147483647,0,0,2,2],"right_children":[2,-1,4,-1,-1],"split_conditions":[-5.4300296E-1,6.3680716E-2,-2.5453487E-1,-8.394795E-2,2.7463809E-2],"split_indices":[30,0,40,0,0],"split_type":[0,0,0,0,0],"sum_hessian":[1.169478E1,3.6815584E0,8.013223E0,4.120903E0,3.8923192E0],"tree_param":{"num_deleted":"0","num_feature":"144","num_nodes":"5","size_leaf_vector":"1"}},{"base_weights":[-1.7956749E-1,-6.341144E-2,2.8023759E-2],"categories":[],"categories_nodes":[],"categories_segments":[],"categories_sizes":[],"default_left":[0,0,0],"id":34,"left_children":[1,-1,-1],"loss_changes":[2.559599E0,0E0,0E0],"parents":[2147483647,0,0],"right_children":[2,-1,-1],"split_conditions":[-4.4859338E-1,-6.341144E-2,2.8023759E-2],"split_indices":[40,0,0],"split_type":[0,0,0],"sum_hessian":[1.0396473E1,5.0374937E0,5.358979E0],"tree_param":{"num_deleted":"0","num_feature":"144","num_nodes":"3","size_leaf_vector":"1"}},{"base_weights":[1.96187E-1,5.318772E-1,-4.6200845E-2,-4.798614E-3,9.233244E-2],"categories":[],"categories_nodes":[],"categories_segments":[],"categories_sizes":[],"default_left":[0,0,0,0,0],"id":35,"left_children":[1,3,-1,-1,-1],"loss_changes":[2.7579408E0,1.858968E0,0E0,0E0,0E0],"parents":[2147483647,0,0,1,1],"right_children":[2,4,-1,-1,-1],"split_conditions":[4.384315E-1,-3.317463E-1,-4.6200845E-2,-4.798614E-3,9.233244E-2],"split_indices":[84,5,0,0,0],"split_type":[0,0,0,0,0],"sum_hessian":[1.0370045E1,6.994602E0,3.375443E0,3.1724951E0,3.8221068E0],"tree_param":{"num_deleted":"0","num_feature":"144","num_nodes":"5","size_leaf_vector":"1"}},{"base_weights":[1.7688462E-1,4.427467E-1,-3.114281E-2,9.365544E-2,-9.121547E-3],"categories":[],"categories_nodes":[],"categories_segments":[],"categories_sizes":[],"default_left":[0,0,0,0,0],"id":36,"left_children":[1,3,-1,-1,-1],"loss_changes":[1.5749575E0,2.0841236E0,0E0,0E0,0E0],"parents":[2147483647,0,0,1,1],"right_children":[2,4,-1,-1,-1],"split_conditions":[4.384315E-1,6.904269E-2,-3.114281E-2,9.365544E-2,-9.121547E-3],"split_indices":[84,87,0,0,0],"split_type":[0,0,0,0,0],"sum_hessian":[1.0069414E1,6.5801578E0,3.4892566E0,3.0269065E0,3.5532513E0],"tree_param":{"num_deleted":"0","num_feature":"144","num_nodes":"5","size_leaf_vector":"1"}},{"base_weights":[-4.5523006E-2,2.9148355E-1,-6.424024E-2,7.0984624E-2,-1.3755629E-2],"categories":[],"categories_nodes":[],"categories_segments":[],"categories_sizes":[],"default_left":[0,0,0,0,0],"id":37,"left_children":[1,3,-1,-1,-1],"loss_changes":[2.5877671E0,1.5901768E0,0E0,0E0,0E0],"parents":[2147483647,0,0,1,1],"right_children":[2,4,-1,-1,-1],"split_conditions":[7.3317593E-1,-4.2406684E-1,-6.424024E-2,7.0984624E-2,-1.3755629E-2],"split_indices":[8,128,0,0,0],"split_type":[0,0,0,0,0],"sum_hessian":[1.0933832E1,7.315213E0,3.6186194E0,3.372319E0,3.9428942E0],"tree_param":{"num_deleted":"0","num_feature":"144","num_nodes":"5","size_leaf_vector":"1"}},{"base_weights":[6.507197E-2,4.19464E-1,-4.4443894E-2,-3.5027917E-3,7.754239E-2],"categories":[],"categories_nodes":[],"categories_segments":[],"categories_sizes":[],"default_left":[0,0,0,0,0],"id":38,"left_children":[1,3,-1,-1,-1],"loss_changes":[2.2220426E0,1.1860487E0,0E0,0E0,0E0],"parents":[2147483647,0,0,1,1],"right_children":[2,4,-1,-1,-1],"split_conditions":[4.0277603E-1,-3.336045E-1,-4.4443894E-2,-3.5027917E-3,7.754239E-2],"split_indices":[82,5,0,0,0],"split_type":[0,0,0,0,0],"sum_hessian":[1.0273495E1,6.163314E0,4.1101813E0,3.1029909E0,3.0603228E0],"tree_param":{"num_deleted":"0","num_feature":"144","num_nodes":"5","size_leaf_vector":"1"}},{"base_weights":[7.705619E-2,5.575624E-2,-1.9528536E-1,-8.457526E-2,3.6378127E-2],"categories":[],"categories_nodes":[],"categories_segments":[],"categories_sizes":[],"default_left":[0,0,0,0,0],"id":39,"left_children":[1,-1,3,-1,-1],"loss_changes":[1.5992721E0,0E0,3.2204204E0,0E0,0E0],"parents":[2147483647,0,0,2,2],"right_children":[2,-1,4,-1,-1],"split_conditions":[-5.4300296E-1,5.575624E-2,-2.7200395E-1,-8.457526E-2,3.6378127E-2],"split_indices":[30,0,138,0,0],"split_type":[0,0,0,0,0],"sum_hessian":[1.0389024E1,3.3793578E0,7.009666E0,3.002962E0,4.006704E0],"tree_param":{"num_deleted":"0","num_feature":"144","num_nodes":"5","size_leaf_vector":"1"}},{"base_weights":[-1.3894945E-1,1.9453665E-2,-5.660038E-2],"categories":[],"categories_nodes":[],"categories_segments":[],"categories_sizes":[],"default_left":[0,0,0],"id":40,"left_children":[1,-1,-1],"loss_changes":[1.6554824E0,0E0,0E0],"parents":[2147483647,0,0],"right_children":[2,-1,-1],"split_conditions":[-1.1263729E-1,1.9453665E-2,-5.660038E-2],"split_indices":[31,0,0],"split_type":[0,0,0],"sum_hessian":[9.851073E0,5.8372455E0,4.0138273E0],"tree_param":{"num_deleted":"0","num_feature":"144","num_nodes":"3","size_leaf_vector":"1"}},{"base_weights":[4.701347E-2,3.3337694E-1,-4.494045E-2,-1.8579131E-2,7.733089E-2],"categories":[],"categories_nodes":[],"categories_segments":[],"categories_sizes":[],"default_left":[0,0,0,0,0],"id":41,"left_children":[1,3,-1,-1,-1],"loss_changes":[1.6648567E0,1.8184842E0,0E0,0E0,0E0],"parents":[2147483647,0,0,1,1],"right_children":[2,4,-1,-1,-1],"split_conditions":[4.9957484E-1,-2.3865403E-1,-4.494045E-2,-1.8579131E-2,7.733089E-2],"split_indices":[84,84,0,0,0],"split_type":[0,0,0,0,0],"sum_hessian":[9.6575575E0,6.332835E0,3.324722E0,3.1698015E0,3.163034E0],"tree_param":{"num_deleted":"0","num_feature":"144","num_nodes":"5","size_leaf_vector":"1"}},{"base_weights":[1.0440892E-1,3.9085662E-1,-4.5566488E-2,-5.605557E-3,6.935889E-2],"categories":[],"categories_nodes":[],"categories_segments":[],"categories_sizes":[],"default_left":[0,0,0,0,0],"id":42,"left_children":[1,3,-1,-1,-1],"loss_changes":[1.9730134E0,1.1131837E0,0E0,0E0,0E0],"parents":[2147483647,0,0,1,1],"right_children":[2,4,-1,-1,-1],"split_conditions":[5.8926064E-1,-1.18621595E-1,-4.5566488E-2,-5.605557E-3,6.935889E-2],"split_indices":[27,64,0,0,0],"split_type":[0,0,0,0,0],"sum_hessian":[1.0188014E1,6.9404697E0,3.2475445E0,3.1318593E0,3.8086104E0],"tree_param":{"num_deleted":"0","num_feature":"144","num_nodes":"5","size_leaf_vector":"1"}},{"base_weights":[-1.1113473E-1,3.1999514E-1,-7.8807786E-2,-1.0896E-2,6.9345795E-2],"categories":[],"categories_nodes":[],"categories_segments":[],"categories_sizes":[],"default_left":[0,0,0,0,0],"id":43,"left_children":[1,3,-1,-1,-1],"loss_changes":[3.4385903E0,1.258019E0,0E0,0E0,0E0],"parents":[2147483647,0,0,1,1],"right_children":[2,4,-1,-1,-1],"split_conditions":[4.0277603E-1,-3.3569044E-1,-7.8807786E-2,-1.0896E-2,6.9345795E-2],"split_indices":[82,5,0,0,0],"split_type":[0,0,0,0,0],"sum_hessian":[9.917954E0,6.381203E0,3.536751E0,3.2995832E0,3.08162E0],"tree_param":{"num_deleted":"0","num_feature":"144","num_nodes":"5","size_leaf_vector":"1"}},{"base_weights":[-1.2337871E-1,3.0134887E-2,-5.670305E-2],"categories":[],"categories_nodes":[],"categories_segments":[],"categories_sizes":[],"default_left":[0,0,0],"id":44,"left_children":[1,-1,-1],"loss_changes":[2.049065E0,0E0,0E0],"parents":[2147483647,0,0],"right_children":[2,-1,-1],"split_conditions":[2.137625E-1,3.0134887E-2,-5.670305E-2],"split_indices":[75,0,0],"split_type":[0,0,0],"sum_hessian":[8.967521E0,4.7453446E0,4.2221756E0],"tree_param":{"num_deleted":"0","num_feature":"144","num_nodes":"3","size_leaf_vector":"1"}},{"base_weights":[-3.734413E-3,3.217349E-1,-5.762222E-2,-5.72193E-3,6.391379E-2],"categories":[],"categories_nodes":[],"categories_segments":[],"categories_sizes":[],"default_left":[0,0,0,0,0],"id":45,"left_children":[1,3,-1,-1,-1],"loss_changes":[2.1645737E0,9.2830646E-1,0E0,0E0,0E0],"parents":[2147483647,0,0,1,1],"right_children":[2,4,-1,-1,-1],"split_conditions":[7.3317593E-1,-5.9873104E-1,-5.762222E-2,-5.72193E-3,6.391379E-2],"split_indices":[8,40,0,0,0],"split_type":[0,0,0,0,0],"sum_hessian":[9.622082E0,6.413755E0,3.2083266E0,3.2970562E0,3.1166987E0],"tree_param":{"num_deleted":"0","num_feature":"144","num_nodes":"5","size_leaf_vector":"1"}},{"base_weights":[-9.428635E-2,-5.711038E-2,2.1348847E-1,5.3491812E-2,-1.3070144E-2],"categories":[],"categories_nodes":[],"categories_segments":[],"categories_sizes":[],"default_left":[0,0,0,0,0],"id":46,"left_children":[1,-1,3,-1,-1],"loss_changes":[1.7255043E0,0E0,8.85123E-1,0E0,0E0],"parents":[2147483647,0,0,2,2],"right_children":[2,-1,4,-1,-1],"split_conditions":[-5.447353E-1,-5.711038E-2,-2.2867516E-1,5.3491812E-2,-1.3070144E-2],"split_indices":[29,0,63,0,0],"split_type":[0,0,0,0,0],"sum_hessian":[9.927113E0,3.5585184E0,6.3685937E0,3.0066388E0,3.3619552E0],"tree_param":{"num_deleted":"0","num_feature":"144","num_nodes":"5","size_leaf_vector":"1"}},{"base_weights":[3.691453E-3,4.8250582E-2,-3.4430826E-1,8.929848E-3,-6.911408E-2],"categories":[],"categories_nodes":[],"categories_segments":[],"categories_sizes":[],"default_left":[0,0,0,0,0],"id":47,"left_children":[1,-1,3,-1,-1],"loss_changes":[2.0158005E0,0E0,1.116251E0,0E0,0E0],"parents":[2147483647,0,0,2,2],"right_children":[2,-1,4,-1,-1],"split_conditions":[-1.8861261E-1,4.8250582E-2,-4.1749185E-1,8.929848E-3,-6.911408E-2],"split_indices":[41,0,128,0,0],"split_type":[0,0,0,0,0],"sum_hessian":[1.0100642E1,4.088603E0,6.0120397E0,3.0017774E0,3.010262E0],"tree_param":{"num_deleted":"0","num_feature":"144","num_nodes":"5","size_leaf_vector":"1"}},{"base_weights":[-9.6893385E-2,-5.5809405E-2,2.591435E-2],"categories":[],"categories_nodes":[],"categories_segments":[],"categories_sizes":[],"default_left":[0,0,0],"id":48,"left_children":[1,-1,-1],"loss_changes":[1.8255882E0,0E0,0E0],"parents":[2147483647,0,0],"right_children":[2,-1,-1],"split_conditions":[-6.7899716E-1,-5.5809405E-2,2.591435E-2],"split_indices":[143,0,0],"split_type":[0,0,0],"sum_hessian":[9.237004E0,3.7769399E0,5.460065E0],"tree_param":{"num_deleted":"0","num_feature":"144","num_nodes":"3","size_leaf_vector":"1"}},{"base_weights":[1.3225977E-2,-2.705402E-1,4.579594E-2,2.2781916E-2,-7.564054E-2],"categories":[],"categories_nodes":[],"categories_segments":[],"categories_sizes":[],"default_left":[0,0,0,0,0],"id":49,"left_children":[1,3,-1,-1,-1],"loss_changes":[1.5623264E0,2.0093722E0,0E0,0E0,0E0],"parents":[2147483647,0,0,1,1],"right_children":[2,4,-1,-1,-1],"split_conditions":[1.2067304E-1,-3.6048496E-1,4.579594E-2,2.2781916E-2,-7.564054E-2],"split_indices":[66,128,0,0,0],"split_type":[0,0,0,0,0],"sum_hessian":[1.0397992E1,6.586864E0,3.8111281E0,3.5138054E0,3.0730584E0],"tree_param":{"num_deleted":"0","num_feature":"144","num_nodes":"5","size_leaf_vector":"1"}},{"base_weights":[-1.9423455E-2,-2.969165E-1,5.4644037E-2,-6.086402E-2,1.653004E-2],"categories":[],"categories_nodes":[],"categories_segments":[],"categories_sizes":[],"default_left":[0,0,0,0,0],"id":50,"left_children":[1,3,-1,-1,-1],"loss_changes":[1.9433087E0,1.2905219E0,0E0,0E0,0E0],"parents":[2147483647,0,0,1,1],"right_children":[2,4,-1,-1,-1],"split_conditions":[4.9313745E-1,-6.4143516E-2,5.4644037E-2,-6.086402E-2,1.653004E-2],"split_indices":[29,113,0,0,0],"split_type":[0,0,0,0,0],"sum_hessian":[1.0342659E1,7.2584734E0,3.0841854E0,4.1457524E0,3.1127212E0],"tree_param":{"num_deleted":"0","num_feature":"144","num_nodes":"5","size_leaf_vector":"1"}},{"base_weights":[-3.22141E-2,2.452282E-1,-5.7143506E-2,5.5399675E-2,-1.8041996E-2],"categories":[],"categories_nodes":[],"categories_segments":[],"categories_sizes":[],"default_left":[0,0,0,0,0],"id":51,"left_children":[1,3,-1,-1,-1],"loss_changes":[1.8983357E0,1.2117664E0,0E0,0E0,0E0],"parents":[2147483647,0,0,1,1],"right_children":[2,4,-1,-1,-1],"split_conditions":[7.3317593E-1,-3.6048496E-1,-5.7143506E-2,5.5399675E-2,-1.8041996E-2],"split_indices":[8,128,0,0,0],"split_type":[0,0,0,0,0],"sum_hessian":[1.0752486E1,7.4595723E0,3.2929142E0,4.148605E0,3.3109674E0],"tree_param":{"num_deleted":"0","num_feature":"144","num_nodes":"5","size_leaf_vector":"1"}},{"base_weights":[1.5833281E-2,-2.9250234E-1,4.8942078E-2,1.5400426E-2,-6.652308E-2],"categories":[],"categories_nodes":[],"categories_segments":[],"categories_sizes":[],"default_left":[0,0,0,0,0],"id":52,"left_children":[1,3,-1,-1,-1],"loss_changes":[1.6871036E0,1.2723911E0,0E0,0E0,0E0],"parents":[2147483647,0,0,1,1],"right_children":[2,4,-1,-1,-1],"split_conditions":[2.6964366E-1,-4.5793486E-1,4.8942078E-2,1.5400426E-2,-6.652308E-2],"split_indices":[6,122,0,0,0],"split_type":[0,0,0,0,0],"sum_hessian":[9.573247E0,6.0298195E0,3.543428E0,3.0103807E0,3.0194387E0],"tree_param":{"num_deleted":"0","num_feature":"144","num_nodes":"5","size_leaf_vector":"1"}},{"base_weights":[-7.1828805E-2,2.4527987E-2,-4.979508E-2],"categories":[],"categories_nodes":[],"categories_segments":[],"categories_sizes":[],"default_left":[0,0,0],"id":53,"left_children":[1,-1,-1],"loss_changes":[1.5106698E0,0E0,0E0],"parents":[2147483647,0,0],"right_children":[2,-1,-1],"split_conditions":[5.822946E-1,2.4527987E-2,-4.979508E-2],"split_indices":[8,0,0],"split_type":[0,0,0],"sum_hessian":[9.27576E0,5.5614595E0,3.7143004E0],"tree_param":{"num_deleted":"0","num_feature":"144","num_nodes":"3","size_leaf_vector":"1"}},{"base_weights":[3.2907013E-2,4.2716473E-2,-4.3658625E-2],"categories":[],"categories_nodes":[],"categories_segments":[],"categories_sizes":[],"default_left":[0,0,0],"id":54,"left_children":[1,-1,-1],"loss_changes":[2.1709757E0,0E0,0E0],"parents":[2147483647,0,0],"right_children":[2,-1,-1],"split_conditions":[-1.1263729E-1,4.2716473E-2,-4.3658625E-2],"split_indices":[31,0,0],"split_type":[0,0,0],"sum_hessian":[9.721055E0,5.3329005E0,4.388154E0],"tree_param":{"num_deleted":"0","num_feature":"144","num_nodes":"3","size_leaf_vector":"1"}},{"base_weights":[1.0158131E-2,-3.6480363E-2,4.9703714E-2],"categories":[],"categories_nodes":[],"categories_segments":[],"categories_sizes":[],"default_left":[0,0,0],"id":55,"left_children":[1,-1,-1],"loss_changes":[2.0304346E0,0E0,0E0],"parents":[2147483647,0,0],"right_children":[2,-1,-1],"split_conditions":[-2.5453487E-1,-3.6480363E-2,4.9703714E-2],"split_indices":[40,0,0],"split_type":[0,0,0],"sum_hessian":[9.128744E0,5.298739E0,3.830005E0],"tree_param":{"num_deleted":"0","num_feature":"144","num_nodes":"3","size_leaf_vector":"1"}},{"base_weights":[1.611926E-1,5.3023465E-2,-3.501432E-2],"categories":[],"categories_nodes":[],"categories_segments":[],"categories_sizes":[],"default_left":[0,0,0],"id":56,"left_children":[1,-1,-1],"loss_changes":[1.8836635E0,0E0,0E0],"parents":[2147483647,0,0],"right_children":[2,-1,-1],"split_conditions":[2.0567171E-1,5.3023465E-2,-3.501432E-2],"split_indices":[14,0,0],"split_type":[0,0,0],"sum_hessian":[7.9982295E0,4.6240172E0,3.3742125E0],"tree_param":{"num_deleted":"0","num_feature":"144","num_nodes":"3","size_leaf_vector":"1"}},{"base_weights":[-1.4762518E-2,5.9794225E-2,-3.618187E-1,1.820357E-2,-7.826008E-2],"categories":[],"categories_nodes":[],"categories_segments":[],"categories_sizes":[],"default_left":[0,0,0,0,0],"id":57,"left_children":[1,-1,3,-1,-1],"loss_changes":[2.5249243E0,0E0,1.8711005E0,0E0,0E0],"parents":[2147483647,0,0,2,2],"right_children":[2,-1,4,-1,-1],"split_conditions":[-7.319183E-1,5.9794225E-2,-5.3005487E-1,1.820357E-2,-7.826008E-2],"split_indices":[70,0,87,0,0],"split_type":[0,0,0,0,0],"sum_hessian":[9.856589E0,3.302806E0,6.5537834E0,3.1063108E0,3.4474723E0],"tree_param":{"num_deleted":"0","num_feature":"144","num_nodes":"5","size_leaf_vector":"1"}},{"base_weights":[6.337578E-2,4.902968E-2,-2.9815262E-2],"categories":[],"categories_nodes":[],"categories_segments":[],"categories_sizes":[],"default_left":[0,0,0],"id":58,"left_children":[1,-1,-1],"loss_changes":[1.717293E0,0E0,0E0],"parents":[2147483647,0,0],"right_children":[2,-1,-1],"split_conditions":[-1.8861261E-1,4.902968E-2,-2.9815262E-2],"split_indices":[41,0,0],"split_type":[0,0,0],"sum_hessian":[9.179268E0,4.045659E0,5.133609E0],"tree_param":{"num_deleted":"0","num_feature":"144","num_nodes":"3","size_leaf_vector":"1"}},{"base_weights":[3.4622107E-2,4.026317E-2,-5.5379927E-2],"categories":[],"categories_nodes":[],"categories_segments":[],"categories_sizes":[],"default_left":[0,0,0],"id":59,"left_children":[1,-1,-1],"loss_changes":[2.3000522E0,0E0,0E0],"parents":[2147483647,0,0],"right_children":[2,-1,-1],"split_conditions":[3.37859E-1,4.026317E-2,-5.5379927E-2],"split_indices":[46,0,0],"split_type":[0,0,0],"sum_hessian":[8.591901E0,5.4802155E0,3.1116853E0],"tree_param":{"num_deleted":"0","num_feature":"144","num_nodes":"3","size_leaf_vector":"1"}},{"base_weights":[-1.15719035E-1,2.2110518E-2,-4.1663464E-2],"categories":[],"categories_nodes":[],"categories_segments":[],"categories_sizes":[],"default_left":[0,0,0],"id":60,"left_children":[1,-1,-1],"loss_changes":[1.1255032E0,0E0,0E0],"parents":[2147483647,0,0],"right_children":[2,-1,-1],"split_conditions":[-1.8861261E-1,2.2110518E-2,-4.1663464E-2],"split_indices":[41,0,0],"split_type":[0,0,0],"sum_hessian":[9.195614E0,4.4640684E0,4.7315454E0],"tree_param":{"num_deleted":"0","num_feature":"144","num_nodes":"3","size_leaf_vector":"1"}},{"base_weights":[3.9970484E-2,2.868014E-2,-3.737087E-2],"categories":[],"categories_nodes":[],"categories_segments":[],"categories_sizes":[],"default_left":[0,0,0],"id":61,"left_children":[1,-1,-1],"loss_changes":[1.1472524E0,0E0,0E0],"parents":[2147483647,0,0],"right_children":[2,-1,-1],"split_conditions":[4.9957484E-1,2.868014E-2,-3.737087E-2],"split_indices":[84,0,0],"split_type":[0,0,0],"sum_hessian":[9.18592E0,5.945256E0,3.2406638E0],"tree_param":{"num_deleted":"0","num_feature":"144","num_nodes":"3","size_leaf_vector":"1"}},{"base_weights":[-1.756255E-2,-2.6240392E-2,3.341676E-2],"categories":[],"categories_nodes":[],"categories_segments":[],"categories_sizes":[],"default_left":[0,0,0],"id":62,"left_children":[1,-1,-1],"loss_changes":[8.9882946E-1,0E0,0E0],"parents":[2147483647,0,0],"right_children":[2,-1,-1],"split_conditions":[2.0161733E-1,-2.6240392E-2,3.341676E-2],"split_indices":[140,0,0],"split_type":[0,0,0],"sum_hessian":[8.418957E0,5.113431E0,3.305526E0],"tree_param":{"num_deleted":"0","num_feature":"144","num_nodes":"3","size_leaf_vector":"1"}},{"base_weights":[-1.2513833E-1,-6.0705513E-2,2.2084E-2],"categories":[],"categories_nodes":[],"categories_segments":[],"categories_sizes":[],"default_left":[0,0,0],"id":63,"left_children":[1,-1,-1],"loss_changes":[1.6631533E0,0E0,0E0],"parents":[2147483647,0,0],"right_children":[2,-1,-1],"split_conditions":[-5.832691E-1,-6.0705513E-2,2.2084E-2],"split_indices":[40,0,0],"split_type":[0,0,0],"sum_hessian":[8.17091E0,3.0992827E0,5.071627E0],"tree_param":{"num_deleted":"0","num_feature":"144","num_nodes":"3","size_leaf_vector":"1"}},{"base_weights":[1.3158156E-1,4.6919193E-2,-3.486448E-2],"categories":[],"categories_nodes":[],"categories_segments":[],"categories_sizes":[],"default_left":[0,0,0],"id":64,"left_children":[1,-1,-1],"loss_changes":[1.759949E0,0E0,0E0],"parents":[2147483647,0,0],"right_children":[2,-1,-1],"split_conditions":[4.5967302E-1,4.6919193E-2,-3.486448E-2],"split_indices":[56,0,0],"split_type":[0,0,0],"sum_hessian":[8.846256E0,5.207934E0,3.638322E0],"tree_param":{"num_deleted":"0","num_feature":"144","num_nodes":"3","size_leaf_vector":"1"}},{"base_weights":[-8.6769775E-2,2.4178037E-2,-5.7733204E-2],"categories":[],"categories_nodes":[],"categories_segments":[],"categories_sizes":[],"default_left":[0,0,0],"id":65,"left_children":[1,-1,-1],"loss_changes":[1.7762462E0,0E0,0E0],"parents":[2147483647,0,0],"right_children":[2,-1,-1],"split_conditions":[5.822946E-1,2.4178037E-2,-5.7733204E-2],"split_indices":[8,0,0],"split_type":[0,0,0],"sum_hessian":[9.154589E0,5.786358E0,3.3682306E0],"tree_param":{"num_deleted":"0","num_feature":"144","num_nodes":"3","size_leaf_vector":"1"}},{"base_weights":[-1.6034832E-2,-4.3817956E-2,4.043967E-2],"categories":[],"categories_nodes":[],"categories_segments":[],"categories_sizes":[],"default_left":[0,0,0],"id":66,"left_children":[1,-1,-1],"loss_changes":[1.7839105E0,0E0,0E0],"parents":[2147483647,0,0],"right_children":[2,-1,-1],"split_conditions":[-2.945482E-1,-4.3817956E-2,4.043967E-2],"split_indices":[138,0,0],"split_type":[0,0,0],"sum_hessian":[8.052769E0,3.9971337E0,4.0556355E0],"tree_param":{"num_deleted":"0","num_feature":"144","num_nodes":"3","size_leaf_vector":"1"}},{"base_weights":[2.0408435E-3,3.8603123E-2,-2.6320873E-2],"categories":[],"categories_nodes":[],"categories_segments":[],"categories_sizes":[],"default_left":[0,0,0],"id":67,"left_children":[1,-1,-1],"loss_changes":[1.1861731E0,0E0,0E0],"parents":[2147483647,0,0],"right_children":[2,-1,-1],"split_conditions":[-7.319183E-1,3.8603123E-2,-2.6320873E-2],"split_indices":[70,0,0],"split_type":[0,0,0],"sum_hessian":[9.64832E0,3.7558243E0,5.892496E0],"tree_param":{"num_deleted":"0","num_feature":"144","num_nodes":"3","size_leaf_vector":"1"}},{"base_weights":[2.7127285E-3,3.2192707E-2,-3.7581842E-2],"categories":[],"categories_nodes":[],"categories_segments":[],"categories_sizes":[],"default_left":[0,0,0],"id":68,"left_children":[1,-1,-1],"loss_changes":[1.340511E0,0E0,0E0],"parents":[2147483647,0,0],"right_children":[2,-1,-1],"split_conditions":[4.9873608E-1,3.2192707E-2,-3.7581842E-2],"split_indices":[57,0,0],"split_type":[0,0,0],"sum_hessian":[9.092683E0,5.01396E0,4.0787234E0],"tree_param":{"num_deleted":"0","num_feature":"144","num_nodes":"3","size_leaf_vector":"1"}},{"base_weights":[-5.155091E-2,2.9207999E-2,-5.866782E-2],"categories":[],"categories_nodes":[],"categories_segments":[],"categories_sizes":[],"default_left":[0,0,0],"id":69,"left_children":[1,-1,-1],"loss_changes":[1.9439425E0,0E0,0E0],"parents":[2147483647,0,0],"right_children":[2,-1,-1],"split_conditions":[7.3317593E-1,2.9207999E-2,-5.866782E-2],"split_indices":[8,0,0],"split_type":[0,0,0],"sum_hessian":[8.639575E0,5.537723E0,3.1018515E0],"tree_param":{"num_deleted":"0","num_feature":"144","num_nodes":"3","size_leaf_vector":"1"}},{"base_weights":[-6.828103E-2,2.8973196E-2,-3.455993E-2],"categories":[],"categories_nodes":[],"categories_segments":[],"categories_sizes":[],"default_left":[0,0,0],"id":70,"left_children":[1,-1,-1],"loss_changes":[9.8636156E-1,0E0,0E0],"parents":[2147483647,0,0],"right_children":[2,-1,-1],"split_conditions":[-1.8861261E-1,2.8973196E-2,-3.455993E-2],"split_indices":[41,0,0],"split_type":[0,0,0],"sum_hessian":[7.926257E0,3.4402244E0,4.486033E0],"tree_param":{"num_deleted":"0","num_feature":"144","num_nodes":"3","size_leaf_vector":"1"}},{"base_weights":[2.0521691E-1,-2.1229524E-2,5.01206E-2],"categories":[],"categories_nodes":[],"categories_segments":[],"categories_sizes":[],"default_left":[0,0,0],"id":71,"left_children":[1,-1,-1],"loss_changes":[1.2065301E0,0E0,0E0],"parents":[2147483647,0,0],"right_children":[2,-1,-1],"split_conditions":[-8.969671E-1,-2.1229524E-2,5.01206E-2],"split_indices":[18,0,0],"split_type":[0,0,0],"sum_hessian":[7.9022093E0,3.3954551E0,4.5067544E0],"tree_param":{"num_deleted":"0","num_feature":"144","num_nodes":"3","size_leaf_vector":"1"}},{"base_weights":[2.5990847E-2,-4.0810186E-2,3.4044262E-2],"categories":[],"categories_nodes":[],"categories_segments":[],"categories_sizes":[],"default_left":[0,0,0],"id":72,"left_children":[1,-1,-1],"loss_changes":[1.4284327E0,0E0,0E0],"parents":[2147483647,0,0],"right_children":[2,-1,-1],"split_conditions":[-4.8993173E-1,-4.0810186E-2,3.4044262E-2],"split_indices":[54,0,0],"split_type":[0,0,0],"sum_hessian":[8.446785E0,3.4232519E0,5.0235333E0],"tree_param":{"num_deleted":"0","num_feature":"144","num_nodes":"3","size_leaf_vector":"1"}},{"base_weights":[-1.9384825E-1,-4.796151E-2,2.7751807E-2],"categories":[],"categories_nodes":[],"categories_segments":[],"categories_sizes":[],"default_left":[0,0,0],"id":73,"left_children":[1,-1,-1],"loss_changes":[1.420374E0,0E0,0E0],"parents":[2147483647,0,0],"right_children":[2,-1,-1],"split_conditions":[-6.4143516E-2,-4.796151E-2,2.7751807E-2],"split_indices":[113,0,0],"split_type":[0,0,0],"sum_hessian":[8.556525E0,5.316118E0,3.2404075E0],"tree_param":{"num_deleted":"0","num_feature":"144","num_nodes":"3","size_leaf_vector":"1"}},{"base_weights":[3.0738438E-2,4.7905963E-2,-3.3551257E-2],"categories":[],"categories_nodes":[],"categories_segments":[],"categories_sizes":[],"default_left":[0,0,0],"id":74,"left_children":[1,-1,-1],"loss_changes":[1.4927806E0,0E0,0E0],"parents":[2147483647,0,0],"right_children":[2,-1,-1],"split_conditions":[4.0352017E-2,4.7905963E-2,-3.3551257E-2],"split_indices":[73,0,0],"split_type":[0,0,0],"sum_hessian":[7.1124573E0,3.0594418E0,4.0530157E0],"tree_param":{"num_deleted":"0","num_feature":"144","num_nodes":"3","size_leaf_vector":"1"}},{"base_weights":[-1.2939458E-1,1.768321E-2,-5.6811184E-2],"categories":[],"categories_nodes":[],"categories_segments":[],"categories_sizes":[],"default_left":[0,0,0],"id":75,"left_children":[1,-1,-1],"loss_changes":[1.4461927E0,0E0,0E0],"parents":[2147483647,0,0],"right_children":[2,-1,-1],"split_conditions":[4.0277603E-1,1.768321E-2,-5.6811184E-2],"split_indices":[82,0,0],"split_type":[0,0,0],"sum_hessian":[9.016844E0,5.661809E0,3.355035E0],"tree_param":{"num_deleted":"0","num_feature":"144","num_nodes":"3","size_leaf_vector":"1"}},{"base_weights":[-2.3164187E-2,2.8629884E-2,-3.896523E-2],"categories":[],"categories_nodes":[],"categories_segments":[],"categories_sizes":[],"default_left":[0,0,0],"id":76,"left_children":[1,-1,-1],"loss_changes":[1.0421582E0,0E0,0E0],"parents":[2147483647,0,0],"right_children":[2,-1,-1],"split_conditions":[2.9174513E-1,2.8629884E-2,-3.896523E-2],"split_indices":[84,0,0],"split_type":[0,0,0],"sum_hessian":[7.2053094E0,4.025216E0,3.180093E0],"tree_param":{"num_deleted":"0","num_feature":"144","num_nodes":"3","size_leaf_vector":"1"}},{"base_weights":[3.3302702E-2,2.8841352E-2,-3.0246157E-2],"categories":[],"categories_nodes":[],"categories_segments":[],"categories_sizes":[],"default_left":[0,0,0],"id":77,"left_children":[1,-1,-1],"loss_changes":[9.127584E-1,0E0,0E0],"parents":[2147483647,0,0],"right_children":[2,-1,-1],"split_conditions":[5.769481E-1,2.8841352E-2,-3.0246157E-2],"split_indices":[8,0,0],"split_type":[0,0,0],"sum_hessian":[8.637548E0,4.9884157E0,3.6491323E0],"tree_param":{"num_deleted":"0","num_feature":"144","num_nodes":"3","size_leaf_vector":"1"}},{"base_weights":[-1.8109299E-1,3.4581583E-2,-5.6556292E-2],"categories":[],"categories_nodes":[],"categories_segments":[],"categories_sizes":[],"default_left":[0,0,0],"id":78,"left_children":[1,-1,-1],"loss_changes":[1.9761609E0,0E0,0E0],"parents":[2147483647,0,0],"right_children":[2,-1,-1],"split_conditions":[1.193603E-1,3.4581583E-2,-5.6556292E-2],"split_indices":[87,0,0],"split_type":[0,0,0],"sum_hessian":[7.789491E0,3.3284507E0,4.4610405E0],"tree_param":{"num_deleted":"0","num_feature":"144","num_nodes":"3","size_leaf_vector":"1"}},{"base_weights":[-7.356053E-2,1.8458938E-2,-4.856221E-2],"categories":[],"categories_nodes":[],"categories_segments":[],"categories_sizes":[],"default_left":[0,0,0],"id":79,"left_children":[1,-1,-1],"loss_changes":[1.174195E0,0E0,0E0],"parents":[2147483647,0,0],"right_children":[2,-1,-1],"split_conditions":[5.33407E-1,1.8458938E-2,-4.856221E-2],"split_indices":[87,0,0],"split_type":[0,0,0],"sum_hessian":[9.195704E0,5.993136E0,3.2025688E0],"tree_param":{"num_deleted":"0","num_feature":"144","num_nodes":"3","size_leaf_vector":"1"}},{"base_weights":[1.21240646E-1,-2.7304048E-2,4.17033E-2],"categories":[],"categories_nodes":[],"categories_segments":[],"categories_sizes":[],"default_left":[0,0,0],"id":80,"left_children":[1,-1,-1],"loss_changes":[1.2109501E0,0E0,0E0],"parents":[2147483647,0,0],"right_children":[2,-1,-1],"split_conditions":[8.618208E-2,-2.7304048E-2,4.17033E-2],"split_indices":[64,0,0],"split_type":[0,0,0],"sum_hessian":[8.406905E0,3.6364968E0,4.770408E0],"tree_param":{"num_deleted":"0","num_feature":"144","num_nodes":"3","size_leaf_vector":"1"}},{"base_weights":[-5.1471423E-3,3.3893064E-2,-5.2128136E-2],"categories":[],"categories_nodes":[],"categories_segments":[],"categories_sizes":[],"default_left":[0,0,0],"id":81,"left_children":[1,-1,-1],"loss_changes":[1.7969415E0,0E0,0E0],"parents":[2147483647,0,0],"right_children":[2,-1,-1],"split_conditions":[5.33407E-1,3.3893064E-2,-5.2128136E-2],"split_indices":[87,0,0],"split_type":[0,0,0],"sum_hessian":[8.123601E0,5.080227E0,3.043374E0],"tree_param":{"num_deleted":"0","num_feature":"144","num_nodes":"3","size_leaf_vector":"1"}},{"base_weights":[-2.3229072E-2,2.0152254E-2,-3.643098E-2],"categories":[],"categories_nodes":[],"categories_segments":[],"categories_sizes":[],"default_left":[0,0,0],"id":82,"left_children":[1,-1,-1],"loss_changes":[7.7876467E-1,0E0,0E0],"parents":[2147483647,0,0],"right_children":[2,-1,-1],"split_conditions":[-1.4636123E-1,2.0152254E-2,-3.643098E-2],"split_indices":[31,0,0],"split_type":[0,0,0],"sum_hessian":[8.201178E0,5.1902685E0,3.0109088E0],"tree_param":{"num_deleted":"0","num_feature":"144","num_nodes":"3","size_leaf_vector":"1"}},{"base_weights":[-4.966259E-2,-3.6711894E-2,2.3470871E-2],"categories":[],"categories_nodes":[],"categories_segments":[],"categories_sizes":[],"default_left":[0,0,0],"id":83,"left_children":[1,-1,-1],"loss_changes":[9.916524E-1,0E0,0E0],"parents":[2147483647,0,0],"right_children":[2,-1,-1],"split_conditions":[-3.0732602E-1,-3.6711894E-2,2.3470871E-2],"split_indices":[29,0,0],"split_type":[0,0,0],"sum_hessian":[9.03026E0,4.1294203E0,4.90084E0],"tree_param":{"num_deleted":"0","num_feature":"144","num_nodes":"3","size_leaf_vector":"1"}},{"base_weights":[-9.693305E-2,2.4976594E-2,-3.399905E-2],"categories":[],"categories_nodes":[],"categories_segments":[],"categories_sizes":[],"default_left":[0,0,0],"id":84,"left_children":[1,-1,-1],"loss_changes":[9.385251E-1,0E0,0E0],"parents":[2147483647,0,0],"right_children":[2,-1,-1],"split_conditions":[-7.319183E-1,2.4976594E-2,-3.399905E-2],"split_indices":[70,0,0],"split_type":[0,0,0],"sum_hessian":[9.129699E0,3.7512648E0,5.378434E0],"tree_param":{"num_deleted":"0","num_feature":"144","num_nodes":"3","size_leaf_vector":"1"}},{"base_weights":[4.6643168E-2,5.6844342E-2,-3.4666277E-2],"categories":[],"categories_nodes":[],"categories_segments":[],"categories_sizes":[],"default_left":[0,0,0],"id":85,"left_children":[1,-1,-1],"loss_changes":[1.9608461E0,0E0,0E0],"parents":[2147483647,0,0],"right_children":[2,-1,-1],"split_conditions":[-6.936228E-1,5.6844342E-2,-3.4666277E-2],"split_indices":[34,0,0],"split_type":[0,0,0],"sum_hessian":[7.594321E0,3.0725985E0,4.5217223E0],"tree_param":{"num_deleted":"0","num_feature":"144","num_nodes":"3","size_leaf_vector":"1"}},{"base_weights":[-3.5201486E-2,1.87739E-1,-4.133468E-2,4.148904E-2,-8.349284E-3],"categories":[],"categories_nodes":[],"categories_segments":[],"categories_sizes":[],"default_left":[0,0,0,0,0],"id":86,"left_children":[1,3,-1,-1,-1],"loss_changes":[9.31387E-1,4.69544E-1,0E0,0E0,0E0],"parents":[2147483647,0,0,1,1],"right_children":[2,4,-1,-1,-1],"split_conditions":[5.33407E-1,1.647081E-1,-4.133468E-2,4.148904E-2,-8.349284E-3],"split_indices":[87,60,0,0,0],"split_type":[0,0,0,0,0],"sum_hessian":[9.127475E0,6.0588994E0,3.0685759E0,3.0091457E0,3.0497534E0],"tree_param":{"num_deleted":"0","num_feature":"144","num_nodes":"5","size_leaf_vector":"1"}},{"base_weights":[1.770082E-2,3.339693E-2,-3.4580454E-2],"categories":[],"categories_nodes":[],"categories_segments":[],"categories_sizes":[],"default_left":[0,0,0],"id":87,"left_children":[1,-1,-1],"loss_changes":[1.2529209E0,0E0,0E0],"parents":[2147483647,0,0],"right_children":[2,-1,-1],"split_conditions":[-1.1263729E-1,3.339693E-2,-3.4580454E-2],"split_indices":[31,0,0],"split_type":[0,0,0],"sum_hessian":[8.893706E0,4.799311E0,4.0943956E0],"tree_param":{"num_deleted":"0","num_feature":"144","num_nodes":"3","size_leaf_vector":"1"}},{"base_weights":[5.770693E-2,-2.4832567E-2,4.0883835E-2],"categories":[],"categories_nodes":[],"categories_segments":[],"categories_sizes":[],"default_left":[0,0,0],"id":88,"left_children":[1,-1,-1],"loss_changes":[1.0456383E0,0E0,0E0],"parents":[2147483647,0,0],"right_children":[2,-1,-1],"split_conditions":[2.6964366E-1,-2.4832567E-2,4.0883835E-2],"split_indices":[6,0,0],"split_type":[0,0,0],"sum_hessian":[7.785909E0,4.316553E0,3.4693563E0],"tree_param":{"num_deleted":"0","num_feature":"144","num_nodes":"3","size_leaf_vector":"1"}},{"base_weights":[-1.3210072E-1,2.7573837E-2,-5.0777644E-2],"categories":[],"categories_nodes":[],"categories_segments":[],"categories_sizes":[],"default_left":[0,0,0],"id":89,"left_children":[1,-1,-1],"loss_changes":[1.5413591E0,0E0,0E0],"parents":[2147483647,0,0],"right_children":[2,-1,-1],"split_conditions":[-2.0065318E-1,2.7573837E-2,-5.0777644E-2],"split_indices":[76,0,0],"split_type":[0,0,0],"sum_hessian":[8.1462555E0,4.0334754E0,4.11278E0],"tree_param":{"num_deleted":"0","num_feature":"144","num_nodes":"3","size_leaf_vector":"1"}},{"base_weights":[5.4879384E-3,3.5038885E-2,-4.1848894E-2],"categories":[],"categories_nodes":[],"categories_segments":[],"categories_sizes":[],"default_left":[0,0,0],"id":90,"left_children":[1,-1,-1],"loss_changes":[1.398511E0,0E0,0E0],"parents":[2147483647,0,0],"right_children":[2,-1,-1],"split_conditions":[-3.502889E-1,3.5038885E-2,-4.1848894E-2],"split_indices":[21,0,0],"split_type":[0,0,0],"sum_hessian":[7.5610127E0,4.2650247E0,3.2959883E0],"tree_param":{"num_deleted":"0","num_feature":"144","num_nodes":"3","size_leaf_vector":"1"}},{"base_weights":[-1.1377366E-1,-3.710786E-2,2.8849138E-2],"categories":[],"categories_nodes":[],"categories_segments":[],"categories_sizes":[],"default_left":[0,0,0],"id":91,"left_children":[1,-1,-1],"loss_changes":[1.0662072E0,0E0,0E0],"parents":[2147483647,0,0],"right_children":[2,-1,-1],"split_conditions":[-6.4143516E-2,-3.710786E-2,2.8849138E-2],"split_indices":[113,0,0],"split_type":[0,0,0],"sum_hessian":[8.266763E0,5.089098E0,3.177665E0],"tree_param":{"num_deleted":"0","num_feature":"144","num_nodes":"3","size_leaf_vector":"1"}},{"base_weights":[1.5690888E-1,3.8311798E-2,-1.7741237E-2],"categories":[],"categories_nodes":[],"categories_segments":[],"categories_sizes":[],"default_left":[0,0,0],"id":92,"left_children":[1,-1,-1],"loss_changes":[7.0612156E-1,0E0,0E0],"parents":[2147483647,0,0],"right_children":[2,-1,-1],"split_conditions":[6.560633E-1,3.8311798E-2,-1.7741237E-2],"split_indices":[8,0,0],"split_type":[0,0,0],"sum_hessian":[7.438202E0,4.349367E0,3.088835E0],"tree_param":{"num_deleted":"0","num_feature":"144","num_nodes":"3","size_leaf_vector":"1"}},{"base_weights":[-2.9439512E-3,-3.1167313E-2,3.7239533E-2],"categories":[],"categories_nodes":[],"categories_segments":[],"categories_sizes":[],"default_left":[0,0,0],"id":93,"left_children":[1,-1,-1],"loss_changes":[1.1044014E0,0E0,0E0],"parents":[2147483647,0,0],"right_children":[2,-1,-1],"split_conditions":[5.921106E-2,-3.1167313E-2,3.7239533E-2],"split_indices":[142,0,0],"split_type":[0,0,0],"sum_hessian":[7.5290923E0,4.2241826E0,3.3049095E0],"tree_param":{"num_deleted":"0","num_feature":"144","num_nodes":"3","size_leaf_vector":"1"}},{"base_weights":[6.6017206E-3,3.369056E-2,-2.4792517E-2],"categories":[],"categories_nodes":[],"categories_segments":[],"categories_sizes":[],"default_left":[0,0,0],"id":94,"left_children":[1,-1,-1],"loss_changes":[8.6410093E-1,0E0,0E0],"parents":[2147483647,0,0],"right_children":[2,-1,-1],"split_conditions":[-1.8861261E-1,3.369056E-2,-2.4792517E-2],"split_indices":[41,0,0],"split_type":[0,0,0],"sum_hessian":[8.284671E0,3.4647508E0,4.81992E0],"tree_param":{"num_deleted":"0","num_feature":"144","num_nodes":"3","size_leaf_vector":"1"}},{"base_weights":[-4.445909E-2,2.057777E-2,-4.1478727E-2],"categories":[],"categories_nodes":[],"categories_segments":[],"categories_sizes":[],"default_left":[0,0,0],"id":95,"left_children":[1,-1,-1],"loss_changes":[9.6561277E-1,0E0,0E0],"parents":[2147483647,0,0],"right_children":[2,-1,-1],"split_conditions":[5.33407E-1,2.057777E-2,-4.1478727E-2],"split_indices":[87,0,0],"split_type":[0,0,0],"sum_hessian":[8.498881E0,5.3369527E0,3.161929E0],"tree_param":{"num_deleted":"0","num_feature":"144","num_nodes":"3","size_leaf_vector":"1"}},{"base_weights":[3.0168123E-3,3.6180332E-2,-2.4244264E-2],"categories":[],"categories_nodes":[],"categories_segments":[],"categories_sizes":[],"default_left":[0,0,0],"id":96,"left_children":[1,-1,-1],"loss_changes":[8.80583E-1,0E0,0E0],"parents":[2147483647,0,0],"right_children":[2,-1,-1],"split_conditions":[-2.6813844E-1,3.6180332E-2,-2.4244264E-2],"split_indices":[76,0,0],"split_type":[0,0,0],"sum_hessian":[8.002935E0,3.0584438E0,4.944492E0],"tree_param":{"num_deleted":"0","num_feature":"144","num_nodes":"3","size_leaf_vector":"1"}},{"base_weights":[6.724457E-2,3.7307285E-2,-3.7988983E-2],"categories":[],"categories_nodes":[],"categories_segments":[],"categories_sizes":[],"default_left":[0,0,0],"id":97,"left_children":[1,-1,-1],"loss_changes":[1.4081454E0,0E0,0E0],"parents":[2147483647,0,0],"right_children":[2,-1,-1],"split_conditions":[4.9873608E-1,3.7307285E-2,-3.7988983E-2],"split_indices":[57,0,0],"split_type":[0,0,0],"sum_hessian":[8.261081E0,5.004066E0,3.2570148E0],"tree_param":{"num_deleted":"0","num_feature":"144","num_nodes":"3","size_leaf_vector":"1"}},{"base_weights":[1.6511679E-1,5.5458527E-2,-1.9280812E-2],"categories":[],"categories_nodes":[],"categories_segments":[],"categories_sizes":[],"default_left":[0,0,0],"id":98,"left_children":[1,-1,-1],"loss_changes":[1.2847102E0,0E0,0E0],"parents":[2147483647,0,0],"right_children":[2,-1,-1],"split_conditions":[-2.9898292E-1,5.5458527E-2,-1.9280812E-2],"split_indices":[129,0,0],"split_type":[0,0,0],"sum_hessian":[7.448906E0,3.3041348E0,4.144771E0],"tree_param":{"num_deleted":"0","num_feature":"144","num_nodes":"3","size_leaf_vector":"1"}},{"base_weights":[-7.871567E-2,2.2044899E-2,-4.2134415E-2],"categories":[],"categories_nodes":[],"categories_segments":[],"categories_sizes":[],"default_left":[0,0,0],"id":99,"left_children":[1,-1,-1],"loss_changes":[1.0455726E0,0E0,0E0],"parents":[2147483647,0,0],"right_children":[2,-1,-1],"split_conditions":[4.0277603E-1,2.2044899E-2,-4.2134415E-2],"split_indices":[82,0,0],"split_type":[0,0,0],"sum_hessian":[8.294303E0,4.618379E0,3.675924E0],"tree_param":{"num_deleted":"0","num_feature":"144","num_nodes":"3","size_leaf_vector":"1"}}]},"name":"gbtree"},"learner_model_param":{"base_score":"5.9868765E-1","boost_from_average":"1","num_class":"0","num_feature":"144","num_target":"1"},"objective":{"name":"binary:logistic","reg_loss_param":{"scale_pos_weight":"1"}}},"version":[2,0,2]}